encog,BasicNetwork,java,3.3.0,1,1464821368562
[BASIC]
[BASIC:PARAMS]
[BASIC:NETWORK]
beginTraining=0
connectionLimit=0
contextTargetOffset=0,0,0,0
contextTargetSize=0,0,0,0
endTraining=3
hasContext=f
inputCount=784
layerCounts=10,11,11,785
layerFeedCounts=10,10,10,784
layerContextCount=0,0,0,0
layerIndex=0,10,21,32
output=0,0,0,0,0,0,0,0,0,0,0,0,0,0,0,0,0,0,0,0,1,0,0,0,0,0,0,0,0,0,0,1,0,0,0,0,0,0,0,0,0,0,0,0,0,0,0,0,0,0,0,0,0,0,0,0,0,0,0,0,0,0,0,0,0,0,0,0,0,0,0,0,0,0,0,0,0,0,0,0,0,0,0,0,0,0,0,0,0,0,0,0,0,0,0,0,0,0,0,0,0,0,0,0,0,0,0,0,0,0,0,0,0,0,0,0,0,0,0,0,0,0,0,0,0,0,0,0,0,0,0,0,0,0,0,0,0,0,0,0,0,0,0,0,0,0,0,0,0,0,0,0,0,0,0,0,0,0,0,0,0,0,0,0,0,0,0,0,0,0,0,0,0,0,0,0,0,0,0,0,0,0,0,0,0,0,0,0,0,0,0,0,0,0,0,0,0,0,0,0,0,0,0,0,0,0,0,0,0,0,0,0,0,0,0,0,0,0,0,0,0,0,0,0,0,0,0,0,0,0,0,0,0,0,0,0,0,0,0,0,0,0,0,0,0,0,0,0,0,0,0,0,0,0,0,0,0,0,0,0,0,0,0,0,0,0,0,0,0,0,0,0,0,0,0,0,0,0,0,0,0,0,0,0,0,0,0,0,0,0,0,0,0,0,0,0,0,0,0,0,0,0,0,0,0,0,0,0,0,0,0,0,0,0,0,0,0,0,0,0,0,0,0,0,0,0,0,0,0,0,0,0,0,0,0,0,0,0,0,0,0,0,0,0,0,0,0,0,0,0,0,0,0,0,0,0,0,0,0,0,0,0,0,0,0,0,0,0,0,0,0,0,0,0,0,0,0,0,0,0,0,0,0,0,0,0,0,0,0,0,0,0,0,0,0,0,0,0,0,0,0,0,0,0,0,0,0,0,0,0,0,0,0,0,0,0,0,0,0,0,0,0,0,0,0,0,0,0,0,0,0,0,0,0,0,0,0,0,0,0,0,0,0,0,0,0,0,0,0,0,0,0,0,0,0,0,0,0,0,0,0,0,0,0,0,0,0,0,0,0,0,0,0,0,0,0,0,0,0,0,0,0,0,0,0,0,0,0,0,0,0,0,0,0,0,0,0,0,0,0,0,0,0,0,0,0,0,0,0,0,0,0,0,0,0,0,0,0,0,0,0,0,0,0,0,0,0,0,0,0,0,0,0,0,0,0,0,0,0,0,0,0,0,0,0,0,0,0,0,0,0,0,0,0,0,0,0,0,0,0,0,0,0,0,0,0,0,0,0,0,0,0,0,0,0,0,0,0,0,0,0,0,0,0,0,0,0,0,0,0,0,0,0,0,0,0,0,0,0,0,0,0,0,0,0,0,0,0,0,0,0,0,0,0,0,0,0,0,0,0,0,0,0,0,0,0,0,0,0,0,0,0,0,0,0,0,0,0,0,0,0,0,0,0,0,0,0,0,0,0,0,0,0,0,0,0,0,0,0,0,0,0,0,0,0,0,0,0,0,0,0,0,0,0,0,0,0,0,0,0,0,0,0,0,0,0,0,0,0,0,0,0,0,0,0,0,0,0,0,0,0,0,0,0,0,0,0,0,0,0,0,0,0,0,0,0,0,0,0,0,0,0,0,0,0,0,0,0,0,0,0,0,0,0,0,0,0,0,0,0,0,0,0,0,0,0,0,0,0,0,0,0,0,0,0,0,0,0,0,0,0,0,0,0,0,0,0,0,0,0,0,0,0,0,0,0,0,0,0,0,0,0,0,0,0,0,0,0,0,0,0,0,0,0,0,0,0,0,0,0,0,0,0,0,0,0,0,0,0,0,0,0,0,0,0,0,1
outputCount=10
weightIndex=0,110,220,8070
weights=##0
##double#8070
   1.6441007555,5.9969181837,-6.3135592238,-0.2546403406,-16.0077866881,-1.4004642248,7.290217448,2.9664490534,0.5066315732,-4.8745067058,-1.1170993993,-3.7287616842,-2.8186706996,-0.8696078445,-1.3611232936,6.9364459285,-0.1455276598,-5.5288357805,-0.0611472246,-2.0864013853,-0.3785608189,-0.1393490027,-2.1936511811,-1.0340294701,-1.1773831276,2.3672505711,-2.5270175698,-0.5430107678,0.6440562446,0.6193614338,-3.486812306,0.207955915,-0.4012370981,-1.9189625416,0.8882360136,-0.7436101184,3.9722692218,-1.4437540149,-0.9086133106,-1.016336607,0.3283196589,0.3869429927,-0.2778410356,-1.77967465,2.1022172421,0.3543113448,0.0523673014,-5.1272014752,-3.0709545344,0.3756151095,-3.2659054998,0.4341911565,0.211164738,-0.9300283295,-0.088026015,0.293960198,1.1096709625,-1.755646355,0.5358233185,-1.3162885889,-1.9067438406,-1.2771057561,0.4509834058,0.9292533074,0.6660369574,-0.9226446973,-1.8723897901,15.2074137618,0.028810552,-50.0038888591,-5.9279442544,-0.8826683023,2.2579115816,-3.6334259794,9.3683520336,-0.0192869643,0.4926472688,0.9684278734,1.8788150577,-0.2434495126,-0.6708252285,0.9864880041,-1.2777313745,-0.0055503247,3.1812465297,2.1765037293,-3.6390955663,-0.4382190943,-0.8048755116,-0.249251716,-1.0287048503,1.7406262736,-1.3084228483,-0.229404274,-3.4084059377,-0.2318237957,-0.322926934,-0.1268105052,-0.5471939527,1.9692796014,-0.3491935841,0.8391095438,-0.6379844086,-0.9477757752,-1.0578922606,-2.0753267074,-0.3398003081,1.2242326273,-0.2213332414,-1.8414226211,-6823.9716156582,-0.1641956575,-14466.7666924019,9.1608282591,4361.5353238081,-9.1431184797,352.5485526187,-0.0812283669,-9.8221896372,2119.8501600727,0.9658221835,844.4068304078,-5.273800903,-4724.123142508,-1579.0209847683,-9479.1906023851,-3159.8492694817,-876.2860484601,-562.6214281337,-1357.6121090115,-3054.0914571396,-0.5653072048,-1.5600056223,3.1432309157,1487.251224916,-1.5052827966,-2342.0817309785,-1055.2073793249,2130.2512653162,5.9580970584,215.1750996501,-2.2366149517,-0.4444790463,-0.2508657374,-0.7390255132,-84.5312631979,-0.0965331125,-2.9824387992,-0.3974075402,-0.904215623,1.6324986196,-0.4567028415,-0.6402636621,0.5600283895,2.9192338623,0.3592052664,15711.2194442427,-3226.2801679836,-14573.8202024536,-6934.8292198916,2871.8172804656,-2166.3876874336,6240.9543944939,-8630.7460950232,0.5983415603,17882.4020079043,7795.2725801608,10759.989018753,8766.3084155383,14078.7907015779,-52.5370243414,15935.2013012175,8216.1580634096,3702.9438179353,2801.8660224159,10.1259017722,-0.6611161142,-1.6458618279,1.6530414627,-0.868140152,1.6669266887,0.9056099475,-1.4251991828,-0.2647236484,0.3723566906,-0.3255819052,0.568339431,-5.7722970622,-0.6646835905,-45.33187067,-1256.5748323893,-19907.9488653182,-6221.2367041408,-356.2445631917,-0.3507100782,334.4201902665,-9902.4092648132,1.2665920606,-4.6113369803,-0.3044901157,-18142.4943384836,2.6776659774,-7048.797835942,1.6437154083,2.4276303992,3.4497830504,993.1448685122,-2.9852704197,0.8061111271,25221.1423447482,29262.2712226576,28911.1107790219,7253.0465753883,3313.4800957426,4287.0539956474,15687.9943519688,1.1384132677,6256.8099742988,-1116.9325425197,-0.0791199455,-0.4750816785,0.8183996178,-0.0203076753,0.0566598609,0.7853202062,-0.4262872277,-0.8300411363,0.6409756052,0.3976043901,0.5965663394,0.2194304259,-0.9880384307,0.7597657806,8194.3920747112,-5248.2700001265,0.2685306172,-0.4703925875,-0.0894568006,0.5727031639,0.6960723207,-0.0451012974,-0.7931072185,-0.22145853,-0.3355080102,-0.0879995785,-0.7865828046,-0.0281154707,-0.179857124,-0.2980974032,-0.8612747429,0.2066082769,-0.6878642658,-0.5880659878,-0.8691806703,14487.6118045895,15034.7222243957,17068.9543145415,19071.5021424108,19110.2366878641,18287.6489584991,16065.4957257934,17663.0069439317,20526.8824455426,20409.2491712327,20063.6207901988,19774.338383995,17441.1973438247,16013.2125157234,16544.7619060951,15118.2051213659,13830.2564370377,14212.0965783871,0.0096562886,-0.615548574,0.0113543993,0.1151112766,-0.7010294052,-0.6576558222,0.9842273493,0.4938304087,0.1200525737,-0.3601606808,20412.7079675424,19627.9401809102,20423.2687295112,20716.6356572663,19364.851344697,20005.5024767039,19432.6404299624,19581.5937384103,20311.7468227388,20496.5990444292,20562.6964969838,20578.2889773032,20056.7913864514,20672.9515849364,19646.4219567913,19266.2857010589,18705.1353179241,17744.1471718048,18881.8838328765,-7298.9772221,-0.9158275883,0.4695663184,0.7088003355,-0.651763323,0.8750190627,0.2126956917,-0.6577672032,17787.779972721,20865.076268112,21436.5262196819,21266.7213316796,21919.530189329,20996.7397415157,21188.9135412997,21471.5729530914,21177.4342447422,21100.1447791737,22031.5866107039,21452.4615818384,22000.1486432422,21303.8818782377,21541.0027076433,22118.1956339332,22142.0464119027,22108.8309246902,19718.5751163708,15549.8594509916,-16966.9781004343,-0.0389898732,-0.4809680099,0.3719487959,-0.5265493028,-0.9251591874,0.1168462758,3058.7487313498,27278.8919888367,15334.9044343571,24425.9756203088,18718.0163452664,18370.6548464848,17564.1868575899,14839.1510412735,12124.165323015,12266.409158235,14881.5092511002,12985.2002211126,13213.1676364586,11404.122729408,12565.9465276128,16452.8976276001,16159.6360636126,23807.3625001373,21497.2857149873,17109.4926583531,10234.6217728296,-11134.8806493651,-4902.4556145328,-0.2278622435,0.6927259268,-0.5599744803,0.6647816961,-16502.5108173772,9178.1599058941,8929.6833724115,12761.5485200696,22094.2071921409,24393.8071049415,22102.9833061221,19432.4105274305,11390.8090958566,12402.8955206062,5218.6122590195,3473.6375878089,-280.2619306696,-4582.7889518364,-2031.4680135208,1386.4705801219,1050.9992345953,7299.575535614,13180.6573018576,18878.324165813,19096.6751211315,15994.3366820344,12761.2928341682,15988.5511323242,0.6791086829,0.9394953366,0.5740948127,-29255.1271899589,-13105.5906061537,-3223.2920644509,88.4751105413,14596.4406022713,25879.6187391061,24395.2339769844,24128.5673053954,22226.0339102878,20553.0269759986,13870.4325105503,8390.6768392878,4397.1658794514,3931.0974355694,4413.7752704756,3322.6748073237,3593.176536417,8526.5818529625,7489.681480015,11643.4446432176,19624.1219615487,20022.6651780115,16761.4707225521,16004.2082877877,13844.2766153269,9147.1588175399,0.1082267638,-24577.0312491026,-26986.5368724587,-19954.6310937772,-11170.9319981969,-10611.0916756476,-3421.1110650363,-2378.342803941,5509.0304643025,1700.1580927175,-3314.6785484636,-3397.0437307988,-8732.3333307731,-5762.8643645927,-1382.0859116795,-6501.822360176,-6895.6731184896,-15264.7821185634,-13278.5257287462,-9955.7159850907,-563.1389206776,9609.597404537,15049.9907450528,18813.4169245735,17249.5858752411,15573.3998965213,13987.1435671695,15425.7709517586,-24577.543974832,-29255.149799632,-27467.3405066731,-25972.4457860551,-19895.0325897275,-20115.8206731791,-18874.803803016,-19480.241077374,-21358.1652264386,-22171.8325576185,-21301.2833029571,-19068.2505881178,-19941.9265933577,-17004.5070538211,-18348.3862928071,-22195.9859805131,-23140.8097564583,-24017.0857228103,-21699.2467778705,-21705.4499083257,-19039.2004351554,-9532.908800212,4842.6048252809,16472.2514800354,18526.4632596076,16561.2435521811,16031.2800543092,150.1143953784,-25768.701588666,-29089.0698155255,-27771.0525218113,-26720.2998530521,-25319.0342220797,-23370.3040260798,-24490.9651236778,-24785.3262646335,-26074.9359079399,-25778.5402887071,-24213.6418754177,-23138.8920542645,-23044.290742101,-23216.5475683748,-23187.3827359318,-23837.6288779549,-24521.3966901264,-23151.169659248,-22890.9971797062,-22597.0093475587,-23761.0355230095,-21668.5791739855,-13586.6012856,-734.7688011402,17919.5528927887,17188.9524725964,16165.2231088004,-11230.1357704605,-28045.9514837638,-29254.3798007023,-27317.3726707656,-25977.2652808767,-24769.6614450896,-23323.7369068994,-25030.3647725482,-24713.7126661123,-24798.9772902607,-23500.4474047747,-18870.3311911163,-19990.4370089554,-20382.746184078,-17549.9768611763,-19434.3640664609,-19589.1441746406,-19796.0192070507,-18953.3203423175,-20662.8635986685,-23964.6310345009,-24014.7765929324,-24204.0220998173,-25166.6947143337,-21579.1533604143,5293.7817653952,18942.1150287741,17690.5273406746,-9559.0009340895,-0.1700789541,-29255.436013408,-29088.3985543708,-24160.4866432356,-23337.8935302574,-21562.3741162223,-24333.1423815607,-14803.3410138805,-12436.8148423919,-6453.8045660602,-9355.1059963828,-7719.9714298474,2772.4346945077,19569.205010098,19905.2759299513,19259.6785672764,10138.3120003405,-8812.4865285287,-16508.9768485088,-21906.6391969574,-22301.2737105277,-23979.2911503849,-25951.0821306276,-26788.0688097724,-15648.7298234757,20931.2908403175,16320.212113087,0.6992383543,-26355.7511947908,-28906.6164044889,-29088.8093538967,-23830.1394559933,-15370.5429543795,-6670.219601269,-9134.400847488,-7696.0812986792,-6619.0114778444,-3035.6321490218,3419.4105975796,12840.6969418493,20914.6813540446,22005.2873655469,27011.8410965233,27011.1621186895,27110.6353747629,1344.4532674336,-7424.8342303443,-10097.4808512066,-15136.6505965816,-24680.2687458791,-26827.8627416795,-27090.2685069527,-19912.7010356196,11721.0541214707,-430.5750147395,-0.4024879337,0.7690568455,-20144.83403159,-29253.9200308303,2143.8189107924,2463.0363585648,-4666.5276089923,-8040.2242942896,-8013.560259959,-7537.8830855861,2265.1125334645,14288.9172410132,22621.6966022921,24073.8209013815,27111.255806765,27898.8787214422,28864.8853816664,27329.8062740613,8567.3296887936,4703.5859250711,2851.0148229944,-4421.5578571872,-13520.1592631184,-23897.1510413601,-23875.4031181153,-17343.2371671357,14390.176603073,-448.7826582511,2456.3792358607,0.6457013224,-27789.4664951144,-27017.7107963711,19780.0705866474,6929.3844574924,-10539.3911178894,-12774.4221839843,-13747.7483287966,-5473.6972716988,5403.7192853004,17606.5887791405,23037.0781754823,26999.5997225584,29047.4537829049,29212.9039468648,29047.2062808551,20813.4244988642,5202.2359865951,6157.6602471457,5612.4867397144,-2236.3263420172,-10257.4012428617,-18601.4407202076,-19207.1334905242,-15769.9912981569,14279.3842799426,-14206.8396006679,-0.02273883,0.7178898966,14138.2799063834,-25829.1060109904,27199.8942795791,1391.7564198874,-16714.6498723786,-18327.829369176,-18624.6582945851,-7886.393223193,9985.7660783473,19940.4025506993,26839.0752449938,28105.1620591051,29030.8539227974,28865.6309945891,26661.8088055783,7062.2274286491,-4085.2636527836,981.4656664865,-4164.9512798049,-2348.5558207036,-9309.5242254447,-15111.6961539289,-16582.4185531664,-13671.8934073758,13740.1714591445,-9827.608204368,-17968.2923851933,-0.1235175943,-0.6387026369,21712.8339271772,28219.0312517315,-3984.5245557832,-21814.1054425198,-21336.199979455,-20121.8327145874,-8855.4059037516,15333.0834002952,22773.8515818575,28046.5539518976,28997.2507811096,27731.9739234765,26298.06728655,11919.1423873294,-5004.9048380944,-5618.9399014648,-2089.4117620817,-5495.079412393,-3979.4648824907,-8206.110586305,-12877.8016285259,-14430.899039831,-6224.8419181592,5171.2663596427,-13463.579479833,-19349.2962516774,0.8623040129,-0.0020647286,23512.9010101807,26783.7857774275,-4765.5941982568,-22335.7972823705,-23278.2698862901,-22665.5602153158,-11329.6849976188,13801.6241041138,23829.6578253505,27070.3237585457,29379.0450962156,26844.7442311127,16003.490858224,-679.8536063135,-9064.5294210449,-3554.9959619235,-3202.2599160902,-1675.3518845047,-7507.0034992985,-7542.6270265686,-11551.848677047,-3921.5115616176,-2245.7174832989,1169.5657282067,-14295.0625187809,-0.3973629333,-0.5911758554,-9654.7320672855,26812.5742001848,28076.6857086707,1964.4184707645,-15376.8125706284,-20642.448182019,-22383.3484148471,-6099.6251271119,11490.2309208763,23954.394489522,23861.9864529986,27038.130985539,24341.2727576789,2077.3190003647,-10205.0311907698,-714.1763003215,-1578.5429065863,4831.7164005845,3849.6762932005,-2149.3023771574,48.9438703171,1049.7090311248,4174.2043348591,1513.5479225748,-354.5088089324,-8678.4390841262,0.2264312117,0.1882456089,-9653.216200687,24968.6346643877,28796.9773567787,7449.9121832314,-4356.289590176,-12137.0304507357,-21063.866150418,-9472.3392971492,6925.8472227875,21504.5994374931,23001.7059236477,19606.9194862973,4750.7442492843,-4786.3575518719,-4605.4879452139,3031.0378942941,7039.7782753074,6250.5402270783,5692.5111283218,4869.5210219022,8887.0749831108,11355.2559721456,5768.6471024525,1608.3698722165,-5130.8163869669,-11786.0475010194,-0.6448123527,-0.9927015632,-6955.4590347875,-2160.8391829972,27301.9586187678,11005.6861439613,6978.0580895564,-2161.8246880696,-4971.601922455,-180.0395030411,-926.8490149136,11028.7125132508,8996.3544197211,3653.7564896996,-1657.538524375,-2231.5844125692,1307.1991795924,4168.7427111997,7719.1094711881,10155.9355613338,10693.7083559257,12428.9481062952,13045.4313480648,14201.5870144434,15934.4681799352,7338.1330955887,-2320.3154398166,-7002.9118121651,0.3139698176,-0.1548470575,709.611942124,19540.9336164909,27276.6162748153,15057.5352822036,3489.2160780772,9758.1357394049,7349.6007297359,3750.5235215107,-1655.0615408283,-5125.1329884092,-12339.5759928162,-12064.711529143,-7193.119684697,-7126.5735548875,-8355.1540945376,-6190.0093763849,1400.1143111251,7844.2977903826,12427.6811937821,14152.8625679988,17832.2363170588,21949.2045171542,22413.5155318691,4797.4620594983,-2840.042332687,-19601.6890224578,0.0559678417,-0.6893852522,-0.4576702732,17200.8115078777,25239.3609578806,27299.87822457,13022.375009036,10580.9427407343,11025.226670637,11043.2478500584,-1250.8588778946,-15891.0470556123,-22463.5856578623,-21747.9575781562,-20484.2124690814,-19039.1542789513,-15114.6137277069,-9169.8671896898,6261.6253409735,10964.7786539236,17656.5116543935,21420.0680513723,21426.3883892428,22034.6942550392,20789.3351332795,10131.2442773162,2598.88037889,26000.4157974686,0.3228005931,0.1033251733,-0.5083344778,26381.5059697121,21138.7063777853,25502.8504605059,24168.7050842733,20623.8766009595,13749.3487957655,8598.5322467096,5903.7516651999,-12524.9705811376,-21221.7150280092,-21847.8218906883,-21638.057194452,-18342.256740382,-13134.4841765486,1084.0898482277,5211.6872943784,19406.2220910204,23738.3948371571,24436.588581634,24500.3741491666,24513.9488457488,23714.2647859131,18680.7988015821,8902.0619051537,0.7280730486,-0.9797822313,0.7122509776,0.8932950102,21437.0697450669,23520.2903919879,-11272.3369301502,12099.1951113724,9534.31064603,-2679.9949644206,-4825.4062685347,-6522.1437586804,-13063.5456600093,-13135.6183239152,-14417.1441661518,-18788.054633902,-17367.3354655013,-15412.3183070063,-16751.1079186734,-14232.6325052628,4800.784705778,19028.9005271091,23177.5137218675,23998.2139748597,25227.4697003039,20025.7981059973,19366.203853557,18892.04238435,-0.6393246882,-0.3412933147,-0.9217943122,0.0369889615,0.7227791763,214.4184326378,5769.7559852144,-23817.5149257063,-24820.0222112601,-24573.0668050736,-25331.9328614892,-25183.0346643397,-25467.4271857954,-26000.8122429881,-26000.0915740589,-26166.8518037375,-25571.6142808949,-25370.2767301527,-24169.2895340495,-23826.5058253591,-19139.7171368501,-17775.3225203337,16230.148505527,18396.2228167713,20885.5807040172,21331.0124106286,9582.420347104,-0.0761547069,0.165904108,-0.4985590044,-0.8806407039,-0.8402462615,0.6160125151,0.437966215,-23473.5820241089,-24280.2930126584,-24526.2336475107,-26172.9968511555,-25764.6167715946,-26260.1741819847,-26013.8626729992,-26719.3136623904,-26712.0403972922,-26652.362493282,-26654.6281630612,-26720.4015840639,-26156.2865980566,-25515.3547293941,-25349.462865396,-25214.228349779,8300.148737856,2412.5304755342,-9837.0062493437,0.2748693951,-0.9292199308,0.138556907,0.566295013,0.0102660597,0.0969996864,-0.0144899414,0.7949342475,-0.9496625467,-0.027583075,-25494.0181332472,-23595.7193315135,-26063.2362949604,-26172.409790909,-27910.1005588845,-27456.1380508161,-27456.737858512,-27177.1177000936,-27178.3675292632,-27457.3493040235,-28337.6146234433,-29254.636098357,-29254.1306073261,-29254.2194994579,-29254.7451950056,18879.2496619783,-9544.9381607987,706.0403038461,0.2355271472,-0.3518184283,-0.3195674633,-0.7520422401,0.317279724,-0.6600412381,0.0974728916,-0.3338053308,-0.709629259,-0.8112269251,-0.1475869533,0.1048950012,0.1024003761,-0.0698526987,-0.9027125623,-0.4856303593,-0.6330298157,-0.8475834592,-0.7535466541,6815.9534967737,-7909.3809875416,-0.7881474703,-0.7637210163,-0.8876489631,0.3053204204,-0.8265992893,-0.357582787,0.3041253211,-0.4047873712,-0.90404854,-0.8663257343,-0.9673257867,-0.4647705264,0.3189509755,-0.4562054507,0.8108986185,0.8499035278,-0.3396080169,-0.8645224975,-0.5403925274,16863.2323357749,17945.4947552443,22232.4866056303,24333.7405672636,26347.5582207725,23205.6338451079,20657.3893543634,22935.4874224934,27717.7879082532,24258.7445261289,24812.2119470762,25197.9995909717,23860.04959353,23812.4973471745,23900.4301246385,18800.2667810242,23639.996654455,20408.3492469348,0.3676454377,0.3595359842,0.8765936396,-0.1419067748,-0.1992051288,0.2931446197,-0.8102352765,0.5428326713,-0.4672376387,0.6173833554,25493.8807410926,21999.8674825425,24335.9940860273,28326.4759710877,26163.9002839682,25311.6102368169,25336.2044782897,26143.0288452031,27928.5670371328,27926.980161384,27928.8682865885,28156.1718015146,28614.4248032876,28176.5597674926,28297.5098853279,28352.054199578,28499.9685858616,24891.6824996438,22754.3177872597,-11978.0328358734,0.9470549613,0.8514939207,0.215864351,0.0437653859,0.0622008855,-0.1455584569,-0.1526506711,18349.1523619788,25525.7465552695,26640.4746502697,24021.0450005153,24658.5996810174,24428.6581438391,22952.6455255281,23305.762643724,24991.1760419049,24337.7153988989,26951.1985656861,27014.9689281673,27769.152642202,28322.3879859545,28322.2545090903,28321.6531498028,28066.737968359,28067.0279057991,28063.4980925509,26804.8853231018,3833.3002378741,0.7429937388,0.9322559505,-0.6259471771,-0.6783331824,-0.1930061678,0.6203199047,5872.1298238601,26272.9496348152,21586.7871705263,25835.6670993082,20804.1156789137,21202.1263477519,9841.4859245314,8847.9108823598,-3113.0847725984,-4150.6950697866,-4644.2001345928,-7277.4305369897,-7632.3290084305,-10366.911917346,-5903.0905901764,1806.8180684608,8305.1765516772,26063.5730866764,27526.0787119675,28005.1192574589,25540.622891518,21804.608953481,17302.5291710028,-0.5950873378,0.1884143508,-0.1684888836,-0.2987442118,-20619.03770104,21215.2111335865,26662.2077174038,24150.6243379547,25849.5976190952,24117.2658266997,22957.8877185175,15556.2716333039,7819.753736184,6555.8437030733,-3353.6318249776,-9691.2699909782,-17666.8775216697,-23199.4890568613,-19862.5857612342,-16010.9182048746,-6160.5726651258,17967.6058302963,23455.6690966333,26452.7935204012,27141.3175732168,26323.1742711327,23952.6542950496,24338.852616339,-0.2404706251,-0.9659952484,-0.4919620514,-28383.8372486058,-17502.9565077914,-10551.9561503444,7066.4041957019,20337.8072743361,22714.1776390302,18421.0276660948,19813.3868170856,13448.2042191354,11394.8266822609,10169.0428073065,8276.9603098378,5426.5098513382,247.4711971458,-2898.4075252306,-6719.5647813421,-5263.8119217568,4705.0190854089,11242.2358607245,23738.6411949895,23808.2623911913,27327.3903094447,26625.2644594433,26334.3614777991,22617.5640320281,20882.3897660067,-0.5902971978,-22569.4648660287,-16475.8872975912,-15647.705986308,-16450.4707945175,-13024.0948284459,-5589.2614232632,-3800.4722878633,-1828.0513134359,-5061.7578917413,-2620.0693220854,-1565.7719397661,-745.7961418508,1177.0910304974,3278.2430638854,-451.9193104514,-5266.2212095326,-7125.776371094,-11007.1634186186,-8291.171387828,2528.1620122779,12569.2881851862,23363.4047632012,23442.1971258247,27501.5100212896,26274.1831640968,23379.433276478,23020.6444058511,-22568.6738641217,-26884.6535259514,-23037.8267305527,-19207.8767262995,-13423.83705658,-13515.1761988612,-14950.7069381719,-12729.6895110061,-15123.9346378297,-19346.0638685118,-17217.5153002111,-17303.4010706984,-15958.7978524419,-16751.193422094,-19734.2543964929,-20898.477015271,-21221.6332923408,-21871.0536751649,-21869.4192083152,-24463.2541163019,-18808.5689055332,-4639.8120409058,9644.2619645109,23011.872565459,27435.2581964235,26612.8337586674,25625.8142361992,21533.4618324672,-24220.7566818316,-21646.7393508084,-23141.4756312855,-18072.5528732792,-12985.4408885441,-15490.4811336745,-15333.0441302944,-19777.3292596517,-22438.4228959626,-20481.5318108535,-18457.2063183532,-16787.5035282449,-14468.3979838558,-15414.9017924686,-20860.2016424716,-22368.9355618625,-21546.9513522349,-20772.2244188224,-21836.0044245432,-22002.1547941101,-26677.4417519834,-22371.3400945025,-11276.1051904218,5693.4688105396,22743.2247768956,27435.6393294623,26253.7448014764,15652.093827105,-25939.6477676505,-28053.1686805851,-20793.3894542979,-15432.704726314,-13849.3638587441,-15287.6036854004,-20284.0409832759,-22127.0610973283,-21381.0844690718,-21141.3129172108,-13746.1448647421,-12738.4302984061,-13304.0024907577,-15094.4313974365,-13405.0173714417,-13895.4920021188,-15454.0212011356,-20407.091915521,-22518.4475629325,-23159.4329703304,-25508.8430679064,-27729.6924168134,-28116.6203931994,-23473.7138610723,9049.0318878233,28049.2213464948,27521.2092543623,20087.8937906929,-0.3693430779,-28218.8560330896,-17277.9681849169,-11945.4848119534,-13660.6863752662,-13298.5196214052,-23163.0067296237,-18478.0055319532,-12989.1661347131,-10323.5678149201,-3328.0419151786,3416.4391102742,14290.2913387251,24108.5261017396,28080.0519638021,27539.1398833846,18623.7379376715,-381.5961506209,-14293.1228621721,-21759.8510346013,-23746.1112583564,-27762.5245049491,-28446.3560200218,-29007.4543076451,-16837.9493131449,28106.721933692,26737.0436486646,-0.3187516499,-24255.9750742326,-25986.3549110183,-17344.6981806452,-8175.2418472692,-1419.9380518543,-7549.4708662978,-10769.4138142659,-9932.8708028594,-6724.6212004208,-1093.9198885781,11407.4426592938,23153.1414893349,26644.0514258328,27224.4164403997,27539.0876284541,28751.7526418062,28098.1226547432,12009.89991771,1032.98733596,-12908.9266960873,-22251.2766000514,-27762.4740580213,-28727.6689937864,-29006.734656582,-28728.2016150905,20243.85136741,14147.8489162867,0.6919221316,-0.3901312687,-23694.7351615286,-22840.5719590007,12969.1761683414,4470.7040840948,-7118.1855441268,-8886.1405501031,-11207.4402939594,-5916.988657643,5942.6490604343,20276.8214425471,26934.5838843064,27512.1006908613,27810.2899245215,27554.2603200429,28750.790956397,28392.7693406495,15145.6879741935,8868.0474948784,3438.0461305806,-17063.2920839188,-27224.2017651491,-28727.3399557762,-29007.97656972,-28709.0433520185,10427.7138039216,6680.0102676127,14890.7199008997,0.891221963,-24692.2814976066,-18376.9810520323,27035.5892389801,1575.9308860343,-11578.9825767793,-14666.852171745,-15583.482505833,-9792.1913253513,6996.3131145005,22119.1916003646,27236.9828948398,27838.1332685963,29037.4409511138,29038.398447277,29039.2034136819,27585.9793268769,16219.3960854717,13438.0955513354,4442.2652220017,-14072.394594988,-26979.0791339215,-28450.3606099933,-28727.6234731137,-28708.6863807567,9638.3491611701,-13094.0356175114,0.759306299,-0.9012906848,5491.6974322352,-20489.7484777308,29088.6258298753,-2643.6959418679,-21641.4472360411,-21024.0632880847,-21515.7028110045,-12292.5521643968,4772.4760520761,22532.6200349607,28673.4563749894,29255.4304641394,29256.1794161339,29254.8284921888,28964.2516712895,21725.4637424643,15019.7199816122,9538.3083439446,-6680.092499456,-17362.8927603339,-26952.7998546896,-28050.4399514513,-28433.458893081,-25892.5277359482,19106.9925461804,-6338.1543060991,-22432.3046783535,0.5917832258,-0.2467022227,12131.7853205803,28508.4687965865,-4106.1640469767,-25748.3227406699,-26983.9810358565,-24451.6199258933,-18167.877520383,2814.2026675002,22544.3847130126,28673.7170727566,28965.3334582006,29254.2000276657,28963.8406353236,26035.3193342387,14300.3020595564,7969.8804792674,4933.7699551042,-10552.3360008358,-24207.3415198658,-26791.0535127165,-28050.4074873267,-27416.6062777707,-9985.8345330503,18236.4343001905,-14564.3688710447,-21750.5837292074,-0.9437360034,-0.5974786408,11582.1112971734,21309.2746811928,-8264.2274818757,-27749.8834925419,-28236.03920703,-27545.007467858,-25854.4980804282,-1202.4303020686,24232.9678044203,27805.1076765307,28386.8847994101,28386.4527148824,21751.2678223101,9262.4766008868,5446.8742605205,1603.4201520715,-1145.8497296937,-10094.2269641295,-21697.6452382695,-22900.1122527481,-23788.0415182104,-13859.6667402943,2478.1401214161,-5165.7417012329,-18322.8645148898,0.115378086,-0.0438443805,-21076.9723842977,15550.5075144548,22735.7284069568,-6335.0831782722,-20392.8532206173,-25633.4730309756,-28033.3114551063,-26637.6596852784,-6033.1406002606,24648.3784873727,27132.7514955527,27803.3330050956,16827.021261181,3334.0928683137,-540.0823692132,-2549.3728479083,250.4617724732,-5146.1127516618,-12272.4566317386,-17026.0001578039,-17140.0630071111,-11225.049841382,1684.5398055007,6154.8235069305,-11483.6079827539,-14553.2372828663,0.4657627004,0.6239951473,-21075.6794746874,17718.4341973546,24933.6981046729,-1202.2992253734,-10473.5938374613,-12345.560401964,-23667.7317844723,-26716.7821372632,-11604.672369514,11125.0930944062,23665.9078570585,12624.2184132928,-7064.9826412032,-9286.0027341836,-12728.7749900129,-1561.7998313466,-2229.1739525073,-8785.137655094,-10845.6040134093,-8063.9681582243,-3224.7870885314,4180.6009844654,8258.0914370137,13395.8123431035,-13788.1171924918,-12388.9210442566,-0.8196569769,0.1179423284,-17839.4342154593,-6885.0007503411,23473.349560749,2020.1790629897,-5075.4299579651,-9175.2808057302,-9169.3339331177,-11508.6359473282,-8496.0402048155,-5565.0437704619,-7431.924218669,-11604.4266408327,-13051.1514097536,-13487.7559841515,-10921.3265898006,-4620.1891951245,-3929.5975912139,3290.1344659578,2604.0407123602,4090.0945947826,7555.5839428517,9263.129715597,15331.3815065266,16749.0335866137,-11729.8137163555,-15269.5780981126,-0.6076074439,0.0353233143,-2262.9449432162,11813.4709260345,24990.2848567351,3542.8510147976,-7038.5682420352,-2288.2755291594,-1218.2643632288,-5718.5498567082,-10641.3601074128,-22615.7092304279,-20002.9435421973,-16485.1280981038,-13742.8767933672,-13231.17558246,-3366.7561606663,-5482.6181225619,4285.3221925526,11528.7562636221,13115.225885717,13725.5352316077,13254.4486391288,19408.0964193102,20305.8653584941,9063.8736029586,-13621.3041786433,-27313.3774912417,0.3449612594,-0.8368014262,0.8405439805,5403.8217229891,19030.9678751334,22480.1491431533,837.8276534555,-2819.0210827159,1073.4546636295,225.4726092224,-9001.8196854164,-18226.9794502333,-23086.571850396,-20667.0370000598,-20182.7955870905,-16288.1664085208,-4596.9764925577,3571.7733127426,11446.4182690826,13590.4840853976,15887.710121762,20301.9668067285,20396.2046697552,20095.2713984762,21803.2727148176,15953.9679683053,13697.6280706272,27263.3946977403,-0.6783128768,-0.6273522014,0.7297312627,22071.3019096221,13995.0639115271,21502.8931888953,18234.427650063,15242.9986551007,11763.3110472354,9594.3715515331,-3164.3079134581,-12906.3635931342,-20164.8760679925,-18943.1147681705,-9560.6223376914,-1812.352152044,1438.8128041395,10898.2814114418,21573.8436972689,24968.6620077672,27209.2789576967,27887.4597175038,27750.3729002865,27350.6375117923,22801.5063547188,21649.0979106034,22866.004778699,-0.4286620997,-0.6885995324,0.1904308503,0.8612025367,17448.2456193766,20319.8641050242,-14192.2421627066,12486.9481745574,9854.5639518751,5358.2300870571,-226.4364093326,-3113.2419349347,-8005.3261945688,-5551.9721357061,-5656.7821311091,-6772.4280189018,-6089.3654940295,-4039.5985743516,4941.9793421257,16967.6639981044,29545.5631643758,29544.0691172363,29255.6644549814,29254.2540588803,28674.4234752197,27865.3331631455,20842.3459689509,11662.2996936762,0.7930774846,0.3008728003,0.359220318,0.0931895248,-0.3381545995,4651.4461511415,11227.3718015632,-12004.1654212982,-11560.8644487202,-12439.08535784,-12009.729894665,-14394.4007835856,-15601.9220952578,-15894.6581619005,-14256.7047337013,-14478.7681651939,-15724.4727443759,-16333.114271499,-10639.718887257,-5171.0115134337,-3728.9659404094,17616.9437950915,27478.1330531019,26571.699989763,26965.3253498149,27670.3314988474,18028.9447668583,-0.4939715312,-0.907163812,-0.6066919038,-0.7272041548,0.6753551644,0.3104382515,-0.6839221783,-18774.809534768,-10521.2957429475,-16328.4111720374,-21021.4249796616,-21914.5188863654,-21364.834602247,-23595.2084194691,-22641.3754965016,-21156.2924521064,-23077.2899834954,-21256.3027864321,-21443.2326938986,-20833.0305528798,-16012.8834383025,-13671.0774985256,-12217.4476076198,24989.5220413189,25710.2581688851,-3806.7940726747,0.716012431,-0.362158032,-0.6001522129,0.67043433,-0.3048346717,-0.9333377773,0.3514500061,0.8799504682,-0.9328321053,0.3072370826,-24042.4580618809,-12965.3205578786,-16356.7083026303,-16401.3525829363,-14538.9183214015,-22051.3870091925,-20048.6452720284,-18249.1654938918,-20672.1021139965,-19877.5542604748,-23373.3705044124,-23934.5622313244,-24159.9257015517,-22741.9813330086,-24776.4103605657,24860.1327845602,-3901.882183607,706.8637740984,-0.7991149484,-0.3336733154,-0.0776434212,-0.0440033726,0.523692288,-0.0823173953,-0.8802911428,0.2329010349,-0.3401816306,-0.0544657681,-0.9946830639,-0.5388245142,-0.1680062745,0.4586534627,0.1914910922,0.669192829,0.0421583629,-0.6904038295,0.2167741838,7189.448410208,-13718.3378902242,0.4859253569,0.9946920159,0.2526169728,0.9195194231,0.2059422026,-0.1232816154,0.410915132,0.2776207658,0.0248956018,0.6132841947,-0.8301326214,-0.3766206829,0.515180023,-0.351222903,-0.3666226991,0.7989910677,0.8675228626,0.860452787,-0.806264038,6381.527384041,7812.8179157022,12054.0255496336,15687.1348195126,9122.4250700057,7949.6000376788,6485.1491094943,9455.4611458469,12493.2268770127,12258.3820678681,10435.947639191,8862.8411477381,9884.3946189625,8935.3407600152,9552.5640788656,7805.1597831127,3708.5658970066,5970.607676665,0.7724030202,0.1926076366,-0.5266656657,-0.259687003,0.2044720279,-0.1629149183,-0.1180036553,-0.0120611594,0.4767433317,0.1453807686,15406.1173898094,10258.2895592678,17373.2239553952,19033.1818212979,14858.5444410354,12449.375695988,11464.1054775388,10115.7489108632,10581.3274380294,11771.6544919243,12115.9431384018,11222.1035309522,11541.9192088428,11151.4409762253,12172.1129709392,13020.7723475693,10511.7902773867,11051.5477795835,6389.0991116171,-867.9027607095,0.9032026554,0.8579930618,0.8098034535,-0.105212062,-0.3770619354,0.0575802418,-0.3594087765,7185.845535374,19428.7504490366,21746.0996742755,16160.4671901733,18446.5217671165,19729.7214134006,20458.1476333982,18192.8166054848,18014.3749318643,17307.4356453138,15719.9655801353,12063.7602270581,9854.5316401017,10653.2983851775,10424.5244520918,10806.1243342093,12180.8907922194,13511.6964545184,12891.6931833582,9039.9404046299,-8529.1163754047,0.700101652,0.6762943281,-0.9356301779,-0.1290398507,-0.2650625697,0.9881445125,-14057.1400947451,-3440.9332903343,-6044.9290093253,-3080.383732674,-7657.1866350407,-4384.187274654,-573.0235763939,-793.9299190027,6250.2851703002,17339.6718692601,19474.3276520829,17075.5542813553,15642.1001323994,16182.9490882463,21106.9050454878,23656.5137734728,25319.6995670938,27072.8807092234,15184.0962853181,-9634.1580341282,-12785.2970976276,-15620.3099472742,-19256.9434043297,-0.8135567774,-0.0351710451,-0.2125743126,0.1796936798,-21626.9082300695,-11307.7929711278,-10705.389653783,-11426.2090549231,-11560.2985212962,-9266.4460719029,-9868.6463025081,-6141.6543521116,-8960.3450533669,-5586.9091449826,676.363691767,4959.5300195061,4648.8836563983,4105.0132677124,6137.3110467494,7709.2141413402,-1863.7871153893,-2101.0483432913,-8853.8351767181,-14287.628421064,-14223.7878259205,-14872.2253401677,-17487.9009532254,-13470.8611665024,-0.5542197515,-0.6621886816,0.9259703631,-28673.8015296064,-23516.9335193588,-17227.3540411206,-14143.9417049778,-13536.2986871079,-12956.2328138551,-13428.012435125,-11164.4121964837,-11488.0949231119,-10704.70849606,-9726.9937449003,-8942.7818905712,-5729.6695681356,-4985.9079225637,-10961.9886365398,-17886.7175800647,-14443.6891140702,-12621.0031788692,-16834.71409043,-19802.5051677428,-16971.308562185,-14045.6455232855,-13883.9773874186,-14654.2109307522,-16018.0499274995,-298.9596290335,0.4545233057,-23168.1479112564,-23313.2081144561,-23828.2196287321,-16989.5638993624,-15924.8344667971,-16496.6399953897,-16170.5315392206,-12852.7156728562,-11155.4396236162,-14532.9874432708,-13363.9816269956,-10862.1143239484,-6530.4399314495,-6685.8430622049,-6356.1123356665,-21210.315177331,-22842.9516716064,-20590.1864052769,-23049.8707471979,-23173.0043226004,-19394.6607774885,-20979.4493244015,-14790.5697871992,-9464.4934466922,-11232.1501510437,-14492.2360487156,14417.246879711,-23168.6083790866,-28673.1537431391,-26635.3359835362,-28341.9190556431,-21118.017341593,-19586.0513526432,-19513.7378190666,-15338.3767410818,-16957.3900115506,-17580.6793436221,-15717.4644196335,-10890.0812617187,-5336.8683255852,-2765.8919208245,-2310.4482374512,-13668.9541342103,-18067.4031772731,-17471.8956967346,-21677.8041004506,-27236.7700603947,-27672.3524563254,-26015.8778183245,-22537.4905968066,-19752.4548948801,-5381.0972314418,-3670.9882678502,-3804.5877888255,-10896.7813459465,-25771.3179728349,-24771.9854894771,-24802.5196822798,-28508.3729766754,-27505.8292759894,-25404.336016087
   -22709.6691455161,-15162.6525137316,-10406.6372076352,-13629.1198162185,-7534.8278646933,-4682.2678014093,398.62536302,2907.9506894133,-993.4692066084,-13212.0078304124,-13311.7909130966,-16416.6583500904,-24379.9141471604,-27796.9021711948,-27672.3296404451,-27768.6045034301,-27475.864575462,-26065.3598319239,-6995.6490891089,-3152.6525908971,-4668.4451141147,-10908.4293288076,-28396.8847827878,-25366.8896340807,-25266.8349267319,-28175.9011652734,-27174.5133515014,-26557.6476964434,-20158.6148258443,-6744.5100696858,-4566.5163803797,-6072.9136791556,-3320.3815189203,837.7520304657,4222.6720177926,2481.8010055616,1405.3556715561,-9294.7513093604,-7809.3600031678,-15103.3686749322,-22554.0451624238,-26718.6149469383,-27670.8004159429,-28632.3781079754,-27731.6270320029,-27185.1894168062,-20370.3369270188,-2181.9030717652,-2621.4487623165,-4888.7905973631,0.1278328245,-26660.028220468,-28175.4830061393,-26405.8052904044,-26244.2635441898,-19755.3763781137,-5818.0187295959,-3763.5013600105,-779.6795752699,-1005.7449218672,-3442.17169645,5467.7232412469,9544.0089867378,3849.1784936528,3012.2296933,-3593.7097422174,-6375.5808278684,-14511.7856280088,-15654.5598749299,-19210.5882167284,-21274.2134720479,-11496.1599803797,-5732.8797414635,-5383.4788549481,-17382.0152292061,-2106.5667652943,-975.7717908124,0.6838168147,-24551.0702165538,-26234.9962922749,-27204.0669688447,-23573.2001212119,-12485.0638266669,-14692.5243404428,-4351.2285497475,-2738.1550509413,-1366.6891233164,-4333.2421783976,4814.4075415753,9281.4580581439,9972.792620229,9021.5806897912,1945.5568484634,435.5696621852,-2269.9641732602,-10554.4964774866,-10120.2129905155,-1525.0498084496,1492.048238537,-10.8222151425,-1145.8500235142,-1811.6020774612,-500.3565908029,-285.5125961718,-8435.2353044781,-0.6953013588,0.3657400246,-10850.7439803525,-28507.5241778807,-11177.8633615398,-11804.7301753196,-8506.6492263758,-7021.0311570906,-3086.7876490472,-2614.7488701329,-2538.5231815492,9468.5640581709,9857.7526305282,4639.855913781,5778.5585811672,6864.367856747,15383.3824615078,4123.242536941,216.5893185763,6930.340839643,5169.9125247702,5196.8606652271,2725.3608872212,1064.8631379037,193.7918600145,1254.3573371972,6323.6668389833,-9428.8001993289,-9382.0418493586,-0.9355736095,-25645.2263834697,-23375.6084488461,-8768.2073899464,-10590.2147998028,-19327.1864226065,-14537.9647314956,-9514.3573665695,-309.0776741728,1274.973556804,9191.3227351033,7401.4248638659,-1200.4534447446,7555.5344856726,15948.0678194059,14880.387946075,4088.1671122511,970.1307401063,8240.6729167229,9508.3949680605,8034.9637672759,4530.4144777479,2372.552059348,1572.7604459543,1970.7968212746,8451.5832006308,-12957.6242374137,0.0664574162,-0.7259723775,16469.4653892791,-25222.4974402803,-3469.3797191795,-16845.9916298209,-28924.3011348153,-20145.5620134252,-12959.0150881738,-3697.829471166,3653.0795742232,6463.2388219121,3049.1802142205,1502.0231505166,7103.7261225706,18022.096811317,14636.1851235792,-7567.0795699084,-9934.6248553802,-6707.3197626762,8304.6631913243,8473.0561836766,4894.2115217243,4038.5969775034,1972.4413432791,2751.1554104889,1694.457062162,-11967.6205639104,-15236.4103056147,-0.4307727741,0.2429720881,3330.9295947366,-2534.192195255,-20825.5475317827,-28924.0195265013,-23942.3617979531,-14623.9426855245,-864.6936036978,3908.0359099146,9398.9010012668,11156.3492697516,9178.8800310621,14791.1555102767,13560.513646876,-2523.480011672,-9868.3423478512,-11622.1885930658,-11120.994140486,8024.8236419575,7262.7309805307,5449.0216002538,3796.2657330927,2372.3643138747,-1983.3673456386,-4823.4150383503,-13912.0049138672,-13733.6418694212,0.4326130023,0.4045722875,427.139564683,-10422.456784204,-22002.7410675637,-28923.0903214649,-27580.4039787421,-14545.8952182977,1594.5092793039,7699.0937355125,16210.1033936486,19212.2913953505,22477.7859981786,13884.3742476672,3202.7282962277,-2046.9140946807,-12107.4905660242,-9819.6604792338,3208.4390075395,8181.974262883,5590.0973562904,4903.0652506613,2821.5005996206,4506.9164329488,-8576.4643146874,-11903.0632775178,-15415.9406219646,-0.911286487,-0.1113668871,1440.2546148143,-1963.420257685,-10116.7833074682,-21278.4952280698,-27888.0045124631,-27746.7071345989,-16421.2278374805,2808.8755808443,8108.1955073432,17943.4795870144,21444.9876662131,24446.6987857548,21678.8976183457,7181.3224103603,-2797.8897819286,-6062.1511556437,3286.7828250335,6348.7373492253,6555.4809394778,3722.9411059036,3072.4620865689,5627.9103064061,-5442.0930830684,-11425.8421747846,-12447.3904071802,-13321.3637779448,-0.1830493767,-0.4423313,1441.4309163206,-8578.8686721548,-9278.083732019,-18607.159391335,-26896.2857323581,-27352.7883449286,-22063.3869386242,2084.9850040684,8696.5453046996,18089.0204328366,23094.6021490843,23332.3034173811,22992.0876188837,15003.8721827385,6032.7819520913,5279.2911938129,6594.2745522258,6501.8604253094,4880.7078012802,5584.991737592,6773.4849315699,-7600.1725630974,-13227.4644726901,-13753.8356178928,-14347.9060873182,-11688.6027223303,0.4753493859,0.5503486717,-15164.4457689849,-10020.8151931497,-9677.372689308,-17198.5751965017,-26202.7266588359,-27940.6491878079,-27134.6531084551,-16514.1651328258,8110.5418009877,19056.6876913905,18274.5320727571,18096.705415806,11911.5172871041,5375.9252948855,6761.7178189793,6982.9103628727,6361.1783465132,6541.5335032719,1822.38520781,-4101.7320853238,-14199.8760893786,-17729.8562679347,-15132.6510574446,-13611.9005870278,-15426.3012890848,-8922.741868807,-0.5425858063,-0.7536336208,-9908.6118586839,-9757.0621643689,-10354.6483409757,-15534.5800004344,-23998.6013396661,-25915.3046434778,-25959.0445586492,-25224.2730103739,-17213.3763663041,-2281.1537611387,5922.811093363,4452.6180157826,4500.9168683816,5329.3828253929,5507.9520677534,362.0323835197,-7415.2791443094,-17640.0757643235,-13607.9578581875,-16731.6146495149,-16895.3744581657,-17580.7536613391,-16809.7482770719,-15441.3709089488,-14999.7004541343,-16218.1137897784,0.6188095978,-0.4135127793,0.32214844,-11805.6593050689,-10103.7520150194,-11659.0974409613,-17295.0040100554,-24587.9070209042,-24121.1174804162,-22519.9181254342,-21393.9112026625,-21070.896953078,-22175.7964047463,-21632.149840657,-20859.4638621506,-19963.3631037251,-20738.5599034264,-20871.1736233141,-21843.9041814471,-22074.4932803636,-18126.5566963514,-13517.9620133625,-12563.0185191476,-14774.6985479714,-13969.9961850951,-14297.5774506192,-12055.7997969182,3288.2238547689,0.3809597735,0.8918079743,-0.9901130425,17155.925545102,-11775.3030862635,-13124.6055233967,-14211.3419228417,-17300.4074121649,-21658.8124991246,-20227.3343196173,-21957.8153674928,-22110.312298179,-22924.1133892259,-23950.4988892083,-24351.9016527813,-22962.0365630554,-22258.3802758128,-22699.0277591043,-23172.4931201764,-20789.1754916502,-16793.8904990639,-10075.6664286327,-12007.3007945486,-10507.877603567,-8932.4152488012,-10736.1084490517,-5647.6662175008,-0.7407227015,0.6348621053,0.3073778338,0.0383171895,25816.967569612,-9448.1079071724,-24002.1104981664,-20470.0568302064,-21037.0508888443,-22123.9211992741,-20221.929880118,-23090.9940040267,-23314.937536154,-22897.1052710478,-23850.3260542308,-24529.2518584091,-23613.3804027434,-25103.8555333793,-23879.5759420762,-21324.7238795042,-20595.372809235,-17515.2182285347,-16543.009533025,-12591.789039546,-11426.7250661038,-10325.7454505536,-11379.6854058173,5901.3654502781,-0.0566393004,0.227383364,-0.5046591561,-0.6377019008,-0.5132605429,-22172.3388232061,-17636.5954618604,-21457.5808756141,-24327.6230650712,-26842.8863364199,-26721.6457390897,-26721.4415667282,-26280.9362929445,-26178.1094867632,-27203.6367782573,-27477.5014068522,-27521.9479647652,-27407.6604457341,-25774.7566955766,-24936.9162245039,-25716.9430932723,-24851.1856696933,-18518.7750720095,-16502.0695117802,-18615.0691866078,-9655.9997263635,-12365.1395037213,0.9234420508,-0.9284129748,0.7294582354,-0.8383480544,-0.3952749754,-0.9053354395,-0.7754964779,-19658.1535817821,-18631.7065978039,-23484.6812522167,-25327.808942137,-25476.7423534903,-24902.3388436452,-27136.9968034154,-26971.8949061614,-27425.0264545124,-28405.2225356872,-28507.2185473246,-28232.1103424516,-25949.9586236817,-26068.9401476736,-25920.991581598,-26207.1130216375,-15035.9914482238,-15251.7734581403,-11789.9830189125,0.1970837023,0.7099415627,-0.216788533,-0.3457294759,-0.2643338289,0.2675683919,0.2734145413,-0.0146358144,0.5505336426,-0.9123914836,-24887.2463167071,-19556.5786395319,-26620.5002197673,-23427.7504660171,-24106.5335978589,-28177.3082759889,-25402.7637978279,-25223.5442583978,-25807.2559615889,-24559.9762059555,-24874.4920371001,-25457.3550381123,-26024.0451775326,-26695.8848249278,-28342.6032698861,10511.3561743137,-16655.9828210546,1383.9290082128,-0.1950436594,0.2778849985,0.2249962711,-0.5925783333,0.0575981265,0.237933855,-0.738372129,0.7136278649,0.5603840743,0.3627907908,-0.8849723365,-0.4882443224,-0.8412540128,0.4690148636,0.0382167405,-0.5281806143,-0.9227449362,0.2662510505,0.2267398619,6656.1585352301,-21965.2414157623,0.0196342979,-0.0360865412,-0.5123603919,0.737536129,-0.3638300768,-0.1955290295,0.0432439551,0.1638515792,0.8142361991,-0.8603874485,0.5979337305,0.0788855366,-0.6404798958,-0.2490277081,-0.1781109647,0.7449410421,0.8419168732,0.3922554921,-0.768193272,9573.8442512069,9148.2233531719,14614.0849167723,19103.4521875953,13654.4725994013,12352.2042880541,10040.8992360143,11680.3927571318,14659.7429952612,10686.4942877053,16563.7261769342,14112.0693788,13547.1225357479,11322.5326677238,11365.5920840726,11397.5209521825,7855.0868934895,8134.138421957,0.3754777564,0.3423711401,0.1134193251,-0.7701946044,0.7712239311,-0.0557057886,0.6439793465,-0.6411962803,0.4593178387,0.8744671123,17502.2349422025,13864.1606557112,17237.9186870868,17858.5340187839,17086.8829640361,16365.5809372112,16219.0216844187,14624.5421011892,14337.4331392366,13757.9970041431,14039.1220547478,14267.0111182582,14731.0411800737,15058.0868254576,14958.2253557901,14457.5594699248,14043.5264888936,13157.4146199503,10622.1421519881,-1663.9313898376,0.4300995274,-0.2450839174,-0.4541558967,0.8764057068,-0.8163116446,0.3439053655,0.9475425565,10729.8516604692,20883.257483088,21242.139614323,18545.3483562028,19105.4782377301,20823.9217881466,20325.6588447969,19967.8114097634,17547.912058518,16501.5256618781,16351.4133266104,15791.5627558685,14763.2317545267,14867.3673740987,14693.7651577241,15476.0364640884,15837.9583632277,16560.3010973514,18118.4540900142,14940.7705483897,-24168.1518646012,0.6033090546,-0.2945218483,0.0316696642,0.5176620453,-0.4263445124,-0.3975939766,-5404.3646383062,982.7515047187,-3428.0906183879,4482.5642192161,-1093.0144329035,1792.5151183285,12259.97894173,8931.3564970093,14751.8410402404,16273.5810584817,16794.1640343507,16246.5511983767,15862.8729297052,11909.7188678731,10664.7744813455,7825.1874956056,7516.1482969808,7871.7377583082,1768.8045063297,-1475.8032651834,-4259.0465349681,-11843.6017357198,-10544.3751892167,-0.8866345166,0.1490805659,-0.4494269489,-0.5036662244,-15252.3454156856,-3451.4930145825,-2392.0342699455,-2282.9216498125,-3709.0513039296,-886.1617531582,726.9685238666,6986.6601561178,1424.9377158376,5674.8598791483,13735.6208731868,14520.8093217262,16418.6781396168,16959.8867660705,13200.3532284186,9046.465002639,-6128.5411871013,-9039.9985207559,-6822.9199051037,-5734.204268758,-5177.847846155,-6658.4220437897,-8462.6140326566,-11267.0852765863,0.2526280365,0.7434076181,0.2675823459,-25625.4554876401,-18877.0650063611,-4290.2319671206,-3575.4455926539,-3110.9394287416,-1566.5785952303,1499.4107912762,2594.1154540079,-271.0174937535,3951.1715079929,12695.735688746,11617.7146764842,12011.2711159174,11361.4626132946,8613.7458882292,-3918.7469783507,-6801.5155653353,-9479.9232734524,-8477.8027828004,-7078.0458123799,-5609.7595993951,-5390.0371792674,-6973.1643495278,-8614.4949868629,-11017.9512053903,6047.6024271832,-0.0973365359,-28037.5566508665,-26468.3665938014,-21699.2560668081,-14171.916014521,-10691.7537736319,-7639.8682136214,-2793.5829729595,6.140072843,1712.1718825277,942.6638974817,8463.7604272033,9720.7389184799,7986.333003447,10464.5957189339,7595.1526135583,-6711.5499792911,-10426.9108878863,-9124.3865383748,-7127.757214892,-8792.4143761013,-7357.7900381089,-6066.8121002879,-7363.6762447445,-8616.0027805128,-12716.7552797646,-11258.9021546929,7338.1867385256,-28037.2924527457,-29254.4418743198,-26600.0348800762,-25349.6759667402,-19331.8179750745,-17830.3968920056,-17871.810571595,-13820.3017818431,-11268.2007114423,-11784.8959543064,-5744.9201282598,-136.153719064,632.3762679573,400.5358941943,-3441.7611525554,-18190.5908021412,-23546.1161904422,-22185.9864741903,-16709.8550388773,-7601.0070779392,-8649.2399804738,-8355.8476868607,-8018.4315044228,-7488.3232574529,-11485.7285934739,-13640.6895015458,-12595.5422930048,-14452.478758168,-28038.6343229323,-28652.9556489623,-27477.1733544381,-26397.6983367096,-24038.5153283869,-21019.3216408281,-20235.0960029005,-8759.2321910104,-3152.03769239,-4611.7683256965,-3803.5708454983,-1859.0955865088,3148.8822081639,1697.0891286351,-8603.2665978653,-23246.9951775569,-26076.6481984636,-19481.2489301444,-18066.6768412052,-11133.9907287907,-7022.867491739,-9367.5517000326,-8022.026927437,-9525.600216488,-14026.574832826,-14379.4358902967,-14000.5798872162,-20103.0633996318,-29254.5766935493,-28963.682849411,-27779.1070578724,-27337.7889146088,-24629.9070418921,-22129.9544408162,-18420.5630047235,-2051.8494903665,-169.2727529588,-3162.5242536901,-102.6690605377,4259.3306154639,4728.3514860135,1826.6892490758,-12805.2994893272,-26396.1018020494,-20826.1488981017,-19317.7577849225,-16369.2580605892,-13131.4196819101,-11771.1929267864,-13032.3884824918,-10258.2525883838,-11152.2661932959,-13232.6065724723,-13338.0120876462,-12895.0112517862,-17825.3605994643,-0.7230991822,-29254.9082885836,-28541.4253771924,-24826.4084311967,-21839.0152535718,-20263.1368322185,-463.249290011,803.1440815319,4706.8313457703,5727.9877836684,11924.0223357015,16882.1673744267,23384.5833800561,10846.9333824529,-19633.4823002867,-24981.9848747049,-17381.1890336086,-12849.1108274677,-8825.8624888544,-11220.8251473604,-10790.2755896674,340.6314322539,2867.8651818552,2153.3936506643,-7516.7897455018,-9474.961471818,-7203.2554360016,-0.8579173612,-29255.4332070587,-28271.4990920428,-27418.5215538563,-23306.4221736228,-23608.704329598,-10425.8066849645,3523.0234578038,4823.3737638785,5888.2036514503,14379.3200186567,18282.9558845084,23724.1550529723,26235.0085108649,10487.0127002114,-15152.8905092386,-12870.3129283743,-5357.8753649884,-4194.3555171718,-4166.8565949456,3858.9039660661,7517.3376082002,8410.6398911371,5899.0736055929,6038.9646908303,9082.7346988463,-2988.5231840489,-18054.2793620035,0.6778471735,-0.4486631696,-3380.3018023212,-27871.1077387459,-25809.2626407951,-20775.9944428564,2208.0763825999,9726.2377867229,12495.3719963413,15597.8577169522,17081.4184036512,23494.8682901272,24368.5338013656,21650.3824677282,419.1871962811,-6074.0623280026,4473.9723818983,8650.1519746966,7292.924259278,5071.1794648619,8005.92555007,8020.3040900651,9148.6962847977,9911.4756882047,11774.1092270455,13845.5983749769,6832.9714967307,-13534.1704268423,-15666.3467344546,-0.4563531445,-28964.5062821541,-27413.9910282227,-15155.8718534283,-3864.1970911804,5673.7822159348,11920.349567639,13219.2354494215,15456.9330701611,21132.908212134,25422.2691904937,23115.7718164202,14298.6665302052,1636.2039693887,7889.1138913472,7111.460844306,14769.8850439025,7032.2764802927,6931.350542517,12883.2209202649,15267.2424198827,12542.8731724502,13818.1535770939,16966.0275854037,16821.7256046147,10035.7014061535,-15781.1883398642,0.0589418098,-0.4657916192,15109.8344182061,-23683.8999836216,-2548.9676324277,-2868.7689208312,-3535.1775830469,5600.7044007091,12234.2442187116,18289.5906983874,24150.7748736765,24855.1975463316,17618.2809612235,3712.8171182286,4366.6901422611,8479.1445870227,14271.3246924925,9427.9079960938,-2901.9939328831,-2441.6889620628,12321.2640323829,12482.6617144024,13684.1137183368,16832.9778731501,18955.6239639833,19463.7083549214,2232.9792682709,-13350.827572263,-12800.7482586934,0.2437677761,-0.6024635669,15345.9369781579,-3888.4157700127,-4036.612030784,-3320.6579851419,4460.5283694358,13876.9896140051,21647.3102774562,25471.7662632672,24431.2490699105,18130.6549562189,8985.4076224032,6173.3872696752,4702.6138105292,2055.0808588319,-2704.3848614596,-6664.8266779456,-4385.924731195,10770.69605513,12496.2086808068,13239.3855785282,16693.3478561338,19627.1161407462,11508.6215986864,-4177.1393473223,-14484.511555811,-16597.1713617964,-0.13957769,0.1517143923,832.5320494227,-11207.4812630196,-9674.0221288357,-7431.0331934969,143.0904806317,13754.8622237597,21988.7394264672,23002.1500852218,22402.7860022238,19812.7995972033,12248.6875156359,-1440.1605388643,-5790.4613573807,-4634.191299131,-4239.7834150549,-1804.9350680158,14394.5869815157,12876.6408439393,13133.3546797723,12981.253969094,17306.9680529379,19347.5308347211,-2144.3220039367,-10572.2697470062,-15682.7554192583,0.4644192337,-0.5392665954,-6981.3957289932,14615.9319974715,-10811.3607229722,-8125.7951961656,-11415.0976793332,-6984.2047584498,3517.7531954185,21840.9785361381,20263.7049906023,19822.3127182822,15925.3316882787,11504.5029288059,2171.8112448448,-5635.3678964855,-4158.6897872348,5293.3277008276,12603.4700660531,16558.2740460354,17371.6436905436,17688.0085727885,17073.802934783,20021.4669356253,4773.6775439444,-4711.0506391448,-8247.2377886801,-10833.601177155,-0.4721884146,-0.6780205375,-6981.6912485925,4607.2702576518,-8705.6437065465,-6668.2157346401,-8919.0009736225,-7395.6709575365,-873.5888660704,18769.4073701319,18837.0932480788,15081.3728854696,12511.8540176949,8875.1893939819,5901.1449133936,2845.5137439476,10823.4997299143,13428.4703420938,18458.0661163153,19102.6275746799,19717.4872067732,20829.1538028207,20524.6664695905,5544.8483829522,-4712.6057493442,-7020.8309711705,-8528.4510957038,-11875.619338,-0.0743305268,0.8476102833,5984.9587177169,-1390.827864141,-5138.9761969029,-5092.3628852677,-8477.7159492535,-10209.1099899016,-7508.1948376296,720.1750564941,16602.1558403557,12149.0970425689,9197.9813644748,6653.4222339123,7980.5772248834,6468.2343427878,8625.0458190701,14764.7746315976,18982.0683630758,19091.2528253771,19753.7049473399,13890.9107471248,-281.9409757842,-5034.3523876681,-6216.1183952872,-6280.9218207809,-7920.0620862957,837.4632933338,-0.400064491,-0.6601921048,17743.0923482821,7813.2765431486,6603.533373149,-4190.4455921168,-7106.8088426297,-8520.1259583974,-9041.0329118299,-9242.2442356851,-6500.1404436031,-2009.9749192262,3462.4637529437,7040.9921668996,8278.5919733439,9740.7290578757,11706.0110038323,13413.3033865899,11270.4355729181,190.5098301408,-2821.4245657366,-5110.6294550438,-6092.857986641,-6104.8146505406,-5825.1720057252,-5639.3413092284,-8125.1126256753,-7567.0410039268,0.0601181825,0.2544473262,-0.2237354398,15560.8854371077,10874.8830590541,6965.42898368,-6132.8350671089,-7144.2062490895,-9366.7512016916,-10430.7100224007,-11776.3672431389,-11577.3221510923,-15650.7234743892,-14808.6728891707,-12784.9280009552,-10021.243920893,-9004.4559094976,-8661.036528267,-7231.6915202505,-5857.2858182231,-5178.9837515384,-6582.3418246008,-6714.7195413254,-4891.7387616906,-4428.9702528936,-5362.7637890798,-6249.0249463418,-15978.0531908839,0.5977921792,-0.5564842563,0.3181558595,22390.5825354815,10166.3842923333,-3588.4863877774,-6860.0370360872,-6218.0555043215,-8366.0641221732,-6516.1536803656,-7362.9910746726,-6611.2787036205,-8046.1763434497,-7863.8271288206,-10829.9512533621,-9901.3691296582,-9154.0840593045,-7536.7621495666,-6325.5485007888,-5230.1179627504,-4997.793713012,-2257.9342321568,-2547.3802703542,-4318.3164803324,-4137.2708463921,-6822.0830302543,-22866.2012795577,-0.3857199854,-0.9663281021,0.1216607367,-0.5185312629,19738.9395406986,14863.2135454197,1170.2306513422,-14889.7575844445,-8178.5652536147,-8478.77495708,-7141.2424832009,-8896.778672089,-9805.8476936901,-12037.5917692654,-13694.7668545887,-15687.3805848782,-14641.511324401,-14146.2140487114,-13651.2506755283,-11816.508134022,-8182.7177616216,-6628.5755812483,-7596.4330255595,-7300.7648027061,-8099.8328966236,-10479.5265126953,-10227.3700896666,17469.7654689639,0.0687032579,-0.850532788,0.4237378933,0.0893146891,-0.9587934645,2077.4711152644,3930.5369548246,-25971.7360233044,-27184.5444409752,-27348.4395968231,-27063.6945657654,-26074.9204425315,-25581.5914455157,-25303.2015335049,-24923.4499619147,-24641.9483025003,-25423.1622872844,-25955.3440321434,-24580.1139346298,-25357.24144485,-25618.5618877587,-25719.3396510922,-24232.3021174361,-21356.5740408867,-11973.2520826814,-11431.5040961805,-26438.6165339154,-0.6150855606,0.8240619853,0.0821643756,-0.4051006771,0.8230385866,0.2817399278,-0.4280040635,-10240.3765033545,-23639.8047391722,-27060.2018731722,-27968.9556983117,-28053.4498821483,-27969.5542810782,-28433.6891099977,-28225.9918804158,-27942.4990506963,-27968.6797271937,-27206.3092472454,-27472.3938205958,-26787.7144785861,-27091.4248874011,-25178.0294871939,-25756.3297760933,-25827.0550332506,-20221.6861777625,-25680.1978963784,-0.5527323813,0.2323904783,-0.8658154826,0.4800060903,0.9593081469,0.0140272068,0.8461085747,-0.609635375,-0.0683153509,0.9232889712,-28354.2760861575,-25053.9593466906,-27637.2455226846,-28286.6633428092,-29088.9133028623,-29088.3469873427,-29089.3527440595,-29089.4453932065,-29090.0910255172,-28798.9857443063,-28965.006481736,-28964.6711418463,-28798.940788602,-28965.3359572947,-27945.3842404167,-7905.8304505769,-17221.6114045829,-22860.1365407215,-0.4812282297,-0.1514287864,-0.890390986,-0.6416926234,0.7441544607,0.8587521815,0.7287149149,0.5683277692,-0.8874208709,0.2407081735,-0.0777247701,-0.4202501646,-0.3338486423,0.8774150635,0.3619878807,-0.0534941769,0.2575851323,-0.284780123,0.3199190671,1691.1619864817,-22271.6608381601,-0.9688755231,-0.4186793165,0.3835958155,-0.9519808194,-0.1894755822,0.0985577452,-0.0555554764,-0.5574329277,-0.3684826469,-0.800960198,0.2480717485,0.3873747709,-0.9263633232,-0.0873914625,-0.8495040645,0.5248975128,0.0241505481,0.347549765,-0.8440176439,3656.3562125137,2639.4674727745,3736.0439280225,5667.7435719345,4048.3418469632,4406.5626889727,3604.8677844109,6061.6918030052,7460.975413116,5432.6424631473,6619.8737171027,5470.0968311424,5667.2597951107,5673.4553606084,5192.4967745135,4782.37887646,3022.3841411601,1992.002521511,-0.6806649685,0.6652152633,0.1696015094,-0.0127533359,0.4244068502,0.9417084051,-0.550818794,-0.8239978975,-0.1135952936,0.2131359638,6177.1160974173,5549.5384070931,5696.848413638,5576.8367731475,6458.3977072681,6496.0340597637,6802.8777730351,7169.0793835403,7143.8985072256,6901.5056385856,7403.2493684476,7990.6583170607,8190.2154928989,8391.2534388981,8390.8644287206,8391.4435717575,6894.6875740471,8017.8624390273,5758.9305038398,1193.7558619157,0.4684973314,0.5536838452,-0.21716453,-0.7985948621,-0.4343939727,0.8474885339,0.555070374,-4441.055518378,8493.9149610347,9510.0463090546,14886.5483770523,14195.4522757896,15697.2979900053,15688.6950487971,15635.5501454053,12514.2762334361,9749.0889191396,8964.3877589622,8959.119488063,9394.7212778457,8695.0006405713,8949.9430420968,8662.0110421631,8337.0980047619,8822.1424943175,9083.7309589277,5853.0236647278,-18244.2381862926,0.9858601507,0.875731828,0.7025214124,0.7048835897,0.6274249519,0.1172173568,-16551.5292690257,-4419.9935845561,-9735.2229786105,-3756.0478101996,-7597.9768730825,-4658.6809886688,3189.4128337137,1570.0885062158,7439.4523658196,15201.8719333349,15100.7711692284,14981.2533831223,12581.057348241,12455.2866113302,10516.7578872345,7881.3604933606,9754.5389467925,9127.6085221044,2469.5794248122,-12158.4062197124,-16354.2833537113,-17910.6350861318,-17860.1562282904,0.2864499013,-0.8898888936,0.5781951659,0.013388401,-22605.8225514699,-12671.7748478834,-8681.0717351984,-8188.2300559561,-10525.3762204138,-7696.1721203439,-5939.7418981898,-5765.7717630808,-7887.213316,-5199.3908654024,-141.0393431528,6821.5690574342,9734.9856271136,11926.2828454312,13064.6076530776,12503.5795173775,1247.4137160978,-6170.7278643762,-7519.95049069,-6717.64842438,-8280.4349470378,-16003.5668843799,-12776.557865122,-23669.4956692853,-0.0654359594,0.008348506,-0.1573012428,-27161.5593183334,-28233.7118086862,-19735.8223743763,-11244.8735980093,-10830.2856882502,-10035.1588081779,-8919.4569500702,-7825.7828686023,-8317.7295913243,-5956.1745607659,-1139.4090285865,-271.7407265922,4293.466579387,4061.088373991,2110.4265605785,-8626.599294885,-9197.3732742213,-7874.9977992732,-6556.9482231348,-6395.6001199614,-7236.775636889,-7385.8115800028,-7958.7585632637,-10709.6375795549,-13031.2588296069,1615.0828326586,-0.8402493352,-27928.3825514518,-27116.1320509196,-24510.8571759556,-21673.3055447634,-17089.3809341745,-14174.9721463633,-10359.0184281417,-8562.153269566,-6207.8134051964,-7139.783352837,-9515.3656060967,-4941.7544499903,-311.8147796282,2961.7234763393,3425.7796843811,-10080.6739978734,-10776.712469944,-9864.0706876158,-5059.46224488,-8223.1020423051,-6193.0030226907,-6839.534682228,-8131.7051837078,-8067.935304812,-14934.0284638889,-21938.7687949838,-9195.114097879,-27928.5815728014,-28094.3711647624,-26813.5142117228,-25900.0331882681,-22890.3705119859,-20039.9330642994,-20280.3003441075,-15456.0142197876,-12435.7458369779,-11412.0330956081,-12605.9878317414,-4997.9786161849,-2661.9902466093,-2390.3334427616,-3012.7298596239,-15612.6729634202,-16485.4641605288,-15271.9995887558,-8921.6829895257,-5431.4926897318,-7977.3482550487,-7345.1733309469,-6206.3561311349,-5495.2264264353,-11263.4011000333,-15018.3654183681,-14200.4676113255,-18418.5421002682,-27462.4803722306,-27929.05199148,-27202.9056916691,-26467.0275452848,-24548.4574114731,-22329.9347147714,-19765.1500234543,-6540.0671261299,-2608.0780930614,-6428.6394373272,-3957.8472524239,1002.8515125159,2460.0402761844,825.3859498485,-4286.7996575481,-19497.4551211925,-21244.1696527845,-12249.3654812545,-6020.878996339,-5999.4519985732,-7777.8387421344,-7778.9792524465,-7091.4494613918,-9334.0257104619,-13046.8833693304,-14618.5639416756,-15598.4062778493,-20392.0198481989,-28674.9903276932,-28094.3361767787,-26487.0344861171,-26749.601949847,-24696.9583843628,-22235.8708256473,-16488.1288918985,-381.2916771226,-2415.3919882586,-1971.5064651795,-1127.8093646258,1941.3015055414,2774.6587855404,1491.4800053616,-10844.034939909,-23863.8968625512,-19335.853528241,-13084.3836955016,-7448.148686029,-6575.6525232752,-5668.856015015,-7328.0073382297,-5715.9578517938,-9554.3936176892,-12539.6441020837,-17192.6853460619,-20897.825998483,-17195.8903239645,0.5412378095,-27420.5568259837,-27039.9435314564,-25089.9888067596,-23361.9291986849,-19489.1574300656,-351.0083473943,480.8553408971,1414.9580837343,5889.4081598129,6610.4313275779,10432.0576855112,9404.3375393556,673.0252642532,-19370.0950648858,-23136.9982642814,-16735.1501264069,-9827.4089436802,-5848.1547884285,-4441.4879891392,-868.0200866612,15605.5263712067,18987.9113421862,14226.9907298616,-1423.8159014278,-19681.7430866116,-13734.9803820143,-0.7114939039,-28094.8061763686,-27684.7769173841,-26336.4948536152,-24446.7860459295,-22343.8276062648,-9964.287513681,6410.2770584587,9644.7412488097,9196.3729040285,12902.9151220414,13453.2833804165,11181.2219190256,7550.540766136,-5667.5096746627,-20155.1432033207,-18566.4821815934,-12987.9022303728,-8849.5996687182,-6475.86631762,3572.8182732224,13452.4789748428,18138.6041719693,21109.9728153072,21236.3945264943,20672.2195620596,-9893.6391624492,-16392.4461035951,0.1327381097,0.7994932107,9300.9691104931,-27372.2362914515,-26451.6843717034,-21841.4590959513,7647.5872861336,15433.0697510388,15849.927369857,16303.4074962728,16248.8581850012,16061.1722218783,13998.080016214,3754.1571618044,-11047.3742385152,-12548.8534400077,-4739.8369117657,-985.9469888024,-4421.5993116417,-1272.7671923908,2821.9200557581,5783.4482998427,16863.8194463067,22601.5822871839,22883.3116025781,22577.7901196763,3229.9977784007,-11933.6693595472,-15840.3200013888,0.1763009211,-28569.9345548254,-27061.8470967463,-19059.4133841763,-6519.7863246098,14484.173170726,17065.0172901339,16090.8532425615,18100.2987454641,20232.6039472481,19393.7582630194,13931.2973965989,3870.8669958039,-630.8105395955,3086.8966943588,-2936.9984913698,19.1278868631,-749.7671047586,423.6953921031,9915.5494752033,10741.7550607133,17874.3019058415,22185.6018860935,25757.5955183543,22534.0507889402,7664.2486733312,-12772.3108938718,0.4052691798,0.0424430297,-28378.1893522959,-24674.0665399014,-4034.5730593058,-140.6491027961,2334.9538902032,9258.3608506344,13213.5531972737,19560.0565660886,22097.9660522264,20643.6425376393,14818.6336911069,-1155.7780148271,1371.0309334158,8043.7513872278,7254.4577162218,-1534.2984171835,-11925.0825111335,-9796.2773276989,9528.1514604865,10833.1394055985,12679.3888576398,21211.0884342297,24400.2584629568,21803.9875038968,-1255.2246536103,-9586.1813341164,-9857.8753070261,-0.5390390216,-0.3551577356,-15224.0696122526,-10847.3970973499,-3453.698290895,-236.3742670443,7880.8539417562,13370.0215042629,20662.8160351895,22249.2177725661,18419.7458416968,15057.2443498515,4725.51442053,4896.630371281,5947.7474307543,2507.6649536586,-5158.1482051899,-13750.4935734112,-10094.1725834612,8638.8992028185,8498.0195522,10957.0789277724,16087.7708668915,21519.1522168749,9282.2492237763,-5043.0786351461,-10250.7805429928,-11600.8709821766,0.3966356964,0.9491763788,-22189.1002620922,-17011.6733138954,-11064.3007494377,-5268.8195113307,1950.3218886766,13426.7681611226,21153.529020095,19790.3766294866,19057.3125267424,16058.9589537717,13285.7567887048,4673.3317248955,1749.1248616189,817.9551671872,-3456.6170270773,-12246.7902228691,6813.1080068162,5135.9062472487,6289.8113832388,9951.7386666245,17520.6486722589,18261.1179723504,-4716.1738447917,-10190.5232499371,-11802.4395448388,0.4967518751,0.7226224769,-27360.965131193,-23138.5446710674,-16159.9425046942,-13613.2567238017,-11623.4409113894,-7646.5499318396,6053.4208126584,20509.593851466,17650.6474923721,15460.5081321243,15361.0727323402,17168.4569062348,13364.9249799787,6732.132670787,1678.5283326773,-879.0432388572,3902.550907618,4899.471418844,4292.8407631187,7909.9307688256,12964.7216847378,16864.0959864359,871.7082467124,-9073.0544980825,-10311.5037265206,-7833.7237880253,-0.8955520456,-0.9615095473,-27361.405250623,-20220.6974651724,-18500.2852806166,-14040.6377443376,-13541.3679854596,-11962.1506975673,-5118.5835282812,16843.3418300736,17262.7379760688,12962.8838147238,12796.8482830026,13430.8182098227,11136.1761461926,10554.7267187393,7892.4354030929,10064.5351595274,8603.5793256267,7389.5219148638,8475.7408129723,11696.0006313383,15428.8461474677,-94.0401147862,-9239.7184970281,-10751.4280192583,-11406.6402921394,-11157.2831072631,-0.8586349295,-0.8673351957,-24971.7734153756,-23924.8600843283,-18579.7928305091,-14137.6574456204,-14826.9149576202,-14057.9771502394,-12443.537493778,-4398.9544085199,15424.3387768501,14062.7611744447,12381.9982302776,13004.7930676128,11695.6278795264,8268.8969511224,9443.5869938668,8147.7516182098,8343.849053966,10068.1683911221,11402.5534747807,5554.2370799304,-5894.609404753,-10875.7233610973,-10656.8657982084,-10304.0876597207,-11852.776759853,-2860.0822193894,0.1493168519,0.6180278139,4017.8370849382,-22923.0970542253,-16841.6785545359,-14749.7676095362,-14613.0164743239,-14218.3932939454,-14244.4282384109,-14245.0645217626,-11049.0092330114,262.9437167666,11629.6266964604,10367.2005129522,8523.736128055,4334.1451090675,4440.2988306734,1599.5991593628,-199.9992526715,-7788.8998962982,-8768.8109198828,-10700.8745949844,-9342.2525457423,-9251.386170924,-9517.5661346883,-10599.7469111839,-11306.2504873216,-6410.3162642979,0.6472757502,0.6441809528,0.1222036952,-16352.6474817363,-22394.7456708086,-19678.5553071367,-15138.3497170084,-14027.1038404593,-14702.8580694203,-14513.6816496827,-13499.3759140303,-13812.557611098,-13956.1689797752,-16111.2687342609,-17149.3538763461,-20353.9363535303,-18157.6286469332,-15376.3842489672,-8577.2734998515,-7395.6190829028,-8223.1237645963,-8115.3013327281,-7511.33878676,-8189.9989586734,-7269.8342983781,-8284.5679057738,-9584.9985181052,-12244.3171000767,-0.6659317665,0.2264736072,-0.9185678507,-17793.9385179106,-25361.6786885816,-25254.9167343576,-22980.392791695,-16893.5072827188,-14966.8687565532,-14538.2381553522,-13939.7520548814,-14878.9707591199,-16578.2416959391,-18019.2384930456,-20089.9561833973,-18299.9855816776,-14775.3253345225,-12003.1071145506,-8412.8677333533,-8863.4154392462,-6209.0798084424,-2739.2802551854,-4271.0933380368,-6607.8783065539,-7013.1577534798,-9471.6318158558,-16147.3519486402,0.6468890328,-0.1948904081,-0.731088269,-0.7681303194,150.1685266124,-21454.9200243782,-21435.7663859762,-28464.4153647542,-24779.4616889137,-21612.3510322604,-20237.8431617497,-20177.7741716255,-19982.9757118668,-19430.059405477,-22258.6885935441,-23376.7134127073,-21571.6609881363,-19543.5948543359,-19420.0141565236,-17194.0401273031,-12577.48703515,-9207.3105558891,-8492.0735402611,-7375.0631840787,-8490.9625358908,-12293.2319058733,-14669.733126044,15974.1068255193,0.1990668913,-0.0411933214,0.734637979,-0.3125387654,-0.6317332098,-9418.4220278563,-15291.2729739505,-25099.6741633001,-23302.4755306743,-25470.2826269755,-25435.4930403538,-26207.3757294828,-24555.1371549464,-23130.669204832,-23059.6151077437,-23640.8660319546,-24149.1810464839,-25257.5369499861,-25684.1008377599,-25726.6510236008,-24969.1986490918,-26052.4972345497,-26270.6067720183,-26943.1015254535,-25941.8321148493,-17585.1664423578,-27550.2566648393,0.2354760083,0.1061704772,-0.3293619853,0.0055860369,-0.8543296564,0.8441189207,-0.9159688448,2450.6448101424,-15519.2661146055,-25977.0833750859,-26893.2231997901
   -27349.2728398717,-27409.5568073983,-27119.2121501315,-26788.1139601956,-26143.1445511465,-27017.0501001237,-27183.0487430518,-26725.8256902257,-26484.004617027,-26144.6375700808,-26205.4132112563,-26155.0767822653,-26709.2518905303,-26435.1533770372,-26360.3652232306,0.9041687199,-0.8041346093,0.6809939955,0.9138226514,0.7507581427,-0.678482221,-0.6388825112,0.1288672443,0.5752168002,0.452955509,-26394.8831087056,-24053.4390174945,-27544.3367902791,-27822.1867445186,-27823.3591422854,-27410.898763447,-27637.9368475358,-27411.6720548462,-27927.961132307,-27637.9051985336,-27929.3078550675,-28094.8847132795,-28094.3538852759,-28094.2344124825,-27597.3277469852,-10319.0782426147,-25612.7655026941,-25896.8930962919,0.3856186171,0.5646862637,-0.2983575665,-0.838370833,-0.6374251445,0.3755823363,0.1180374978,0.0983780877,0.525845936,-0.2203592952,-0.2899492089,0.548762457,-0.3436940805,-0.9467451593,0.2934920492,-0.8019719349,0.7698608555,0.0409801646,-0.7833443275,9953.651629723,-21553.1724402099,-0.5987711569,-0.1976982632,0.7730374143,-0.0854839448,-0.3513027225,-0.2720724576,-0.2161400651,0.1913125064,0.9064052707,-0.9848030311,-0.9459347175,-0.644901738,-0.347013287,-0.4654057897,-0.8883596892,0.1715165961,0.5728884138,-0.0073160941,0.6683813147,10371.6092435339,10874.3056941958,10966.4194408803,12208.6304524462,11021.7470279855,11367.5720986738,11777.3299312258,14239.9738145776,14063.8712838019,11816.873765673,14110.5199109081,14997.444176329,15062.1828578612,13207.4698294172,13136.0913610417,12876.5780947823,9683.5542722846,11635.2785282318,0.0309366526,0.074170983,-0.6371476164,0.7495845469,-0.5478169842,0.3902607521,-0.7617927966,-0.7133022028,0.9748192768,-0.6850703949,13035.0386440639,12696.0352814483,11105.7411223108,9011.1411864645,11551.6241621763,12769.813776981,13582.9681512713,13782.9607965542,13882.6092533788,14210.6348491524,14710.6157035054,14682.6615638848,15010.6064521158,15310.2333812909,15660.3118871415,15471.3097793863,15420.6826368984,15331.4970636115,12532.7761101242,1548.4974428692,0.6061856359,-0.9572685108,0.4982092518,0.0430401497,0.5597009272,-0.6798749556,0.4859683745,2864.9578924378,11807.2185642243,8329.8103397829,9411.3355315743,8915.9215606494,11902.3201450595,16175.5313758224,15958.2612587362,16049.6454265332,13958.2146842775,15050.5275261647,14402.3290068267,14994.0649508966,15692.231657557,15968.6933701514,16100.960754638,14576.8931323258,14882.5782642035,17712.1263982333,15123.3526801955,-19662.6182123706,0.8467689704,0.3485409908,0.8112123249,0.3466392121,-0.0578934199,-0.6980841937,-6550.0323438094,-2174.8949923422,-6644.9499533221,456.3144299908,-4206.3059588407,-1602.1034138216,6001.9431447552,4052.1762443477,11729.6458660191,18810.2678534576,20061.0094490766,21368.9187428935,20474.1554947079,18406.9653791239,15018.7321784082,11766.1878995286,8741.3330275192,5880.1315262282,309.871668853,-2048.9260640798,-3712.1609088292,-12090.7195825463,-10497.4119755857,-0.5370896405,0.4361880863,-0.9522016327,0.2980925651,-14898.4419387662,-5348.0165173328,-4152.2294445548,-4195.5187190422,-4881.1497452492,-2076.7820101169,-1585.6073897886,5438.2373051587,-1100.5672904097,4874.7404218954,13254.4112166104,14289.2422203765,17243.2144534042,18269.534411943,17319.3249077543,14180.912154077,1639.9488459308,-5810.2399603646,-7206.1482338404,-4941.4790347571,-4412.9481881319,-5463.5351278134,-5548.5384244562,-11435.8852182233,0.4642766535,0.3186461158,-0.6775458064,-24225.9680541676,-17154.1075302183,-7795.9708235746,-4774.1991217803,-3893.7643202139,-3189.7682514285,-1128.3436034248,-511.1773725314,-778.5307405397,3053.5199703012,10053.9896219121,10688.7390852056,11342.9295852069,10961.9823730793,9500.7942947766,-4659.4409090944,-6765.4371149024,-9092.8614765209,-6620.3154874864,-6367.8050459039,-5411.1859082248,-4637.1535057004,-5431.6622778868,-6396.6291422255,-9284.9330828431,8209.7249933159,-0.5367317203,-28618.0351549428,-26947.8020419075,-23467.2015155953,-10852.6235639309,-8066.3765064042,-5842.898517932,-3626.0255855428,266.2460996763,1532.1346335494,1470.3616357965,4344.6440162693,11445.8568243781,11399.5392105663,10935.9027903418,7044.8702162719,-7497.5548441618,-9835.2537941341,-8937.1958075889,-8172.3729842634,-8155.7982641649,-5768.541078751,-4485.8928156864,-4813.3184736008,-6386.1555314166,-11151.7096919332,-12805.1174450126,2039.9305173332,-28617.44001488,-29544.7929497523,-28339.7409336863,-25671.3590929102,-21515.6898873433,-20055.6056910809,-17645.9029004218,-13120.6979315265,-8984.6068636855,-6006.8646591293,-2757.2990095977,6529.5178243029,9127.8867890205,8522.9887808901,3501.4968018277,-11732.6446829324,-20378.623889497,-20041.6535826023,-11840.9884878228,-8177.1437169639,-8799.9152527875,-5026.4957965481,-4695.2615925531,-6008.2969053334,-9849.6424969707,-12617.7207381061,-11374.5360425932,-17747.9806858061,-28331.4059138615,-29012.4666833333,-28182.4761944528,-27590.7299259207,-25006.1460956733,-22987.0995361319,-21216.623828243,-8506.3299606891,-1612.441794963,-4333.9528851554,-859.084252666,7173.4488786081,12415.5279681372,7599.299394954,-6629.9126781167,-22555.5439093961,-26212.0168381364,-19122.2271994358,-13456.5245429939,-9259.3792817508,-8761.4149745537,-7451.9762218006,-6240.9756245519,-7169.3021423959,-12224.5577901914,-13486.9228295515,-13740.878633605,-23532.5151569097,-29379.9332867078,-29379.8837601559,-28661.8120695281,-27831.7043999469,-25944.3000339091,-21933.3874367069,-16611.7591720119,488.7978095318,-882.4938194753,-199.8800234145,8941.7894652487,14314.2586169948,15524.335808978,10211.4117414459,-11847.2952065903,-26037.1981187792,-22172.7902601017,-20216.6651257933,-12702.8364893202,-8788.8758791839,-7479.3572770175,-7962.2934323476,-5130.8648795149,-7096.7257669307,-11529.5752446971,-18041.1495238638,-20685.0831301761,-19578.6509938895,0.3745534506,-29379.564400255,-28665.3340818849,-26388.7909114867,-24853.4266211355,-20545.8237257132,-780.3288985641,-1147.6717387364,3841.6680204166,9065.2140117668,16482.7138384894,22136.3113878306,20783.381579272,12036.740383829,-18725.4769208288,-24405.0351002484,-21246.5997583465,-16976.9775749186,-12243.8323818724,-7692.5183713368,-670.2070338665,15239.7191668365,18777.5301717237,14453.2776352493,879.7124532508,-23878.7086998817,-15436.8375111114,0.0523535783,-29544.7802231485,-29151.7963268573,-28059.7252846246,-25502.7948398462,-23950.0999727177,-12207.6827870467,3617.9217189222,5847.7906345947,9719.9061689904,17565.2454592913,23580.2075777146,25837.1332573237,24701.5147599645,7949.2143910062,-20489.2181729686,-20727.1171996319,-17019.3264415192,-12385.6100884741,-9568.5265733401,360.5590373152,16529.6056956286,20566.1414218984,20115.9596580869,19417.3029220449,20973.6937371271,-16188.2583434637,-21480.2389681835,-0.6925068407,0.2859238177,4871.5001225288,-28822.8513147951,-27159.7998088862,-24192.0180145118,-1848.169838485,11855.1597995881,16335.8409552052,18683.8077987382,20868.2476168673,25933.5948603434,24970.7572592133,19851.0804776568,-4931.2137094873,-14728.9479736057,-5351.9920168512,-3620.3727476408,-3110.2200535258,-2644.4096914112,2260.7025953813,14216.9007333439,23964.3371634249,23641.4643235053,23301.7472962359,24119.7363293948,-1218.1092999472,-17402.6208398035,-20364.8607427652,0.0200825148,-29379.2048615253,-27965.4435382942,-25746.0083245213,-15952.2687421845,12288.3635111282,16965.081386693,16356.3373690213,19368.2371648897,23294.0502142436,26806.6936974743,25069.2633998,10788.0781952819,-5444.8741435135,-2287.4545741504,-5174.9565161031,156.2889689944,-60.1353371122,2612.9689940309,12743.3923851487,22580.3032664267,25851.7494759833,25702.6737227511,25160.7102261268,24719.249685753,4310.2370074402,-17123.3602699162,-0.9418730195,-0.0118500672,-21300.1306396927,-18795.3436046242,-16570.3838193547,-3241.5151044673,-651.6537551275,7859.338885951,13177.1326031125,20187.3627661842,24951.1853850514,24889.7140724616,16184.6126362342,1500.147705783,-6983.627873476,-3427.5388388635,-1757.1102663564,-1271.0236520364,-11523.2998905836,-6730.4139326304,11511.8710878627,23084.8176737486,26025.4845912667,26572.2426285358,26509.7409133416,24844.5246370815,-5471.8381759382,-14656.1369393972,-13163.7269248227,0.5739323043,-0.3773798476,1136.1271317559,-15192.4027738472,-5058.4001981763,-3052.1184489496,5662.6862790481,13549.3874892827,21249.2657891134,24456.8080314518,21811.3270615729,14455.2725617625,-6114.1565033274,-4413.4229807525,-7155.7200602755,-10552.9376552984,-8431.1655953568,-11589.3468905109,-8774.5590247403,15458.56130139,19251.8803731704,22678.7679874264,24240.0994100584,24503.4628533292,11617.0017020829,-8939.8783952748,-14760.8962948754,-14650.8488108988,-0.8808014856,0.146001185,-10970.3002802288,-15328.2571897876,-11144.912385598,-6384.4339969542,25.854869048,12668.0295986881,22292.1602591338,21751.5864829689,19601.0895504911,11951.2720655236,2050.0141042708,-6212.3735931167,-12426.6812162968,-11831.2279261948,-10504.3745879318,-7736.6335906462,12063.0328989835,18990.4797694086,21132.7241199724,22686.8069735567,22704.0588187338,19621.150429352,-4325.3432036793,-14732.5069308725,-16352.7747946183,0.2933972803,-0.1028191364,-18244.8856492176,-5518.5096438275,-14067.6056916114,-10946.8361882197,-11105.4444085255,-6489.7484524627,5722.794863817,21543.2881389124,22225.3855101078,17707.6753977019,9953.8062033316,7288.394258974,1284.3579178484,-6240.8816041375,-7259.1678260349,1179.9055541286,11585.0833346094,17425.8767625274,22562.411657336,22506.2334430641,21834.1058980637,20232.3396244988,3739.3370865053,-10046.7466901336,-12331.7305865652,-12477.2260955059,-0.8281785164,0.1094001255,-18244.2256683326,-4584.243553732,-12962.5467792615,-11363.3628534721,-10853.6045192647,-9602.8278964029,-191.4722433137,18880.94364126,19740.174582162,16479.335510816,10579.954693648,7963.1922904727,5618.9780741773,912.281704782,8895.577144778,12682.9577960928,16477.6312907309,20713.18258025,22168.356029705,21154.3098443103,20983.5371489774,4981.5388572764,-7814.5046261365,-10532.1814782256,-11647.0515415458,-13377.1811058369,-0.0645593955,-0.3396812934,-14213.2747737998,-11024.8503633792,-9879.6469546568,-10522.8476203298,-11453.2025770965,-11186.6913947756,-9891.5595373184,-958.7942812964,18537.0151728945,19254.3220945827,13970.8925890045,11231.4347818611,12109.1611081048,11134.5517757783,14018.2976176111,15846.6035825103,18658.9492651652,19768.3312316027,19657.9252235177,12187.6101606999,-2161.741283157,-8564.0237709333,-9592.3360321219,-10040.4320088396,-10939.2131539013,-2757.2197035141,-0.3280489798,-0.3727431201,5409.2968511,-8690.9969418261,-2185.9121578061,-9377.7015444918,-10478.797076661,-10911.2840763097,-11006.0696169629,-11007.0723552186,-8144.3444306961,6790.8109977635,18187.0915123763,16957.8504688776,14759.068482472,16094.4076163373,16639.0570339264,14582.070957696,9657.6349042901,1138.8527305217,-5329.0699027566,-7914.3786621587,-8205.8706718867,-8623.20247794,-8571.7318371523,-9941.8164188387,-10985.8590838711,-2889.7182622083,0.5785935566,0.7834382543,0.0771448156,-1309.9443329071,-7258.7257891011,-8488.6069302442,-8664.9791373271,-9531.0444671469,-9685.1266115665,-9990.3152471063,-10129.6966666282,-9753.3096020269,-9135.5002733694,-7903.5609581392,-6313.1210165105,-6214.701059729,-5921.8927439625,-8752.9457882313,-8528.2126336127,-8649.2075362428,-6831.0454861208,-6518.4745227768,-8451.1055795838,-8473.4490255328,-7502.833462698,-8258.7792707235,-9262.3317756228,-22090.4523360146,0.3217541852,0.7038897084,0.3970488032,1086.8105885934,-6724.0363889475,-10636.8561148344,-10017.9402439287,-9450.9563837926,-9652.9457161364,-9825.8898865843,-8042.7048108367,-8259.3657354465,-9660.8012483257,-9901.3815133224,-10314.6690210487,-7223.1991144997,-8261.9750492215,-8890.5123332009,-9109.1517528933,-7758.8657779684,-6151.4794312456,-5292.858225764,-5494.3080529255,-7944.6737405795,-7996.2182698375,-12139.7941743481,-21469.2468411608,-0.6400718531,-0.2077023046,0.2531859895,-0.9940775048,15225.1721791454,-3656.4299118767,1162.6399977001,-19810.1627961679,-12556.3588981478,-11066.8763493626,-8442.9730966992,-10158.3880796048,-10064.9245134668,-9757.761546291,-11802.3365805262,-14795.6616095986,-16463.4313075246,-14439.6409528537,-14417.5544824924,-15330.7652116497,-14748.3535481516,-13831.9368692827,-15037.7075919462,-13398.0945614756,-9920.3011231417,-17940.8969849096,-23235.1625731141,16283.8284255458,-0.7372321906,0.0112038632,0.1475336689,-0.6171109347,-0.5112232536,2725.5944253182,-3373.4907554017,-26309.0129121465,-28681.611373464,-28559.8371103461,-28561.3014868341,-28882.1505650059,-27269.5352020256,-26542.8492293144,-27119.3413604577,-27119.3709099797,-27294.4029571605,-27068.067633917,-26130.8117887303,-26346.2276226899,-26012.5710103446,-26377.7980426368,-25994.4146347205,-26575.7500816126,-26117.1425392087,-22904.3326558221,-27518.0641214131,-0.8386859531,0.493831144,-0.2611668778,0.2958010022,-0.8190637979,0.6584137317,-0.6310055917,6516.4457160259,-18929.2847564567,-28333.800860841,-29012.9294196282,-29047.8035604619,-29046.957733995,-29213.2029960547,-29047.2932306999,-28881.6685819278,-29048.3200274285,-28805.1817878242,-28547.5836018039,-28169.5009922316,-28176.0550127341,-27906.7185833131,-27300.0620044903,-26352.4786884823,-26868.2026559742,-28381.9297820248,-0.4037458515,0.7148180404,0.3174367518,0.9853546973,0.2267843782,-0.3559433371,-0.6717331232,0.0788071008,-0.2950978641,0.2318924016,-28078.378748349,-27360.5191978131,-29212.3450027344,-29214.1993810458,-29212.309100996,-29212.3815652834,-29212.5278637128,-29212.4980214706,-29379.455390728,-29378.2221802971,-29544.9303038017,-29545.170428821,-29545.7605188519,-29378.2519815135,-28169.8065223428,-19977.6710694116,-24081.603318368,-28597.7097545228,0.7563466819,0.7086868583,-0.5192800933,-0.9652064364,-0.7945255575,-0.9853712805,0.0075781295,0.9586783161,-0.734655217,0.4665761847,-0.5499396081,0.75694171,0.414267629,0.934870674,0.763239272,0.6007598433,0.9688144006,0.7804211209,0.2411219279,2126.2249854436,-18704.2933353113,-0.2369405663,0.5127120347,-0.1709372871,-0.1854613349,-0.3409534435,0.3625564531,-0.2548686097,-0.6827038871,0.7373645029,-0.8780128446,0.2989862389,0.9028306693,-0.4791429639,-0.2652254237,0.8524330253,0.0243218733,-0.3959120867,0.7277289628,-0.3223374336,5933.9032551706,5615.3478542864,17093.6945286566,20444.0340476086,16402.435748264,11468.4935609528,7519.6850716997,7973.4803953562,13393.7858559652,13325.6428269862,12304.2070667198,11156.7263566634,8568.5365526719,6684.3424533874,6923.0995099763,9118.8276615219,3956.6228995274,5412.9968494808,0.392967747,-0.8722042045,0.3508669123,-0.6914125606,0.3899233464,-0.682560824,0.6925256406,-0.8662647428,0.5334437134,0.5789753863,22440.519434738,10262.3405665996,20616.775044855,21537.5921713305,20007.8336864897,17684.9524811309,15297.2102943624,13446.4593043316,12949.9878329445,12316.1882996637,12051.8744384462,11662.9541970254,11612.207598207,12219.8379166608,11770.8106409706,10002.1189030836,8622.7414055325,8308.5064342951,9126.2088509929,-1638.1105595137,0.4479556922,-0.3391447497,0.1241087787,-0.7460933725,0.0218105374,-0.9666706813,0.7890874491,6720.2746762584,21611.2607732073,21977.7214914666,17722.1747672515,19774.0665124081,20656.3133739878,17648.1518226933,16785.4869597444,16195.5095354874,15120.625399137,13821.9336152618,12707.6755343116,12860.429089307,12618.992148878,12398.1029229535,11827.5230947151,13553.1774203716,15008.3162011163,14875.2510651061,8587.7934360195,-12112.1105883514,0.9485620888,0.6361332375,0.5070943625,0.6804151029,0.6779177542,0.7117147622,-6583.8998827082,1329.5025183503,-4252.2380958458,2357.1087227928,-5950.5037938823,-3721.9635230773,1186.1342249347,104.2216655564,4378.5806345438,11495.3716777846,11497.7918315382,8179.7721128825,7867.5703012111,8131.8654540839,8464.253984076,9422.4403358685,12435.6611815686,18034.7998900597,14163.1097386032,2892.9117769178,1304.9859105601,-10729.1293344197,-10181.9525317861,-0.0338762748,-0.9714382649,0.4880182542,-0.1652480251,-20891.4934805893,-3630.7749755454,-2593.6684459894,-4839.3238792237,-7172.2647671726,-9140.6305265204,-8983.2295485759,-8606.3128054373,-11797.9734969015,-9832.4255952966,-4902.1577915289,-1074.148096248,1087.2489316266,2121.145668807,819.2522607987,-2976.072386972,-13073.7651956688,-13528.4978796333,-10393.9466721102,-4425.0396314695,-3772.9821836777,-3811.8892649906,-5665.5085518392,-9180.3452650475,-0.6508214982,-0.3117311943,-0.2245624111,-28695.3435283437,-24800.3923220491,-13004.5354382175,-11197.5142763613,-10170.8208837587,-8621.157369605,-12528.9125151328,-11278.7772414847,-12024.677289648,-11002.7455895273,-7133.5585407398,-5902.8941980075,-4659.318229385,-4413.6628025885,-8678.8203495872,-19638.7316573136,-22036.5531209941,-20143.2348721683,-16490.4852412972,-11755.5218153611,-5122.530896046,-3695.1219126468,-4301.595090686,-6321.0803629207,-10250.3814853608,4347.1303608708,-0.3381538788,-25294.6210161146,-21054.4395796985,-19990.8855656246,-17679.8108569768,-15010.5311884251,-15551.2486070245,-14486.8212099637,-12470.5451175275,-13381.222912746,-13689.3041843604,-10267.7636577946,-6331.7540339556,-4079.209133613,-2535.596037153,-5982.107933342,-19472.6011569092,-23230.0318277541,-21697.0511193606,-20504.1208107425,-17683.7268022632,-13063.160341431,-8341.9581436373,-3472.1383856385,-4958.7436185668,-10161.6366089742,-8897.1157644557,15791.1707362166,-25294.6200963716,-28963.8079631625,-26467.2488675879,-24284.3383947644,-18855.3787260231,-19283.6940164878,-18372.661511902,-13910.2617146179,-11676.9591382158,-12200.0705325334,-10411.1507869868,-3334.0246012412,-3563.9246269509,-2541.795993508,-4617.5023193068,-18565.1468127152,-24938.5172816304,-23135.5604447315,-20604.8163844946,-19756.5098033224,-21487.6191353668,-17308.1345257399,-12827.5114988135,-4516.5304276776,-6658.8136643028,-9721.2289791618,-9655.7575838537,-12510.4376976862,-25757.1926050226,-24933.0283790249,-27374.9925134082,-25672.0394467324,-21468.2393990584,-19952.493478527,-20051.5640027901,-11403.4718861389,-5563.4760639299,-9197.8909907681,-5602.3199246902,-1633.6513462441,1183.1468514801,600.5191170797,-6904.3150688414,-22767.141624638,-25315.0874985071,-18604.5675270225,-20007.1383728303,-21290.6500662584,-21220.2725835074,-21943.0383767192,-20042.3486534614,-16434.3169271214,-11139.6570020033,-10588.4932326066,-11455.1633324848,-12851.9707217322,-28797.9258050452,-28798.050767859,-26050.9841461524,-26102.4266559392,-21040.0866117933,-19655.2331518121,-17308.5899650478,-1391.4002841404,-1265.9622428801,-4494.4387008284,-3735.8419367712,609.1062635963,3048.6647528467,2918.5521634803,-11305.3667641841,-21863.0707911201,-18655.1215017326,-18895.591495292,-17682.7868287759,-21787.0298214492,-23135.5826359833,-24719.439580061,-25303.4536962641,-26814.0393581185,-17670.4121311987,-7838.5688567312,-5662.4773829183,-6840.1846916277,-0.0286661415,-28799.2650008692,-27316.7639677701,-21117.25143492,-17487.3819545355,-14256.8842146579,585.5058278633,2779.8713981028,3615.6874702096,3145.0670144567,1168.4419620406,9781.972265669,12369.046258166,4696.6817322995,-4631.1483764042,-9328.3490029428,-7172.2272432073,-7298.3224320642,-10713.5290921876,-13527.3406352337,-19988.3254573455,-10419.753851761,-9554.8974065115,-11889.2313429843,-24435.7257081301,-4545.7173351367,-4681.098990968,0.2294517161,-26388.849282561,-28405.7169488394,-26487.3841570552,-20200.3370006355,-9057.0039628656,-1037.7275244364,3038.4973456065,2886.8735765729,4422.9781126303,3267.8980265803,8081.9545860674,13952.1688857412,15905.5718287365,14787.4598316556,-3868.0181970892,-3354.7452166353,-753.8544275512,707.8644545364,-25.8393258461,7241.2747980596,4409.030286231,2706.9215466696,-952.414198958,-3438.8865774308,-1207.4260436197,-1245.8106828481,-11362.0650210567,-0.4134980701,-0.1765935253,-2081.5477525951,-27995.4067665818,-9310.2502712992,-9439.3681143667,-2830.5535436473,3032.4330801965,3985.5239877527,4393.3209757911,6739.3247036646,12624.0235055491,17515.5403895471,22769.4379380128,3784.3404430197,2496.5632257194,10186.7360943204,14090.0827759958,12762.8994566393,15758.7360691009,12375.1839074043,3656.5467650746,7214.0731789627,2635.3290576834,432.7564724412,2411.6316761316,7062.8831775113,-11024.0234731709,-9771.517328191,-0.2101991778,-27788.5733890822,-22783.2284996188,-1821.0204842767,-5333.2233763895,-5873.6604362334,-1463.7922994235,645.1480470389,5747.8393512528,11654.0423356149,18210.6642032846,21833.5901526752,9814.815824684,3637.6497396351,10711.0248450094,8249.1640800359,16915.2184148585,13840.0930342335,19518.3620777912,17323.7139312996,8773.8180975096,6745.561856246,5592.0222993352,3598.4752498401,3630.3523684978,9675.4259633499,-12534.5007860286,0.5052128594,-0.1527884413,1943.1466380547,-23257.5962507975,-393.8593322659,-8259.8792295787,-18156.9077051037,-13388.3903214319,-2357.8875121039,5643.9351931514,14210.7808271489,25520.2548167345,19750.9226874557,4991.7873108724,9425.7506000696,15173.7266964034,16207.4606781766,11226.4059728923,5039.8823062246,6063.3912924138,11373.2101304605,8746.0856026714,8416.0253021094,6608.0200844908,5311.6735163135,6607.3053576531,1813.739590423,-9330.5439508064,-9193.7583109673,-0.0312098891,0.8505558139,9343.278546795,-1034.6491592669,-14101.4619068054,-22484.3461848612,-18802.9612258846,-6490.5276141924,5403.0406618324,15556.4124398127,25197.2695616491,19767.1026697699,13243.7637661266,14175.1909222921,13558.7670975875,3314.606622162,1101.0888158219,523.6278549397,-4211.0646397845,6930.3371076323,8261.2844187472,5962.794752583,5220.6015994972,6310.8957150313,-2348.8376173275,-3379.8793036021,-10652.1497854847,-11085.1655602035,0.0672705417,0.0519666374,1576.2072260972,-9933.9950099616,-21547.2604010646,-23938.2157769495,-22510.9455338767,-10669.0023086591,3347.0986396404,11970.8820995239,23237.0078776559,24372.0689550407,21039.9229423116,15209.5312569398,5598.6486158967,362.5545987333,-749.5735352629,-1073.220501126,5407.8988705698,8002.1547456597,5915.4611081242,5128.9282533397,6068.7069257154,2352.1884191177,-6522.9898293934,-9426.0040299522,-12252.4799402434,-0.6301681937,0.9886954806,-14609.3092279154,2692.4121778924,-10000.7604798669,-22451.9389690023,-26568.4131438359,-25392.5574666562,-15297.6118102671,5752.2173160985,9596.112568285,18269.5334369895,22647.7339638173,21977.8878237314,18703.2453564306,6104.1496381904,2517.0503258298,1965.7331067403,3621.2442759939,8970.930257677,7006.8590379063,6794.9577622737,5544.2727284333,2555.9169234103,-7152.5445258916,-8695.4994044004,-11381.1983947874,-9836.9878779362,-0.8889582882,0.0571078724,-14610.0750581505,-4177.1112975216,-7943.0030557099,-21730.7956166684,-26287.0773320911,-25401.9092379382,-20025.6990839323,2511.6542744954,6000.5457404801,10297.0796474431,15687.6076649734,17568.4541195693,14687.2469075069,9473.4196910428,9371.1014163868,4750.663938866,6779.6418121244,9030.0245780001,8651.8779424141,4229.7575937569,1803.4104205299,-11440.1994013826,-13099.7396815667,-10723.0399026859,-14377.7310414095,-12656.3332270998,0.2377780805,0.7949025209,-14748.0066182186,-13933.5503904369,-10336.4086571087,-21731.5606607405,-24446.5406664098,-25536.9261445582,-23794.2588961505,-17127.0198460129,3218.9559852488,5681.6922461565,8667.9273278602,10062.2162119057,9805.3911235064,6712.1500783733,5348.5139633461,5847.1049127933,7066.2293803238,6786.1180977802,2346.7494743063,-6480.1120222457,-14762.3168834274,-12671.6727747261,-10050.365918647,-10232.4265637458,-12143.4320069966,-6687.7805552212,-0.9281701679,0.0506884434,-108.175691873,-7538.79982029,-6060.9345812302,-21454.4954143461,-24002.8232688975,-25310.4878242262,-25372.2545718911,-25786.0668549004,-21650.5675153324,-12083.6578945758,4224.7511113497,6729.2925256443,8248.1340177831,7612.6489574777,7028.1453192487,-298.3123131204,-5287.5503631556,-10352.3470975133,-15635.6072800188,-8599.5436264109,-10120.3662617668,-9470.4054578191,-8445.6177231701,-9600.7522710061,-13016.2430796913,-19747.851586904,0.6738612472,-0.6616545118,0.5196705411,-5140.0347812512,-7973.1021044725,-13841.1381522074,-21554.4172599695,-24382.6858263451,-24880.1245561482,-24649.2311465781,-24928.1605986204,-24275.4897801168,-23694.113487079,-21971.2699416284,-19243.5042725593,-17868.6919869112,-17924.5280548017,-19119.5060992689,-17419.1747341194,-10471.7330201475,-8558.463959251,-7017.4308391861,-7937.5403292033,-8271.4430562676,-7458.9211002263,-7896.8840786036,-9201.3556241171,352.1854799603,-0.0862642002,-0.7193860306,0.8375253547,18328.1819396017,-5281.2010920134,-12229.0959594794,-18272.6210511544,-22381.993974457,-23817.1334378804,-23862.7929596111,-22774.2125201874,-21647.6785898153,-22201.0714080245,-21826.964031427,-21472.5748662179,-19484.9662230515,-17574.7534554107,-13893.4646846707,-8876.9740762271,-8965.0559502884,-4354.1137882326,-2856.5048178397,-3632.8671851155,-5749.4288515068,-5383.7776355095,-8722.9967978592,-10051.6983319564,-0.6437422123,-0.7341259618,-0.5481590344,-0.2470196118,20262.4838450206,2807.5489335898,-18014.1863787802,-19387.6563712378,-19993.9283992497,-21045.1665297061,-19179.3917424762,-19388.7287147477,-18847.4809828628,-18568.284709521,-19612.3854441844,-20171.5113318957,-16948.824878322,-13720.9896061813,-9372.1773999967,-7674.0198345785,-6581.024482394,-5153.803742953,-6673.1201559192,-6103.5539222278,-7858.21330165,-10223.0587490902,-6307.5981020498,9986.8549323366,-0.6062229062,-0.5942586903,-0.5456326501,-0.512563757,-0.6217675481,-451.2223762553,6406.6812114354,-18440.5947546001,-22294.2171900277,-22673.1076114073,-23726.5205250021,-23467.3027531547,-20258.1431028979,-22021.4237961627,-22845.1726510116,-22537.4289407854,-22285.1034721125,-22278.693449312,-22275.1208827338,-20276.2178988537,-14812.9309502838,-11479.2350052346,-11279.0192363346,-11080.7927324324,-3056.0951340755,-7804.9380316826,3625.5377021097,0.2238341301,-0.7698163595,0.1070621677,-0.9741655873,-0.1826088118,-0.825660959,-0.3223323049,-14015.9310668503,-17382.2039841301,-20990.8879574592,-26493.361639788,-26566.3929959457,-26368.7267812191,-26579.3078427314,-26648.1592030111,-26362.1852973331,-26770.0150624005,-26079.8279180812,-26596.9498250724,-26080.5412082964,-24545.367438384,-23314.7611876607,-24573.6257365494,-9333.3284908507,-11032.0545438761,-10795.6209601391,0.8714054705,-0.5641876187,-0.3304441504,0.4128183756,0.755195005,0.6566161735,0.1824104556,-0.4394302688,0.8234817543,0.2567681679,-26774.8024553636,-14614.5529226286,-23759.6299104524,-21705.9878740392,-23648.5540058723,-28073.5270929596,-24550.8837191001,-24823.6277401845,-25995.4549843001,-27402.035663451,-28238.1645881152,-28239.4941921625,-28251.4455472366,-26671.5074923081,-27870.152843121,14033.7380033914,-15609.8093876672,1360.0516792405,0.9467314483,0.2239036388,-0.6104368606,0.5356651875,0.1958422524,0.2186597279,0.3456461972,-0.131597596,-0.8355511326,-0.2019009767,0.8882086773,-0.6764746756,0.2378677239,0.6361417218,-0.8524007986,-0.4010239793,0.9836386544,0.6154889779,0.1791159785,4908.4836828184,-22026.9132112743,0.7810995946,-0.9236772925,-0.3496956699,0.7129534416,-0.7971604796,-0.5697544351,-0.5290626681,0.7235213186,0.6400838218,-0.199362347,-0.819433018,0.1399307741,0.6375178077,0.6785670958,0.1868172764,-0.0050274486,-0.7542530739,0.4436041441,-0.9666823166,9473.3688898912,9052.7518949951,9161.3073010679,10483.7355380628,11257.0994825656,9869.525136368,9566.0413673552,10861.1921578893,12513.0191848683,10564.4514687717,11987.639989279,11475.164505349,11603.0955927379,10470.8180136649,10557.0817817786,10479.631161897,9786.5908202135,8788.7053739226,0.0353736468,-0.654605962,-0.9442602438,0.5993211564,-0.3448970977,-0.3083351114,-0.3188689543,0.1220648685,0.2487865999,0.7250582001,10645.4244847131,10785.8618076609,8729.8987526842,5605.4300602236,10184.2154888166,11601.160376578,11961.6304142994,12791.0740253565,12656.6465560763,12267.6383613851,12602.5552764253,13032.0174332727,13446.0794384084,14340.8176032426,13475.5188733205,12898.020132638,12144.9637973671,12993.871027943,11063.5712359803,-4519.8348478996,0.2069567254,0.8797610965,0.4654923497,0.0808737325,0.2250664117,0.518372452,-0.2545647068,6753.8403584951,9921.3265278943,7824.8836736707,5036.387325847,6071.7002660866,8483.2586410122,9464.4200860348,9838.1053313447,11010.1145618724,13539.6531794391,14526.9262994494,14511.5040229921,14095.0295784641,14895.4024601204,15066.2165805377,14499.0125291922,12906.0289707389,13057.0048273498,14417.2376914133,12916.453695372,-26540.5622543217,-0.6759233747,0.3532208081,-0.6544049881,-0.6651106493,-0.0658016808,-0.5620166952,-4933.6638743704,-4501.9742543388,-8655.6056501732,1065.6116303459,-5292.6617813386,-2489.7852861407,6824.6008861441,5761.7476764915,9373.2391297601,14748.2817095076,16823.6066456029,17600.8974836624,18260.8867004963,13694.9510307137,9394.611520441,6451.1652505268,8118.3338547656,6596.9600806564,-5456.7978559255,-15762.2530296592,-13603.7449824158,-18404.1844446019,-11368.779206036,0.3878806738,-0.7029040214,-0.2973680707,-0.9526072055,-9054.5364896753,-1924.3013088192,-2460.0272443471,-2436.2379161818,-3521.339667269,1268.5638565613,3857.6324826584,11154.1111146011,5691.3790010029,10233.5508068891,12725.5545285965,16398.7263523171,16865.1640815894,17840.8545034681,16481.0927152964,14241.2562097423,-1382.3137000697,-12537.8815689976,-12532.3073584016,-11766.9667768783,-12234.691572056,-13547.2640633771,-13864.4549869808,-21027.1286040429,0.8000755397,0.8519224817,-0.1545567842,-14707.0494908243,-9577.2331510448,-2397.4202274476,-1828.3283962233,-1927.6400251327,868.7254631976,6455.2390904312,5218.0815863633,5510.6137920344,9218.5291223042,15302.6612546893,14364.0272948479,14736.8312134022,14500.6573125198,9522.587639644,3694.6278355299,-3417.8187460747,-8246.7123207509,-8913.3011005718,-6822.18604794,-7213.6750405421,-8874.7768098695,-10958.5494857599,-16067.9022183235,-16870.4472716215,4831.1761191973,-0.3162587563,-26259.841173318,-26101.5432493394,-17912.5669099036,-4663.2353501982,-4056.5440787157,-3407.5858386546,2129.5442046657,3787.0890507015,7288.9261243555,6530.572034406,14127.7934911043,13756.4596897192,11981.0962430574,9951.3298888471,8889.766028573,-1013.7712511353,-5963.9772969612,-5111.939949849,-4622.0138045429,-7009.5437870977,-6872.6341849161,-6782.66685144,-8725.6310123823,-11856.9070736839,-19358.1639368495,-20373.9531591802,-4747.8608275392,-26258.2766295571,-28963.8602550353,-26359.1048104468,-24118.9692878743,-13322.249945384,-7009.8666701488,-6205.0534033224,-2749.095199171,2721.4157504245,1776.7831801969,5013.2212584733,9718.7330261528,8786.2575265393,6262.1594001203,13.9501543745,-16374.1796921499,-18695.9673055773,-17517.5045202564,-7219.3480497465,-6623.4066686055,-6893.4180978964,-5725.5398499435,-8235.8484218855,-8301.8656961142,-12400.3751659619,-18832.6855806822,-21453.0477955051,-22534.5494982715,-27310.1053734732,-28017.1382346011,-25319.1041065743,-24456.5856416158,