encog,BasicNetwork,java,3.3.0,1,1464922815710
[BASIC]
[BASIC:PARAMS]
[BASIC:NETWORK]
beginTraining=0
connectionLimit=0
contextTargetOffset=0,0,0,0
contextTargetSize=0,0,0,0
endTraining=3
hasContext=f
inputCount=784
layerCounts=10,11,11,785
layerFeedCounts=10,10,10,784
layerContextCount=0,0,0,0
layerIndex=0,10,21,32
output=0,0,0,0,0,0,0,0,0,0,0,0,0,0,0,0,0,0,0,0,1,0,0,0,0,0,0,0,0,0,0,1,0,0,0,0,0,0,0,0,0,0,0,0,0,0,0,0,0,0,0,0,0,0,0,0,0,0,0,0,0,0,0,0,0,0,0,0,0,0,0,0,0,0,0,0,0,0,0,0,0,0,0,0,0,0,0,0,0,0,0,0,0,0,0,0,0,0,0,0,0,0,0,0,0,0,0,0,0,0,0,0,0,0,0,0,0,0,0,0,0,0,0,0,0,0,0,0,0,0,0,0,0,0,0,0,0,0,0,0,0,0,0,0,0,0,0,0,0,0,0,0,0,0,0,0,0,0,0,0,0,0,0,0,0,0,0,0,0,0,0,0,0,0,0,0,0,0,0,0,0,0,0,0,0,0,0,0,0,0,0,0,0,0,0,0,0,0,0,0,0,0,0,0,0,0,0,0,0,0,0,0,0,0,0,0,0,0,0,0,0,0,0,0,0,0,0,0,0,0,0,0,0,0,0,0,0,0,0,0,0,0,0,0,0,0,0,0,0,0,0,0,0,0,0,0,0,0,0,0,0,0,0,0,0,0,0,0,0,0,0,0,0,0,0,0,0,0,0,0,0,0,0,0,0,0,0,0,0,0,0,0,0,0,0,0,0,0,0,0,0,0,0,0,0,0,0,0,0,0,0,0,0,0,0,0,0,0,0,0,0,0,0,0,0,0,0,0,0,0,0,0,0,0,0,0,0,0,0,0,0,0,0,0,0,0,0,0,0,0,0,0,0,0,0,0,0,0,0,0,0,0,0,0,0,0,0,0,0,0,0,0,0,0,0,0,0,0,0,0,0,0,0,0,0,0,0,0,0,0,0,0,0,0,0,0,0,0,0,0,0,0,0,0,0,0,0,0,0,0,0,0,0,0,0,0,0,0,0,0,0,0,0,0,0,0,0,0,0,0,0,0,0,0,0,0,0,0,0,0,0,0,0,0,0,0,0,0,0,0,0,0,0,0,0,0,0,0,0,0,0,0,0,0,0,0,0,0,0,0,0,0,0,0,0,0,0,0,0,0,0,0,0,0,0,0,0,0,0,0,0,0,0,0,0,0,0,0,0,0,0,0,0,0,0,0,0,0,0,0,0,0,0,0,0,0,0,0,0,0,0,0,0,0,0,0,0,0,0,0,0,0,0,0,0,0,0,0,0,0,0,0,0,0,0,0,0,0,0,0,0,0,0,0,0,0,0,0,0,0,0,0,0,0,0,0,0,0,0,0,0,0,0,0,0,0,0,0,0,0,0,0,0,0,0,0,0,0,0,0,0,0,0,0,0,0,0,0,0,0,0,0,0,0,0,0,0,0,0,0,0,0,0,0,0,0,0,0,0,0,0,0,0,0,0,0,0,0,0,0,0,0,0,0,0,0,0,0,0,0,0,0,0,0,0,0,0,0,0,0,0,0,0,0,0,0,0,0,0,0,0,0,0,0,0,0,0,0,0,0,0,0,0,0,0,0,0,0,0,0,0,0,0,0,0,0,0,0,0,0,0,0,0,0,0,0,0,0,0,0,0,0,0,0,0,0,0,0,0,0,0,0,0,0,0,0,0,0,0,0,0,0,0,0,0,0,0,0,0,0,0,0,0,0,0,0,0,0,0,0,0,0,0,0,0,0,0,0,0,0,0,0,0,0,0,0,0,0,0,0,0,0,0,0,0,0,0,0,0,0,0,0,0,0,0,0,0,0,0,0,0,0,0,0,0,0,0,0,0,0,0,0,0,0,0,0,0,0,0,0,0,0,0,0,0,0,0,0,0,0,0,0,0,0,0,0,1
outputCount=10
weightIndex=0,110,220,8070
weights=##0
##double#8070
   -5.3370637941,-1.3918556335,-0.2178074618,1.8225150001,1.1461284551,-6.0340744039,-1.6104197773,6.4068208685,-9.6088843745,-2.7768434385,0.0042161806,0.2535343931,-0.9857374453,0.4617606035,1.7114787193,-6.3934673813,2.8533963365,-7.1053336831,-14.2677691997,-3.4114782998,1.2744417932,0.0654507895,-5.1289059149,0.7293398968,-0.8905951461,-2.6435938366,3.5141702532,1.5253863988,-1.7104501948,-5.7365000376,-2.0280436851,0.3115391612,-1.3587498425,-1.7437783276,0.7004725907,-0.6040956559,0.9630501839,-0.9746959746,-5.3565546089,0.7161814707,-4.9396488414,3.3617087605,0.9425142037,-1.3318023378,1.0087911572,-0.000385403,-1.3555091758,-4.8537525568,-0.5699116797,-0.0155784507,3.8588968376,-0.9373312293,-2.3121084461,-0.9283797999,-0.3447878438,-2.1075389747,-2.1666741679,-1.2496696158,0.4118786353,1.0929154706,-0.5108573845,0.494529035,3.8325216227,1.0212788714,-1.0340380391,-0.844871702,0.0414040665,-0.3030298505,-28.1367563401,1.2331025286,-1.1874786617,0.7145774933,-4.5723958224,7.1484210422,-6.8696066816,0.1021200512,-0.1253058473,4.33949366,0.0783761592,1.9794850332,-0.4367030561,1.1022948161,-5.2888293439,-6.4507283391,-4.2741230037,0.6423565054,-0.6989494102,-2.8691395074,-1.0764161784,-1.5565391045,-1.3791329124,-0.448498907,0.2337650353,-0.0172732704,-3.2862185143,5.6210531656,0.273284978,-0.5391816901,0.1971337651,1.1790755383,-0.5154011957,-0.2881073802,-1.7130258954,-0.538059757,-1.4731157634,5.0025280539,-2.5130695916,-1.343061811,-2.5500886588,-1.0414014048,-1.7126035011,1.2046876085,22764.376745604,0.124189626,2.0017177251,-0.0760917028,-4.852274973,-0.0233220185,0.5721713632,-15638.842726977,2.3926669342,12246.8326837195,8517.6619369056,1540.6194997385,8145.7149431439,1470.2432063516,13986.343715114,1.1903863418,23596.8137246598,-0.4841837388,-1472.1095519751,-1.3189566237,239.7796815491,89.8907594615,15465.6509620425,1.578370771,-1.0080005389,245.9035996029,-0.4730679791,-576.2600618021,0.2680670059,577.3801637898,-0.7929292561,-0.8772922511,-1.5668725379,4.0618419122,-0.283025533,-0.1061893891,-1.6456575026,5128.5253941997,-3806.8804823868,-5.4455742416,3821.1916333178,-0.0780205103,-0.6651409352,-1.1690260176,-2.6048042228,5.5383807781,15060.8475692594,7.2680897295,-3.7532177067,3.2065503785,-4.4409341833,-7.6997035835,-4.0257996114,-0.3298621331,0.396258823,-0.7516231648,-0.2472522598,-1.1457274935,0.0524336443,-0.3760328522,0.6975006522,3.6315790218,-1.0873328426,0.0556008843,-0.2032202111,0.0232935918,0.7877035302,-0.0814523802,-1.3321314548,-0.7773906994,-1.878725396,-0.2027802976,-1.4068789782,0.5201856421,1.4712610485,-28690.2576915391,-22126.7463175863,-19033.1108994762,-22403.4981364962,-0.6741388509,-26826.9622281827,-0.1899067629,-1.0793369309,-0.0685681003,-19662.3086954839,-0.4496982251,0.1492893063,-0.5939226895,-2.938875525,-0.1236511924,-5601.5987776145,1.8285066568,-0.0645119774,2.0143208005,-2.4583903201,0.4115687444,0.1992638098,36.7632209123,160.1910667569,-704.602837596,490.0982186113,-584.5773881921,16.1865326997,-41.6890807046,22564.080745837,574.9200939497,10404.4138480645,0.0323932274,0.6839715399,0.8869044193,0.2021272433,0.2319394583,0.9837636456,0.4133476073,-0.0731864558,-0.6757774992,-0.6379175509,-0.6597589008,0.4124792962,-0.0444348723,0.2152536266,-10852.6401958478,32720.2517791354,0.0078004865,-0.0304857341,-0.2660173696,0.8155354557,-0.974416743,0.3718357748,-0.2133929931,0.565946034,0.0577335545,-0.8438205418,0.8784856278,0.8284324649,0.8731973262,-0.8129845017,-0.9599981473,-0.5195169787,0.8628350346,-0.721419057,-0.8340597332,-34925.3687863633,-35091.5420319411,-35102.7653339433,-35102.8687740148,-34054.8459456329,-34319.141126693,-34790.0287126817,-34789.5132650623,-35183.7873964279,-35194.9551486274,-30831.0967720048,-33728.1653473194,-32786.1400575502,-31582.6057420838,-32875.4220981911,-32334.8489672931,-31818.1872969707,-32298.312866861,-0.2345310538,0.9083699091,-0.8849848159,-0.8336270422,0.2995004627,0.3766655684,-0.7187771982,-0.1647175152,0.4866360263,0.8437409939,-33436.7205506136,-34374.4428468722,-34475.4104866618,-34099.1375929998,-31987.2304957264,-31985.5230871624,-32567.2061175811,-33728.6961888483,-34020.4974100698,-34020.9765709314,-33728.0343460113,-33728.4652761206,-33196.6473876506,-33462.094969669,-33567.7545080934,-33100.8810230799,-33567.1421878921,-33558.5382283385,-29998.4897835994,6066.468769614,0.1657757066,0.0153782081,-0.2880401557,-0.2065248452,0.5523357432,0.4712826118,-0.0420056347,29136.0646119007,-33034.0182716101,-27705.4682456525,-18869.7531250156,-17887.0455234332,-19602.5862132174,-24931.9376771249,-28631.5961877644,-32352.9918604478,-32652.0484710921,-32594.0024415676,-32131.531054457,-31126.2977424532,-32397.6455207183,-32273.5874719262,-33558.480341992,-33559.7572470563,-35084.6512297974,-34124.5402105463,-34143.7849849065,27948.8376791169,-0.5588253765,0.2863469333,0.6429232483,0.1791045861,-0.3796918523,-0.396757706,19916.6303430315,30411.5312014762,28818.0047589052,30308.3743689593,30135.2297451546,29934.7409562197,29393.0776621919,29410.8830109544,29970.4277498403,22046.2386751267,8328.2900798813,-28181.13028531,-29321.6030742508,-30104.516912382,-29237.1813919431,-29239.3037239403,-25169.0961479554,-22288.6253157665,-18794.9279137301,-16301.2487672825,-16392.9582881187,-6454.835415427,-18611.9805781233,-0.3855310861,-0.4098212295,-0.2918413863,0.2418363625,30187.5340156798,30425.3194189811,30298.3206386209,30253.0946548622,30352.2571108371,29665.8936859565,30018.1988081176,28487.0874266279,29238.7334412263,28822.8159336975,14096.6479296428,-21533.2824566419,-29851.0744176583,-30343.8097753088,-30141.2738749934,-28228.0085933198,-26466.2898138252,-19789.1850977443,-15881.2560664674,-464.1042989922,5842.0694940452,-234.9945560215,-19330.5728892349,-29138.3892395003,-0.5923121821,-0.1300991484,0.0558843219,-20088.4313076738,24748.1591765406,29232.1198737627,29785.2007544224,29141.4891108873,29825.1917782367,29390.9454830751,28726.5655493556,26778.1922545353,18703.7284668827,235.9744007275,-17070.5573527282,-27060.6252645269,-28091.0665825379,-27408.1530877278,-27690.2982883396,-21263.0895515282,-22176.7008961335,-20511.9916585731,-15450.126779124,-19726.0679218495,-17340.8062294479,-11695.0057648907,-22478.7052049251,-10814.9618946617,-32069.6645116366,0.7654107437,24316.2462033209,31733.567680597,23469.7993772514,29436.0844478589,29238.1313231136,28786.6941319119,28055.6557946152,26524.4877619773,21613.46504563,16416.7172119719,-10508.3822508252,-23455.3732059169,-16141.4116800826,-17127.319179399,-13884.3524035335,21349.7805963553,25107.2011883926,24522.6904071198,9546.2059582815,-8038.6343461124,-24840.9672182531,-25663.8673412042,-25405.1409000905,-24033.7476275258,-14905.4182225808,-26120.2152854723,-28337.7083845366,24316.6028125046,28006.2124204799,27145.2777974264,24173.7439583695,24767.9833947005,27591.6688773141,26977.3817341638,24025.2958301236,20400.4649137504,9398.0979438341,-20191.0206700847,-28325.2300321171,-27861.5079671034,-16233.7590504727,3856.0813571126,17592.2925931053,25971.5143712882,29424.9056237904,31627.1806404325,26124.3555886327,-8514.4435428262,-27058.3081999393,-28811.8769571065,-30314.1356211146,-26357.5869366721,-25201.0652865607,-29619.4347948142,-30489.7363100886,19625.9570556869,27380.1645788963,26979.8126970391,26128.6284741019,25808.475231144,26457.3235895089,24058.2712789046,17223.0957185713,-26151.2682410945,-29970.2654966695,-29750.2454137605,-30618.8169296165,-30776.0748913206,-27636.8867236259,9180.4240250596,23799.476378572,29417.4647221198,31060.0707749944,32344.8222924475,27265.4004893886,-17920.1610745368,-27720.9436130092,-28093.8186466857,-29668.6199599215,-30717.9557982689,-29515.7422207022,-31001.4456585356,-5436.5471976218,24998.2050352942,26704.8396947933,26543.1826797245,25915.6331197927,26343.109561092,26814.2504134369,12605.3682628814,-27799.3010959508,-30285.3683984792,-30463.0418625666,-31163.3334345321,-31173.3863929553,-30121.8514605891,-30132.3433681611,21327.3746750288,28600.2102122248,30985.7092721913,30547.6732338522,30393.6880485137,16406.3545040855,-19921.0677904274,-28042.4429899751,-29929.2632566247,-28790.9798788912,-28986.6611450972,-22264.8326003755,-24676.2018331745,-9730.300415338,0.6102685295,25216.0640953435,26103.5385799725,26268.5732135467,26494.755676947,14250.2087532459,-11082.8357953323,-30755.6762441855,-30296.3481342159,-30447.4516965396,-31037.7117146559,-30853.3271729741,-30937.5051602041,-31285.4425197825,27066.365449811,31900.3973344882,29680.8733860112,27341.3317568248,27859.8145423172,-4857.2535337159,-27119.0599038806,-29358.951678425,-29188.1672660918,-29816.309260262,-27486.0824804566,-27899.0738397504,-26191.973559113,0.0975781762,23459.0217213739,24696.4799638126,25901.4976733249,25264.4773925419,26129.5692236939,7326.3182609699,-29232.1289165903,-29179.4571566505,-28487.1065115974,-28655.8263099314,-31217.7872709056,-31219.2807499204,-33472.8260135918,-17657.0255382225,28675.4307421529,30132.3163701221,21791.6296561188,22577.9227947281,13364.3814285904,-7826.4788092002,-29321.0155995837,-29553.6072156712,-31016.4375723953,-31885.5755291525,-31297.5162740473,-27788.4964675717,-9332.834523516,-0.0087027268,0.2049111665,14015.3430315691,25843.8903719535,26250.3327587768,25383.069673121,-10359.597798556,-27658.8944775362,-27510.0109771648,-27625.2506205319,-26815.4926316308,-25299.034526171,-32187.0822292688,-31902.6048709715,-4906.2388384933,26483.5496067557,3781.0090030758,-6551.1212070365,14399.5889953768,23264.0904576089,-11273.3495272702,-28434.7608647664,-30888.5959344785,-31872.5120641079,-31807.927695349,-31264.993707343,-26799.5503372747,32357.7017642035,32956.4629960334,0.9292348182,24869.7852122092,22313.0777978014,28573.2316839656,20060.4567270563,-27338.5213327782,-25564.4594108921,-25942.2782097295,-25306.7842730132,-24257.4116210767,-26106.720935656,-26015.7018248994,-25651.1041381869,-1425.635019347,352.6471730267,-10798.6106198458,-9330.4079250249,25888.129080542,27906.7199595079,359.5184899051,-28774.6474198011,-30777.9063524799,-31931.8852459583,-31775.1817848463,-31477.174686149,-25901.3258605334,33064.5794791813,0.1271677886,-0.909406067,13952.9919601258,23547.122849418,30935.6587267624,14698.6657014636,-25042.2614858024,-26153.2822568828,-26164.5270654954,-22769.1328517915,-22558.2842845489,-21000.7678862049,-24222.672634782,-10153.6574069558,-3466.0835214139,-180.259247923,-4298.9284250459,24960.7979012896,30221.6730478932,28223.9789033235,-6721.7440260022,-28285.5215922146,-30368.7392305831,-31356.9167445368,-31326.7035388022,-29204.3972085393,29032.4225090597,33619.578012548,28540.4437700584,-0.4216261159,-0.910686629,26079.415978561,32768.742657788,27344.4683420695,-24869.4969184764,-24624.3610317105,-27078.0108096221,-26664.8147627279,-24820.529833861,-24955.461290458,-23280.6046083261,-13229.6108603559,-3649.6440819784,25423.0184537691,27377.7165915674,31255.8302507075,30761.5200890717,28214.3992203287,-23281.2672967075,-27955.3673970448,-29634.3213998331,-31246.1250168633,-29862.9858088474,-27479.5297293942,30574.9893451386,33283.2704051665,33171.3764200086,0.1108258288,-0.6619006706,29014.8302645005,31221.234368747,27975.015518209,3457.6567626886,-16335.2762079289,-24818.4875953945,-25238.3892678864,-27053.0991331052,-29952.5395056578,-29083.5386311184,-20308.7371440328,7482.1354271884,28111.3677410735,31855.7366692962,31174.0304092347,30627.2611354025,-21673.6595923881,-27375.8090898956,-29103.5862601148,-31501.936051885,-32175.9157831088,-29887.7932417276,30325.4712751523,30925.0040638279,32764.2103391695,-0.2270952498,0.8429842268,10734.7572315594,28424.7898032825,31153.7575208743,29736.4266134585,23399.304025938,5453.2135024152,-26405.6599003572,-29622.3665239626,-31543.7363562387,-31815.1223297297,-29961.7206703544,-21926.9809603853,23656.4840595751,29251.5860947561,26541.1740647092,18851.8172457672,-26144.2254302754,-28301.5474453118,-30558.7899603959,-31326.5649943669,-30577.4131913833,-11446.4784304795,29675.082334137,30650.6846092972,31221.9363455143,32663.8449397637,-0.4555674008,-0.7661503796,10735.0653435336,27685.8512580163,30734.0020808549,30212.0440066682,29353.2354708359,19092.438941132,-2466.9550201451,-30553.1646543357,-31041.8540802439,-31929.6121615795,-29961.5088443678,-27899.3078093829,10384.4031033516,14405.3691535819,-17712.6314221879,-28254.9187634817,-29604.4061352099,-30671.8090296074,-29356.4564558592,-29373.5777975937,5116.5274260423,30104.0251804686,30502.8779205958,31244.6706002901,32264.4139934526,32363.6935045508,0.2856889762,0.6782883143,11680.9916240384,29163.1584921038,29992.1402341749,31241.2771127329,30570.0931590029,26922.8811584841,14306.1954655349,-28817.4439049499,-30351.5436762598,-30258.4651768418,-29985.1660209861,-29188.1016892036,-27638.1591507154,-27639.2582480603,-28255.8179691904,-29498.6435366542,-29514.8512546908,-28357.3777379058,-27002.3479038772,22470.4783442079,30218.1584931842,30502.5425685404,30932.6247321863,31726.0645242933,31642.0188685176,30232.5095461352,-0.0484602679,0.588887146,29927.9386921377,29379.7026876867,30012.7966073385,30537.8020503489,30555.6331630055,28042.6766827206,19826.4886325568,15254.3012830404,-17125.3907506109,-29453.5980909036,-28643.7274312652,-29243.9155738359,-29224.9485418091,-28257.0304321564,-28257.9826126122,-27641.8143597412,-26231.4281961334,-21626.2585988965,28717.4037306285,30196.336577378,30602.6446254917,30093.593134313,30832.1454943523,31434.0784778633,32136.0428999101,26092.281640304,0.629962654,0.4397903643,-0.2788699313,28899.0714644072,29673.1398056963,29722.2903536926,30147.8948858867,26269.6099911919,21527.3544910845,15775.0600941841,12954.772610029,-3528.2953786856,-23981.4659470056,-27633.0479465077,-27342.3817578468,-27944.6275106915,-21137.0118268779,2497.720823598,14732.4605868826,14710.070084856,24401.7134546943,31037.1976631804,30868.716988437,30647.250930495,31686.1910626677,32048.288430248,30979.2484671756,31379.1514082907,0.1500308244,-0.5197628351,0.5781430831,22665.4385937935,29391.8273001062,29084.6341558443,28013.9311916475,26607.1803327248,22516.420691805,17822.7320820882,4581.9035517762,-11245.9960047309,-21565.501105049,-29950.802047362,-29147.3454801468,-27980.7221956155,-20712.6858602028,-10439.8316004965,-10611.9760243231,-2436.8506656716,18733.8704165676,32071.728519171,32037.3286811178,32279.4847308537,32398.4853184387,32761.8446733266,31820.9230837739,0.21619244,0.7054100044,0.0203626778,0.3643313291,11339.7396682573,26624.4774474912,24637.1986396743,30934.8516635333,27732.1225872209,25766.8138561751,24162.4501033989,21059.2522845838,15471.7311372498,-15661.5151973615,-29073.8120974961,-29609.3330390709,-25930.8138426006,-18298.8949114949,-12503.3654301937,2846.2176151957,8522.7627877211,15973.7480436504,19273.1661853943,28954.3109501885,31738.4573044724,23924.0082283059,29637.9555700131,28994.750403591,0.0025498503,0.1569362043,0.6753623384,-0.7329656822,0.6267422122,11643.1263004886,23042.3441122136,31011.9505374612,26856.7427408234,27497.1694493329,28658.1566510573,29314.7924961919,29686.5648409821,28653.7737390963,29918.3771068527,30813.6813824652,31729.5827934948,28285.2633171473,30299.8538345349,22941.8576175244,18226.8775450184,15691.551795167,19627.3884887894,18640.0112686602,18136.0597192779,16751.6068751254,-5984.1761507367,-0.298988223,0.9419637521,-0.3608718419,0.8595435487,0.3955693361,0.8213775418,0.378837874,30408.7870171028,27408.718623215,25267.883681766,24529.0233064765,24838.9257354908,25170.9235475111,24991.1045113923,25268.4398746124,25394.4526917991,25635.6299994563,26511.2564467102,26506.9918539396,26924.2707712068,22016.901310406,20872.5982978075,19619.4458086951,15264.8938660946,24628.4654640108,25889.8851983355,-0.2322361884,-0.6587170832,0.9056352291,0.8355277678,-0.6406215472,-0.1198631495,-0.2605981038,0.5718249049,-0.5278677159,-0.2698136656,24827.2748808688,25481.3377706276,25543.803739825,26094.3830551687,26323.8517428424,25456.1456648151,26313.1505206897,26317.3024286722,26489.2663870883,26480.897172789,26488.2166867644,26488.1585036957,26160.2602545043,26580.093774184,26418.7681172343,27141.3664992814,16071.4486910216,27563.3493655751,0.6750482085,-0.3117783265,0.8641248899,-0.5683323732,-0.7849718042,0.1331894678,0.4104110062,0.9601977107,-0.5655565255,0.0892963529,-0.8839204687,0.0846395556,0.6186588134,0.119529054,-0.0568532969,0.4402952516,0.2945338535,-0.8063051426,-0.1929910159,-10971.1057102112,32321.6893830301,0.4076969525,0.7160286317,0.9056178287,0.789334835,-0.6119081655,-0.4781902745,-0.6391824305,0.2664153168,-0.0791372077,0.1798670753,-0.3627538689,0.0362998844,-0.2388751781,-0.5795886687,0.7406184817,-0.779415534,0.5781110875,-0.4177934644,-0.714551315,-34167.7601223224,-34002.7347808027,-32527.4039006638,-33717.9549594117,-33696.0189998221,-34285.4965889021,-34333.4584870556,-33998.5874156951,-34688.6429829124,-33658.0470629072,-31839.1265728329,-33720.0482086793,-33372.7133983604,-31798.3799517033,-33853.957459603,-33260.2686093115,-31096.358822916,-31342.9416726054,0.9035891121,-0.5206424808,0.9280792626,-0.1543240561,0.433304733,0.6004709685,-0.4479634602,-0.3839076939,-0.9497679127,-0.6230876166,-34357.7293971819,-34080.3605061078,-33907.5003841929,-34050.6789985132,-34366.5991675803,-33336.8046437918,-33095.3829172595,-33106.5155526078,-33689.9437146888,-33715.0123965203,-33715.7710636768,-33714.4174079598,-32895.8308800526,-32865.8437425108,-33260.8695403388,-33701.4542180532,-33552.2234060499,-34114.2348447437,-29977.69474183,6220.1407188738,0.6226014305,-0.4240612347,0.4822344185,0.2717240448,-0.9566951771,-0.9991403293,0.9201908617,28637.4489202641,-32660.8554938773,-27684.7699655712,-19190.478885559,-16972.4024140824,-19028.7261556079,-25240.0903403353,-28134.06525751,-31855.2466020602,-32125.530083498,-32030.8922163657,-32378.4838867866,-32340.0883702142,-32657.9460414198,-33407.2253625416,-32965.2257894792,-34128.8458593774,-34785.6832532023,-34116.8616167557,-34119.9284778028,27993.2233253057,0.8866665295,-0.0222838425,-0.7235615427,0.677594016,-0.1284827895,0.9215078114,19257.5693285438,30128.0657223615,29139.7126884267,30308.3171281961,30134.9523593777,29657.0808823199,29069.1297436031,29529.748426128,29529.1792317009,22035.3532975896,7897.8606215912,-28280.5609795767,-29095.8614912808,-30148.6525082627,-29235.6248894912,-28253.1269235929,-24831.5404127297,-21967.8259293233,-18793.0250187377,-16883.6254543505,-15961.7253772794,-5635.595276244,-20119.3763222054,-0.0237319631,-0.6527202358,-0.3423895313,0.5712187466,29920.4668093573,30148.3392470506,30862.0442655139,30253.9764549021,30136.9136341972,29791.4301217054,29605.857651643,28816.709892743,29123.6920040649,28516.0279952462,13531.4790569433,-20052.4028279637,-28381.0814578485,-29398.5321808372,-28982.0652758249,-27052.1649767371,-25267.0341041129,-19334.6657298733,-14035.4746399492,4245.0845360358,6575.6913139334,-242.9685044099,-20868.9649215576,-28725.671524023,0.2052428072,0.0790613901,-0.8699660135,-20666.0242035228,24997.2997234451,29227.6613701983,30058.7017174686,29384.0027312892,29825.2612890016,29051.5510241551,29034.4709252193,25740.958287305,18171.945035122,-643.0798832055,-18243.1378973643,-27107.8765671271,-27387.3713626837,-28437.7672583113,-27760.371978717,-20365.4984365669,-20447.8185772229,-19469.5133054005,-13935.4466591771,-17729.742799455,-16717.0220601091,-5820.3282035058,-23356.8238887195,-8727.2625317156,-32088.0070701794,-0.411381837,22866.2151170364,29991.9709851566,23225.2874721876,29139.6411558333,28972.5633552243,28175.4737002611,27293.8227033837,26829.9989611925,21431.7564465419,16205.0791326427,-12237.3696290976,-23517.5732689717,-16562.1694600026,-17765.7207615964,-15068.4684215465,21044.6589289659,25105.4850726586,24658.2782166463,12985.1967785954,-7853.2316876165,-23881.6395842061,-25141.5678079325,-25404.3891065637,-20954.2812269526,-11270.3001131155,-24815.1969611307,-28094.5600005679,22865.5240075638,27990.3665986534,26269.7116318715,23912.1896563437,24506.8561861851,27319.1087043264,26463.4097893157,24203.9061721658,20824.4054478192,9914.5595396839,-19043.5697584114,-26300.1251741439,-27004.3334483985,-15363.8530355876,3857.3152652152,18436.8512031869,27793.3982841567,30296.9004889813,31336.6045049473,25669.2802891758,-7480.9251618604,-26986.9302450369,-29113.3150792544,-30061.8775882697,-27916.7430878345,-20319.2262046526,-30257.1073776661,-30822.0716431691,19047.6353913605,27639.1995436717,25810.7314399019,25608.0005256251,25278.3704520388,25779.9121471515,23430.8360777008,18522.9134759804,-25127.3659896826,-29622.8940728369,-29696.0754571676,-29626.9959845411,-29411.3950402744,-27937.7775607581,10100.2631050743,24034.3321697362,29415.772452371,31926.622399157,30724.8820096115,25559.4452503717,-19421.0825927356,-28304.9052084369,-27594.6337516863,-29990.5035957593,-31734.1328983989,-29389.4635198822,-31008.0257557302,-5644.7185590842,24122.9735404784,25815.1749407766,25752.2631603397,25380.3557286141,25806.9547072068,25053.1838547485,14560.8169842922,-26576.1716599377,-29228.4071827072,-29478.411622285,-29104.6245540438,-29740.4906098611,-29878.8660918427,-29368.556872497,21165.0314973581,28310.1449518564,30981.1423270961,31120.3435563717,28892.7035445887,15185.6050286473,-21111.5834138707,-28043.7886596195,-29003.0597120916,-28790.9994420368,-28492.922103733,-22062.3815624106,-23162.0380384586,-8077.2989332208,0.0485344711,23052.5933413352,25512.0507285265,25972.3870941279,25979.5982417924,15242.2786271605,-9856.9121210415,-29861.614561544,-29443.796576919,-28911.8459022657,-30174.2731049287,-30853.7487936604,-29872.1921389389,-30672.0296898181,26446.3457491485,31303.222433132,29972.1781669069,27649.2734941941,26366.0404978293,-5662.8148248203,-28000.9032575921,-29769.5877094537,-29817.9297780593,-30260.0493154074,-28015.8636668219,-27899.5834391042,-26192.4662360173,-0.9646378588,22284.9860665719,24118.0280072584,25592.1223932774,25843.3478182027,26670.1416692438,7149.0973643244,-27934.8600387831,-27525.8208480319,-26949.6239548361,-26830.916049621,-30635.979510024,-30348.9377539499,-32791.5023855593,-17819.561059994,28393.1972202683,29542.637545049,22317.7192813451,19286.0748258538,11298.9914555515,-11841.0867139532,-29294.0682353974,-30085.657110733,-31560.7316052007,-32126.5548619572,-31689.0238345469,-28076.9991306757,-8757.6165427695,0.5105887112,-0.9679161639,14726.678819498,25541.2115648567,26526.0497941532,25913.2395076706,-9210.9535882635,-27197.624606429,-27230.5964428163,-26770.459101495,-25822.4388632248,-25298.0355605543,-30735.7142328544,-31592.8131174802,-4588.0850519029,26303.6691149359,2964.4366635223,-5783.624264547,14015.7513212583,22054.3260789877,-12043.1932026939,-29386.5136453137,-31807.8776166627,-32523.5002219106,-32225.4887823485,-31749.0305909395,-26541.5543142714,31638.6656269446,32601.6747774223,0.8369203173,24480.6030702692,22557.1333171555,29397.7537302854,20475.0099641413,-27572.1610900679,-26222.4091146695,-26490.9344110282,-25870.6397093453,-24542.8035763843,-25820.5767249595,-24730.8848290396,-25649.8906044378,-2243.7690187691,943.5277043709,-11088.8694473286,-9656.4604176572,25904.9651578786,27123.3781280146,917.0619948544,-28979.888001288,-31907.8308884595,-32458.8351498417,-32462.5610898535,-32429.0781776483,-25635.679322048,32645.7279150434,0.5500898578,0.5703204681,13693.7941898382,23729.2325937716,31593.1539372384,14756.3865280184,-25605.7730888213,-26504.5884271969,-26679.1629708334,-22821.1770216067,-22741.1647888316,-21329.4480897383,-23304.5240517242,-10153.2446807549,-3668.7583103919,-1468.1326450588,-4299.0717374149,24388.759405475,29162.1706130899,27923.6791347745,-9375.7626577617,-29051.7245302631,-31865.1444820023,-31884.1785445448,-32314.4687898381,-30591.4213101986,29361.5173720401,32875.337929754,27687.8126353378,0.9607790159,-0.249304276,26265.9668740132,32133.8166904417,27514.2958316536,-23669.8763720631,-24200.75021641,-27092.8130407287,-27475.6587231735,-24844.5102087205,-24415.6582659806,-22476.3669407779,-13230.124021702,-3283.6656561567,26185.043419553,26423.1641817229,29214.807543046,29102.2276624016,27051.8009201897,-22990.9948475764,-28777.034362578,-30793.5591624636,-32114.3351944062,-30921.0281245023,-26463.2499115721,31070.7651320064,32639.1840394442,32526.1817936906,0.3582516762,-0.9094359831,29189.4021202093,31220.7017484963,28398.4688560881,4836.9374883373,-15110.7180969354,-24346.411840134,-24616.0767493551,-28294.7454628175,-30776.7486232165,-28212.1307903819,-19502.585139711,7683.7151844282,28112.4901882771,29619.4727441167,31028.33086697,29376.2208462523,-21785.2077138223,-27725.371042878,-29682.3356772465,-31973.2388006677,-31319.5164891522,-29042.0104147858,30654.5179210172,31196.4273342286,32491.352798637,-0.1077922528,0.9385156518,10880.1532315295,28548.5300069348,31152.7501525456,28952.8327195575,23133.7288170808,5460.2941812591,-26139.0070893338,-29354.2226105709,-30980.9748803265,-31585.2443260278,-29959.46107659,-21331.9945946838,22375.6386476897,28077.5605365946,24973.7791317494,17470.3813760301,-25590.5285877904,-28194.9872016832,-30348.9121616445,-31309.3299024104,-30760.0231550958,-10886.4200300477,30170.6055110484,31136.2510553605,31493.9783477901,32392.7670730472,0.4329855004,-0.7832820432,10878.4173699384,27809.848464155,30382.6306669754,29249.1552974086,28929.8396802753,19018.9795203741,-2186.6066699146,-30284.3855581512,-31254.3406590541,-31475.4473712005,-30256.9334431942,-27338.7642390779,10937.9404122552,14799.8300044495,-17744.3661121696,-29463.4799939688,-30356.098555633,-30438.9605274707,-28894.9288509737,-29188.621679949,4518.8504553816,30038.4995726917,30575.3085915022,32003.2569731702,31993.1916362783,31897.1716496479,0.0046793718,0.0329049913,11329.3776360091,29336.2415513746,29474.5071480218,30453.9038427843,29483.6285221517,26792.563400738,14402.1854007214,-29034.0770590143,-30350.2781865527,-30819.5367447071,-29981.7963872465,-28914.1003115517,-27939.9883866997,-27639.4757869324,-29794.7154175826,-29790.4760050796,-30244.3503123854,-27885.0218579314,-26718.3553888552,22107.0333922649,30362.0935386207,30574.0657486975,31057.7783499819,32288.8948274947,31176.6093096186,30100.0678616591,-0.3217107478,0.4976853062,31251.1739431653,29365.0788462925,29728.859713609,29018.7813777177,29246.7399470449,27194.6119064988,19723.6764629476,14796.4934959693,-15963.2843445049,-29667.3157644838,-27345.4260904394,-28256.2269496246,-27638.0067505358,-26761.9653624428,-26757.6068170252,-26471.0768014069,-25021.1757733833,-21412.1280084832,27893.5259764994,29784.7162462031,30602.6571565771,30770.1705208062,31520.6346488382,31995.7550529328,32136.9792896415,26587.8252306374,-0.3121702195,-0.9941109414,0.4517998911,29050.4308325673,29922.1792858163,29725.7141641164,29364.8810681497,25285.7368472496,19977.6191516863,15132.0582252787,12622.2407615172,-2403.9647593212,-23734.860174279,-26761.0814919021,-26762.3113587014,-27638.9201781774,-20106.75087069,3166.1015383062,14725.5964256368,16371.0469531453,23769.948310887,31036.139513278,31193.1860519547,30963.6123035273,32249.6550264506,32338.9153093181,31079.0317231991,31847.1365561277,-0.8870058544,-0.9485819186,-0.0597234838,22687.4047673424,29515.469794893,29321.1932381051,27737.4357098246,26369.6194841404,22239.8091796372,17259.7829394219,4285.3862728838,-11312.2079553287,-20994.7380088494,-29962.1833915514,-29146.8754022847,-27981.0668061296,-20716.4499899409,-9541.4403627276,-10585.8260902731,-2255.0591330134,19769.0748703091,30959.0126110009,31554.884371587,31988.9711053722,32398.419992849,32471.5814742574,31165.3873901235,-0.9604126441,0.6702737899,-0.5459133675,-0.1562378249,11238.346820356,26714.8255307659,24992.0626246429,31168.0149651417,27897.3613856103,26029.9688965373,23936.9990497138,21057.760645142,15127.5292819552,-15982.6725111829,-28786.8585644661,-29360.8436652368,-25965.1451927269,-19983.992297684,-12591.2868341657,3041.6589715251,8565.716858684,16506.9180296165,19868.6851507043,29259.9913456571,32481.7662772599,24006.8977185303,27920.5529005512,27991.4130463996,0.1981889594,0.8055300141,-0.2586758334,-0.3182284556,-0.7471074802,11950.9394890983,23021.2887859541,30732.233521737,26290.603837819,26968.6505912347,28323.751597733,28741.3087824529,28757.4359874902,27986.0137311396,29537.5940116329,30304.7287837565,31598.9798667375,28293.3816187643,30838.1656735137,23318.654205321,18480.4565519313,15967.9063713178,20002.9875713332,19197.8761296261,18531.72767446,18362.3104564464,-7047.9151393918,0.0462896664,-0.4226021799,0.4871036835,0.4894884759,0.5313677741,0.5810674266,0.3361798002,30451.4005393751,26854.0648913879,24698.6078278358,24485.2558543825,24761.9274143622,24864.0291737482,24687.2697252552,24848.2645741482,24963.8389013273,25050.8725382046,25922.9672126874,25919.2425583045,26487.6814640234,22557.0269757266,21512.7983343783,19797.1581557177,15350.376479984,25181.1857845214,26138.6505460001,-0.1670811604,0.9592051567,0.0142406878,0.3065616966,-0.1977105456,0.6001534787,-0.4907481748,-0.3004573574,0.2961168669,-0.3759816368,24799.7167710196,24773.2179233475,25500.3077019853,25771.1472038724,25713.3538657485,24949.2273511639,25712.8552888165,25712.0184351169,25880.3737643005,26156.1442706566,26161.2626227478,26162.3575631884,25834.0952118357,25696.6778528597,26098.7509210034,27663.7940803062,15538.6960905091,26666.9827073495,-0.3829175431,-0.2932151732,-0.1614136131,0.9791749232,0.4995934328,-0.8493546712,-0.3767295738,-0.6985656882,0.2951172489,0.1684811527,0.1687310261,-0.4244753524,-0.7588649339,-0.6803972114,0.8799043546,0.7289974053,0.2923276846,-0.3557800954,0.1103987821,-31851.7505141927,-2117.9727368725,0.1458525094,0.653194785,-0.9682927148,0.3116183545,0.1542615756,-0.3674694725,0.1712519516,0.5620779941,-0.7749435175,0.4405343214,-0.5508595924,0.5191419996,0.6667890956,-0.3870389305,0.2203420121,0.3045583199,0.1620423345,0.1765593768,-0.986894344,-19975.5801819137,-19455.1750691908,-11079.8218482591,-3315.8616841846,-6244.2605888357,-11478.1851028472,-9079.9192201224,-8892.0485057219,686.5595121435,2448.5704043156,-9739.2129251731,-8395.4155468122,-6730.3645596794,-13067.0136139768,-9491.9317209616,-6827.1573127796,-21286.197893844,-22249.9737710837,-0.8574326393,-0.6635297503,0.6300456762,-0.7959445762,-0.0781223933,-0.7020560125,0.1219903738,-0.1432493577,-0.6663789243,0.3346804965,-8344.7334319444,-19419.7394289193,-12419.125896881,-13224.6376022052,-9811.0236473652,-11773.8445649719,-10569.6013441842,-7544.8965075712,-8006.2372673933,-5271.6881087159,-5326.2811379458,-7837.7016328326,-7545.5908695648,-9223.8381833188,-9721.2343739617,-9624.2152798633,-12206.8329707461,-16072.4909480009,-31195.0071619803,-29436.07234694,0.60485417,0.3087059579,0.2629696056,-0.6352988665,-0.6033291692,0.7059978723,-0.8289258713,14501.0824931116,-16499.0300938523,-19540.1008141371,-23978.6178459419,-25621.4069011772,-28135.0567885697,-29283.4020133803,-31431.9135543491,-28789.4045015005,-24968.86711373,-24463.5139544741,-23956.7553986951,-22775.7988637808,-20716.1469834424,-17932.7193417467,-15290.7434394498,-13841.7288420597,-12369.3833097463,-12269.8128082932,-13770.139125331,-17482.4529878788,-0.0282506249,0.9613561622,-0.2359985485,-0.2943475441,-0.1653941427,0.2341027615,-1594.1233843031,-5400.2436199368,-10283.6820464309,-28615.5991926266,-26847.9135729534,-30048.1356462409,-30299.8648321261,-29793.3835482701,-29530.3806065501,-31498.9029978354,-32259.5324915061,-32202.8211011135,-32274.4324381557,-30780.1242155121,-29506.2552770366,-29781.6431701122,-25465.1184292469,-18874.3671944934,-12085.0041972816,-10951.6518238016,-10984.1432203548,-6354.3367529226,-24057.178680052,-0.1252763273,0.5695414058,-0.7901195998,0.9357292825,3573.5358580827,20121.390329154,14924.4156789506,15768.5586801853,12005.5595780197,-13664.909144251,-24365.6569214532,-28034.8878106716,-29650.3701199874,-30739.9961501469,-30527.9677253812,-30649.6031978211,-30254.4780366532,-31052.7747928206,-30666.1913025173,-29946.7465760993,-28538.7236558617,-27765.0378288405,-21577.1883272607,-18760.9942589599,-6370.2086032589,-10068.9197931801,-13279.6169721532,-14837.0236963475,0.3785950581,0.4716439076,-0.5613851756,7110.4974536545,30504.1297179711,27756.7314068614,17981.7927618685,16828.1668915234,13425.5206548294,4125.0693449971,-15209.3110372393,-28139.0926544087,-29564.6596737012,-30053.2702052994,-29391.892366116,-26157.4850497017,-27980.7656536395,-28856.1201108743,-29933.1577879279,-28823.4664207049,-28527.8935775144,-28545.7367950659,-27042.5344327486,-21895.6274733124,-14653.5396503034,-13744.2906258269,-15513.1069841599,8910.4668469677,-21906.2112422337,0.0064976061,33111.8687962636,18913.5609059737,32943.6099859655,22279.9668736607,24210.3979535955,21439.9764755019,24302.9091322857,24613.3387393066,18598.7709779302,-5786.9457936544,-23802.1578371471,-21943.0502999208,-24001.579581351,-28257.0019912927,-25336.2433374066,-1415.0219375872,479.4654852503,-6858.1971038406,-15122.2257909968,-20317.5556152209,-24664.9937812071,-26608.6970656762,-18213.9888378618,-1728.4001795043,-5551.0766961152,-17244.5918837601,-16710.0701521524,33111.5513418525,34290.9126170339,34064.5706914567,33609.4207174586,28429.1670805503,29431.0732314831,29804.9196396106,30300.1426435729,28496.7307664733,25728.3717676335,10277.8272099203,-11639.0000382727,-12416.4457122773,-6710.37784689,7531.187217191,23980.0696816438,18284.0727303654,18598.0664870503,15607.9557725369,-1917.6144238539,-12339.1995653343,-20440.5101539734,-22453.5271312101,-13534.0985284392,10651.5424848628,11145.1805250451,-8773.2643656078,-16765.9339267877,19811.3957332587,35754.4997322088,34595.4030740682,34748.7487106024,32829.1857532694,30965.8161792153
   30262.2362318437,27636.0267301073,30877.0817803987,10486.9532474035,-8465.8111238202,-16552.9168426483,-17388.0802130367,-13812.4460618108,30438.211433498,32186.6126925141,25648.7614591949,18039.2462133348,13104.7284166963,-1346.6076236197,-12172.4382139137,-23253.4658653107,-26855.1038780412,-23358.4767088077,7530.5744443398,21326.2414295955,12913.8131808756,5336.4036050416,32489.2788976368,34431.0133798687,35299.5799218384,33425.8184605056,33178.2521251845,28257.0044622116,29116.7891819269,26282.8878772457,298.0308814195,-14352.2930962381,-16550.4540244591,-18397.6469260089,-17847.7739053926,-12482.15196933,34523.8854732128,33453.6769467136,24942.7350169922,18341.6131836689,11204.684672849,-3278.6852648876,-18620.7072451888,-31565.0402189489,-31185.7607077038,-28829.860622914,-22362.617042286,26098.5613523693,19689.0184647953,15097.1604553659,-0.4440942589,31281.2886176765,35084.6528078992,34371.0773820703,31726.0412954801,28440.9127859219,24277.9942120624,-4928.860954694,-13775.2091757268,-15036.5761320756,-15851.2518843015,-16761.1905917058,-15689.7519525018,12444.4642827905,34991.7811777556,33885.0196399621,28596.6883951804,23413.9196969158,13227.9159353181,-3823.5520695355,-27556.4790464451,-31599.4134203058,-30704.6080335198,-29786.2267271706,-24834.6935780948,22883.0286752472,19645.4368255307,-0.616079543,32718.352387882,34262.2346260727,34132.6883578568,33609.8456868722,31332.5671246135,24671.774570131,2962.3815196256,-15737.5914980101,-15586.125803868,-15817.2978919459,-14697.9799765595,-15928.939998578,-13654.2842739473,34117.6618048827,34720.5550689408,33400.5499349171,25839.0831271258,23527.1955525244,23079.6689215135,8906.723714254,-28037.1003366277,-27439.079737472,-27447.2790870321,-26718.7517572106,-24342.9742354672,-13915.1492433408,8459.4505395589,-0.6352935743,-0.9790067209,23646.7325904913,34261.5093413603,32038.3708154916,28826.6892281831,17934.951845647,-18276.9945796729,-16805.0722331743,-14996.1905713521,-15227.6903509202,-17112.3231000155,-17284.9213068398,-16626.9750744267,27687.1861615071,33610.9024719443,30152.6039064125,25558.8388701573,25576.4374234956,26217.7125706956,19446.0701483712,-21369.5045796628,-23134.566791968,-24543.3317317015,-22559.4148433659,-20387.3710295566,-18695.7413237254,6112.1668316715,-2961.9657089845,-0.4026081487,34893.0800775952,32129.9165334726,30146.4344361239,25371.9854833781,-23167.0972197189,-21923.329554608,-19459.317023324,-16752.6271928351,-15437.2381034754,-24931.9841403066,-24288.4179805664,-13607.6630520548,9108.7023037779,23079.6722854491,19994.1200035265,26908.7634070375,26231.938612644,27921.1919440854,7030.13486753,-20152.3310620405,-20801.7591990054,-19348.3617059229,-20496.8010165535,-17995.6544958428,-19447.1799905121,-2007.4728033425,-0.3635014323,-0.9886152364,31048.3262435581,30846.4292455495,26648.6141768347,3412.0368039183,-33796.7221057981,-27157.0007628257,-24034.1693335311,-22595.935869784,-25217.3054159851,-30265.0636741923,-27093.8892009033,-12102.5709203653,-5391.667173414,11891.1229721655,22400.9617860733,24705.7962601188,23440.6674172332,21832.1238997203,-5849.9784963367,-20646.2683486879,-18892.7888533,-19265.4628296231,-18565.107836525,-19772.7443227034,-31784.5719406261,-3027.0455507151,-2644.6843075177,0.789381877,-0.4121983305,31589.9495858043,16429.398569228,-21675.401668812,-34286.9707623106,-34289.594328591,-32353.7821079223,-32215.0129855515,-33358.1745157688,-34144.0465012192,-29080.5429768056,-17750.2179364472,-6872.6744294942,24190.5353456875,21852.719694845,16110.008423222,16117.2596281476,8693.9210099322,-24997.2089908959,-23244.7333329737,-19637.8165863874,-18284.1366106761,-21222.542012169,-29486.9176961725,-26214.5436340957,-2642.8286419962,2139.6726176121,-0.7394730387,-0.5073735987,20490.4352451783,12910.6679474738,-29709.1305612692,-34299.3788958405,-34781.6543993115,-34283.6123253285,-33632.6798157326,-34144.3508947937,-33840.8264626485,-31299.6509064879,-18732.3858785821,6063.3118289691,23496.0716366266,14569.4646210459,10640.3349835559,-1321.1225212414,-30570.4056482206,-28096.2868221079,-25773.1522680882,-22045.4703971046,-23299.9417405487,-29880.1658009866,-32900.1548668268,-4949.1885766944,-2678.2052629302,0.7584738442,-0.2042044365,21049.0288975674,26995.5827317539,12524.8756149011,-4557.6288874919,-33853.7014024338,-33325.029453372,-31528.4405633223,-31693.3439566431,-31243.5699986596,-31538.2946453372,-31054.9147988222,-21741.5197236408,21228.1366398489,18534.1614679114,10705.5299211643,-6359.9021420859,-32429.3356212802,-30511.0421496053,-28568.713972554,-27117.9828935932,-28833.790817212,-31859.9348042276,-33240.6997971635,-4949.0265981802,-4947.6993609865,-1152.3123412349,0.024870894,-0.2842839307,21049.371446814,25628.1627083926,13165.9594266384,-28.00140184,-32295.6674163469,-33657.3711117724,-34098.0596298718,-32706.1514410467,-32183.1409326941,-31501.6300432322,-27334.2092093755,-23713.0028053885,7456.4348040669,13771.0382926391,-25892.3644868326,-31654.9925991518,-30743.2068332595,-30020.3712235906,-29699.527380315,-30570.4765020406,-32410.7372965631,-32900.1320668137,-7787.7264846073,-3897.0179180009,-4403.4281885665,-2906.2695068561,0.8015501802,-0.7572706132,12628.5829655739,18822.1823225018,11681.4984577279,1124.5423254551,-9525.2631048078,-31754.2778467628,-32840.1305990577,-32084.3988657495,-31943.723024472,-30003.0172804296,-26430.2338546687,-16398.8836030157,-12592.4443557868,-20966.6936477641,-20976.3267617891,-28740.9973869044,-30032.9895661209,-30880.7502823069,-31164.9424379329,-32502.0320852131,-32274.4562209742,-19060.5424511337,-4448.3399577971,-4783.762913082,-4503.5685761123,2036.1113290683,0.5152640939,-0.0693456756,-25510.2788726213,13203.237295327,10442.2451134561,5704.8016076307,-2606.2915765075,-17520.9623699592,-30149.6621133253,-29437.9331174398,-29369.3481059101,-29487.1556971803,-27964.0014417294,-20487.489581605,-18626.8506356468,-20378.2099435323,-19733.0962513495,-23807.2594059097,-27985.4933950625,-30878.16948403,-30392.259097163,-10833.7218531459,-6032.940442991,-5048.2488340316,-6697.1906559796,-5048.1341923136,-3710.1843777682,-12774.3917867969,-0.7681413007,-0.0089901875,0.8021213624,15368.0248308681,12712.1712564114,10525.9786388285,8184.3725413352,-88.9931694349,-20162.7468146681,-21575.5852803447,-22714.8465656056,-23085.4641391383,-22178.2499213388,-25534.8635522491,-23767.3358466472,-18412.6970615513,-7927.8748810616,-4021.9700096302,-4493.6405898901,-7416.336727113,-8243.4863236872,-4895.3608975908,-4964.281668902,-4111.8472502166,-4933.4345028209,-9571.8882880431,2036.9997277944,32833.5001182775,0.8607227216,0.9489902227,0.2245768039,4605.4950964571,16541.9056260385,19650.8565786186,19515.2375750829,17467.6806201369,15736.5871511662,17767.7682959431,21806.2176266121,22891.2150842844,9717.5534596759,-7546.1590069752,-5446.5374079446,1905.8152222485,12394.7020442036,16807.7181540386,11321.6378787309,1955.0607044806,1981.0644585929,971.5454995982,-926.5165026762,-247.4597641418,-1210.1579060971,10084.8355721387,12039.6477873474,-0.333921161,-0.2999038801,-0.8466878249,-0.3292622198,9684.7485558236,31475.9822709565,31861.4188744463,33592.4003907781,34179.3206051983,33786.795685487,33323.8862272816,32936.4137820299,32663.9381803352,30570.3702503642,27018.8805816915,16174.3305150176,16857.3797971652,16118.9684115401,19772.7793674599,27149.9167167626,25832.6176338236,26480.50992916,23879.707742369,22984.0451546939,7609.2675812152,10280.0605716466,-3187.1838771573,-20103.6558983643,0.1894124342,-0.2942433485,0.7722828939,0.9657131075,0.0465781625,28226.5278381548,31127.3870891906,31764.7633500662,31023.8246904331,30599.209157398,29661.5823057595,29662.3910240687,29655.5536316639,29357.6266569504,31952.0585427143,31380.8546814845,30057.8642801854,30004.2267884055,29887.2727023368,30170.6060516186,30352.7554438239,30237.2747454837,28840.2066581183,29143.3337466429,27464.6251362526,26902.6707492154,5328.3070241823,-0.883847765,0.0800028009,-0.952467546,-0.6549230622,0.332906731,-0.4963086994,-0.5686307729,27754.3600740204,26686.5203359611,31254.2068368199,32210.0649460975,32490.2072203271,33869.3638422837,33790.3259090019,33647.7220005541,32320.1817530921,32039.9776428277,31294.5114694143,32857.9983741715,33052.1271010065,32811.3952609559,31404.1521157304,32447.4128864377,29009.4493518923,31970.3124259025,33369.3219576163,-0.5974426176,0.8448718399,-0.6660598045,0.4922481716,0.4150659547,-0.7354559188,0.3213770162,-0.7413575962,0.291302779,-0.1705499515,34595.5059151869,34031.757674056,33537.5170821704,33503.8791050565,34429.3509247058,32450.021749224,34793.7032971029,33923.2593380285,33320.5591165094,33089.0660762769,33925.0647695003,33921.8354866666,33925.4141943554,33871.1033767055,31205.7350658387,28811.7854579898,22364.3053838149,34019.6438316255,-0.0062982968,-0.3298534305,-0.119499419,0.8531369122,0.8015634604,0.6010065483,0.908816251,-0.421979221,0.9576648729,-0.6048078543,-0.3035124996,-0.1327319618,-0.8667060626,-0.0683552201,0.7318691887,0.1011831855,-0.0403137751,0.313277308,-0.6500036303,-11427.6173369918,32730.9356428577,0.3298402818,0.1617411579,0.6087823876,0.8270216314,0.7346386911,-0.5130218625,0.5161753302,-0.342292177,-0.307925426,-0.9638818356,0.2348816938,0.2709149929,-0.8161000106,-0.314626822,-0.9623198881,-0.9528073428,0.00619388,0.122456978,-0.0195590379,-33246.9890838845,-33951.5880915989,-34225.9076085549,-33951.836528333,-34142.8316540521,-33930.2479774731,-33400.377506915,-33944.9514019375,-32839.8463066973,-32446.0955516747,-33227.251892948,-33951.5627174267,-33043.3149811527,-31734.4054986121,-32821.6891807974,-31676.9904531836,-30967.7604944094,-31006.6335128501,-0.5827810747,0.0768196434,0.2807510241,-0.0225987069,0.7787997161,0.309978555,0.6612713682,0.1071809247,-0.3549687636,0.8026784363,-33956.4753361262,-33604.3506403782,-33769.9703701305,-34052.1683849743,-34057.1335645641,-34056.6220954825,-33957.1111411327,-33957.7826914431,-34144.0139422273,-33688.6690462173,-33688.7277936326,-33691.3360582063,-33158.8964852753,-33129.3769720891,-33765.7604746717,-33054.3145421121,-33242.4287770087,-33967.4211538484,-29941.4735769306,5561.7957890249,0.7770000017,0.1733814942,-0.2960679517,0.6032708526,-0.2805842176,-0.3903994978,0.7597149194,29022.8695852011,-32455.2504271577,-27584.3558233422,-19572.6311413535,-17060.3769450896,-19928.2616694673,-25912.6851830098,-28704.0418885874,-32254.5545671199,-32268.5389047388,-31920.5173936123,-32003.0441125747,-32722.0415398785,-34114.46957769,-34264.6519226846,-33523.8471711818,-33251.4649942823,-32470.2189224669,-31387.3701579634,-33806.2108110989,28017.2337898969,-0.2459587319,-0.6001686056,-0.8976198143,-0.6297585891,-0.5059991758,-0.2578487869,20128.8415513251,30129.8925351117,28929.7391994576,30041.5279621276,30438.9939573847,30408.4021819299,29034.4459205011,29066.145495694,29073.7293292157,22028.6486079343,7579.1724870463,-28190.618379237,-29060.1520864761,-30266.5167543453,-29964.7516032904,-27937.309030004,-24271.7018429235,-21970.7398076524,-18502.3191019791,-17624.4525075534,-17054.9755401868,-6425.9743443276,-18899.3653441346,0.4929949914,-0.826465655,-0.854026661,-0.7829571303,30229.517642034,30478.5720114158,30291.7327447137,29562.3987998222,29808.6046802772,29354.7016568958,29791.7848216599,28783.429642115,29931.6688231561,28848.4427215655,13399.904382411,-21351.1024790333,-29993.1913202994,-30543.386070461,-29674.4061243153,-27626.9671189879,-25851.5497238762,-19610.7330779022,-14643.9687441941,2944.4390137392,5987.9494075729,605.2522865905,-20278.775583175,-28253.2330840685,-0.6846016713,0.4301598728,-0.4182313113,-21000.4335600027,24501.5522250475,29478.8802686313,29725.5275496436,29007.0205736633,28951.8023607826,29129.9495459405,28834.145232395,25503.1434509102,17931.7114565279,-1284.9786780629,-18637.7494572962,-27273.4357039539,-27388.3579035705,-27385.8228255378,-27755.7918246729,-20377.6569381721,-21564.3965557973,-20647.2794839102,-15243.3810633558,-19060.0879713127,-17124.3377083928,-7651.0059182289,-23505.0263924031,-8101.1284618036,-32479.7469623822,-0.3058139788,23153.0356712331,30070.5462873913,23205.2186262797,29409.237318623,28695.7298829587,28213.909272303,27967.4923222168,27185.1140901887,21022.5813354344,15919.2440314262,-11731.7279971483,-23600.6356612212,-16004.5253616227,-15787.2734050467,-11608.7601127387,19606.1100333441,22413.4384806715,19493.8539695942,13736.5462638016,-7943.6262209793,-24167.1597957527,-26739.6700205531,-26779.7252908548,-22247.3434386357,-12704.3107760081,-24887.9554592884,-28320.7756434995,23153.5672876332,28236.6091369579,26552.6060363503,23913.6995147123,24723.9376628636,27405.2843851247,26454.1918305797,24311.679853946,20653.3058095876,8998.161518329,-19055.9439010001,-25974.5480058104,-25747.2633076155,-14728.9371235959,4403.9776894537,18002.275582117,27009.2364556362,28106.7477532381,27903.4321792304,25875.618426786,-6725.1186965777,-26363.1807227511,-29239.7819690361,-32246.5318574631,-27663.3177797605,-22632.5820498408,-30005.1189449279,-30408.564478988,18927.3595387849,27635.6933822242,26091.5713561509,25944.9324401841,25226.3891007134,26300.6645384622,23154.3864500577,19058.7678993089,-25692.6370582581,-29623.0758271002,-29464.7899000455,-29461.1626576508,-29414.2358831154,-27054.4196413118,9605.5020978196,24414.9035084023,29120.2407631708,29896.4200752089,29561.7697086228,24679.1209653526,-19317.2103090055,-28004.5690557156,-28479.9196890644,-30651.1936292586,-32466.8069270884,-28441.1012469469,-30246.1041955558,-6089.3803917336,24349.3596733723,25803.6407924002,25929.2381509849,25882.7030943923,26144.8032722519,25042.8979588311,14267.4703335926,-26432.1969878025,-29220.2636796653,-29100.4470146923,-29028.3413865244,-29063.4435905543,-29440.6162111295,-27921.171039046,21135.0057154465,28547.43790884,30097.8327502544,30901.0725871524,28889.1553546504,13438.434690437,-21362.860283057,-27518.2844878605,-29173.5102608126,-28981.3242339057,-29254.4724509158,-21524.5069723916,-24478.575860345,-8373.0915093062,0.8778057366,24217.8111247413,26038.1861162699,26410.1066499183,25920.5084203756,14584.6778103903,-7927.1188712103,-28796.4285155896,-28386.7029566598,-29242.4741391463,-30788.1088071592,-30855.9348766369,-29873.8332278146,-29371.4610700833,26651.8837299018,30977.1267419131,28753.5101384735,28373.3470388802,27329.8663563681,-7236.6854362605,-27584.7752881824,-29951.9105038995,-29818.4481797503,-30048.1546153967,-27733.3342691274,-28163.7376786876,-25432.7407082479,0.6137346727,22573.092121871,24744.5769461837,25836.7417409387,25145.9984122482,26088.2891412086,8141.7026696105,-28822.0659837105,-28901.3643038273,-27963.6442186912,-28372.3875696283,-31273.5339070961,-30335.8156816017,-30581.3550126456,-20305.6071445148,28358.0669931005,29205.8708091003,22241.3580131378,17643.746283151,12333.9433692156,-11699.3722205301,-29611.6045972211,-29906.1211218322,-31273.418905551,-31927.1275402878,-31123.5811849041,-28367.5189505982,-8546.1562184545,0.2372432636,0.6078414145,14277.5681886692,26229.307489325,25945.2443104787,25623.6114873596,-5834.8731460441,-26914.1392614247,-26531.3179730087,-27102.4237293835,-26726.9938925166,-25625.3740134445,-29794.8800392771,-29663.4005856943,-5819.5203578051,25768.1297365053,2161.1376648978,-5691.8964041847,14210.6924022781,22794.2490767409,-12587.4975941939,-28780.9930404534,-31273.5854581015,-32125.7707239729,-31627.9467740609,-31592.9218039846,-26794.6801624108,32290.499341533,32718.2034430288,0.0103827563,24731.0499728328,22048.6875494394,28816.1475000425,21527.1467504458,-27523.0876634127,-25776.4963242126,-26358.3431243642,-25963.3986580085,-23999.7000895952,-25811.4760674257,-25003.5294150716,-23370.6805501777,-1904.0594666199,119.5491570286,-11739.1511078061,-8597.9410516336,25271.055539261,26184.1976761597,74.7065755965,-29011.2166351369,-31815.2617556485,-32181.9603855796,-31865.7040003241,-31826.2747848124,-26171.465704817,32858.882723298,-0.0959270619,-0.1467052824,13560.3423543285,23605.7182070932,30783.1885827669,14633.4479048827,-25794.406589414,-26896.074924112,-25567.6356631785,-22545.4170980889,-22679.1161778521,-20990.4161316816,-23304.0727521862,-10101.695051082,-1223.127072371,-188.5684361334,-4181.6906335724,24107.1604496952,28510.9737373761,26472.4299910177,-9274.7820427909,-28664.2463890745,-31455.1346773889,-31606.7396253787,-31495.7848388866,-30574.9837399863,29034.217509278,32732.3422626504,27815.1004596465,-0.7802267837,-0.2538385163,25285.1318084822,31542.8036472165,27211.0850198596,-23959.5104204149,-24293.9191950483,-27000.4826867911,-27102.9476489645,-25172.0796057872,-24715.5260876043,-23281.0877996886,-14143.184459214,-1827.7791983846,24171.653331319,27370.0806915173,29517.5005476366,28504.2395919598,28509.7253442412,-24978.8649999798,-29517.6867667879,-31104.5755282564,-32105.219126494,-30737.7506644415,-26755.0257309969,30507.7181014612,32773.6294254395,31942.6384446018,-0.5992515534,0.2723154805,28535.0073458967,30672.3677905398,29197.2056986353,5362.141172939,-15020.7917405994,-24581.1109682697,-24669.16812646,-28328.7398299381,-29372.7245357948,-27345.4987160507,-20915.1040529634,4723.526001201,28095.0419797943,29389.4095060158,29426.3828662977,29977.4822366516,-21866.3949245092,-29061.0305683548,-30167.3917399813,-31737.7326725606,-31585.8135884795,-29326.5922956364,30158.7330120395,30981.7959791242,32494.9824097404,-0.4642658618,0.9813548133,10107.2914520237,28173.2798890343,30422.0564732533,30553.8445507969,23271.2508534606,5540.1316412209,-26086.6888754302,-29353.9764862602,-31310.8185653687,-31222.3247518899,-28503.7806421507,-21046.3515535675,22692.9345507962,29045.4116527439,25102.196150054,18678.417190977,-26741.3380786484,-28022.8771749608,-29757.6058409176,-30524.9623689857,-30258.4710694417,-10027.5043766065,29879.9046347933,30844.3598727674,30690.8492269319,32148.8136133842,-0.7816478683,0.6449648781,10107.7456965041,27191.8599610798,29230.6039991297,30995.2535998272,29693.1607490278,18573.6988063654,-1306.3275235058,-30295.085106382,-31253.0672791225,-31370.122861507,-30298.257677575,-27338.9256400496,12785.0689910954,14695.0214466179,-19063.0359121921,-29767.9619182507,-30557.699241163,-30226.0198901541,-28681.4728998272,-28940.8281719519,4885.9731288467,30282.3475807682,30845.0751841774,31327.389823949,32144.4622320444,30456.2581734773,0.2898847879,0.9283789636,10776.4448661654,28952.7945925796,28584.8532766476,30530.5556759671,31447.8536775513,27209.785513336,14626.6322744976,-28764.2939513306,-30043.6055481395,-30573.9409741058,-29084.3391254871,-29211.2960245768,-29005.962395909,-28664.8984879105,-31966.2366737283,-32081.1832719531,-30936.1249626393,-28478.0922967372,-27104.4264898285,22369.9742787489,30381.7816983203,30674.2650914652,31038.8231646853,31879.1157635417,30331.4275603982,30230.9634674864,-0.2332164793,0.9425830537,30128.804240946,29144.7306278704,29443.665386264,28937.4311348901,30330.063105045,28879.1685936176,20577.6378532472,15857.2451998119,-15688.9921125441,-29891.5193654813,-28265.9956138702,-28929.0668808748,-28923.5889046153,-29251.0730686585,-30759.8351046812,-29728.4474093755,-27155.4515266425,-22274.95231963,28255.2064178602,30356.5427628112,30749.963605669,30956.4608694224,30672.3692142604,31480.2041983974,32133.3301743681,26084.8126961861,-0.2927981215,-0.1647363987,0.7530019207,28664.6190201028,29114.4579279934,29299.9608852305,29531.1249443872,25309.8382749059,20855.4817637143,15588.4197754493,11942.8108542526,-2452.0686883945,-22580.0283192514,-26181.263327843,-25776.3439080291,-26471.2966256286,-16434.8235062104,5668.3486460175,15851.8298500014,17112.7013710382,24157.5687170604,30493.3479668481,31014.7844389589,31075.0217670845,31416.1650574082,31754.8966850868,30774.1516008766,31569.0213910995,-0.045807614,-0.5055356841,0.5958968314,22348.5328986703,29171.3870533135,29085.6036501553,27453.9333686272,26080.9848039728,21612.0801108523,17374.9085740699,7890.2005887606,-8947.7199035883,-19299.7475131472,-27343.7830087268,-29959.3322905229,-28074.0138838258,-21047.3757526034,-9087.2291914802,-10083.8493300232,-2416.1910166914,21784.3099742753,32719.7063068217,31542.893062364,31403.4346410455,31701.9635727783,32153.9345275215,31731.8825017847,0.2370280326,0.5330471478,-0.7019176116,-0.5067413351,11095.6362858263,26649.6772931022,24314.6703409187,30668.9247272708,27902.8867565255,26065.2009340291,23690.9150304289,20621.3176071568,14727.591987777,-16234.5929663537,-29013.8666538001,-29219.6337322863,-26258.5662564359,-20899.6722219975,-13170.1605733465,4051.2415958066,9198.3170846735,17852.1778166448,19791.8715907721,29061.4932565529,31132.0808093978,23226.493086819,28784.3911665448,28535.5694753075,0.0413722183,-0.2236560364,-0.1831832377,0.7832729156,-0.9600226828,11733.7156729126,23030.1917060968,30195.2682226965,25759.0974918818,26378.7110419966,28296.577776627,28782.4899934548,28646.2181035999,28715.9514132954,30191.203486099,30064.1736605329,30948.8133292245,28813.1321530068,30157.6643586564,23537.9405541563,19288.0795450222,17328.2901759125,20611.8867981238,20293.1826709068,19639.0244625645,19865.8231700524,-5706.444902939,0.5982948669,0.6583833596,0.3025225046,-0.0856512373,0.6842492409,0.3851871924,-0.2332392005,28520.4150804276,26607.818775382,25011.3609508351,24979.5267049677,24929.8959682838,25576.4458870772,25186.6139569277,25347.7494620967,25464.1731143285,25715.7914140075,25861.5317399593,26331.3912450266,26671.0669038972,22863.3730775429,21787.9922233167,21493.570199003,15432.7767634247,24545.7721935322,25513.6355391234,-0.4158022937,-0.4773004352,-0.2798611119,0.1432874276,0.960232625,-0.1766014058,0.8967082278,0.3255474913,-0.2315133574,0.0262302579,24953.8442155609,25121.8693966828,25503.5056250096,25352.2822057685,26237.5319086543,25461.6804045832,26237.2902450746,26236.8782048879,26403.5585407549,26391.2771029644,26376.5520387403,26390.9969922567,26062.4844758061,25635.2268083731,26741.8052926689,27370.8226930036,15450.8953723955,26297.659290047,-0.4091537852,-0.5841240594,-0.7658234665,0.1251544081,-0.2964304829,-1.1211483075,-0.5700111157,0.554244899,0.9942353694,0.150285556,0.3831613782,0.8328262211,0.12700863,0.7873241301,-0.0570426083,-0.4273513085,-0.9120661106,0.5294292802,-0.3991538602,31024.0492313043,34593.777358717,-0.3154996546,0.80485368,-0.0336418353,-0.5549125645,0.6322369548,0.060872781,-0.2159553546,-0.3463926186,0.1995942549,-0.7310006152,0.9279072671,-0.9842620836,0.666088584,0.3201934177,-0.2894206564,-0.0799932797,0.3714053832,0.7950143858,-0.6872133001,-23378.5123885175,-24262.2560231414,-31950.2642064447,-31950.0438551922,-27849.1432605274,-29147.011142851,-31189.6023345478,-33287.9667599388,-33484.0196172807,-34883.5747942234,-18964.2172159191,-33019.6585573022,-33003.0952046604,-31622.6054370826,-23143.323872067,-31184.5332873167,-33392.3353230562,-30450.0130421111,0.0256402941,0.3726413465,0.5320339257,-0.3312000809,0.6777422304,-0.1961613515,0.2524660834,-0.7677397641,-0.0990068834,-0.6717994522,-7194.481778939,7175.907106095,-4068.6965950274,5980.5830075355,-14822.4880353898,-16784.3922609785,-23016.6612249683,-29313.3065928147,-31255.1588870741,-31629.8117140868,-31270.4260126876,-31275.5401568491,-31477.8219966372,-32181.1543215697,-31579.2449122646,-33155.9862174925,-32517.2501272934,-26365.0056997224,-1018.3898620526,31352.9564102209,0.5542544258,-0.8890693274,0.8933835408,0.8575147324,0.5927525,0.1605979708,-0.6819950192,-11560.4915523035,7950.2325916478,20268.2813275078,29816.4361160928,30880.0589789649,30381.2839920101,28972.0232709423,25040.5146376128,21163.6392956337,14483.7620034892,16880.591445306,20861.2642496855,16081.6787390734,2261.1354163945,-6657.1830811904,-10229.8407301689,-13495.9083115294,-15083.0240762232,-12290.6079539084,-8927.156731867,14917.9986765725,0.7309937662,-0.0274695319,-0.1929717736,0.6006902801,0.4147458183,0.7464704251,-14691.7659384362,-9336.2855823502,18504.2374829671,29208.5217052571,24629.4749454232,27702.6353867509,26367.5098406184,27227.1293549666,27961.8033983024,29635.3482084222,29046.6523060165,28971.8471623691,29131.5006349142,25273.7211190069,24353.4591855246,8178.6189665873,-2809.4250345707,-7744.4108436343,-14477.1283724023,-22439.9843798872,-29225.0999642536,-25755.5813210262,-31228.6585869136,0.3884868862,0.8205451006,0.2942556198,-0.0524574325,-25611.1449887587,-25161.9570144102,-22034.2561683652,-16191.9898295119,-5355.2568695356,9233.0379703109,17843.2267744253,15574.446076849,18733.9371528839,16957.8088365239,18129.7589094917,20158.4441937025,24952.5182880978,24313.2859290459,21359.4525992138,21636.3960394869,17233.0387965669,843.2082443463,-1647.0345428324,-21983.6700205301,-32966.4434594753,-34049.1311251768,-34239.5765564919,-34452.2160414322,0.2682086353,-0.6868601399,0.1889105392,15842.9346213974,-24284.369989851,-23467.8729310142,-22466.2964615628,-20838.666441471,-5831.9164602023,-1953.7700362311,6112.5867521464,4584.9974431844,7493.4426697078,5633.1956726051,1062.7129445684,1725.9896722328,7112.0033109627,16569.5529137735,15504.2219965955,16056.3748863068,10742.3996791384,4547.3452973224,-2964.8671508294,-8676.5444317882,-33562.1880055919,-34156.5840934578,-33988.2226160511,-33432.9825955651,7655.1952516111,-0.9261291138,27166.5837429483,26144.7356778935,-18476.2524578164,-19332.8975499534,-20268.0930755153,-12160.5831986886,-8878.5156773471,-3495.7395812669,3232.5683797742,284.678666582,8610.0955241129,9751.5807305877,1484.569127588,72.3261345344,1553.4475090412,12321.0254390165,10212.7771179157,15892.8704161901,12478.4658118674,5499.1813323775,1069.1494095762,-3011.1936396692,-33962.236295232,-33699.7565505253,-34227.7069330311,-33971.8549867705,-33622.4532292053,27166.7706508156,16910.7769093175,35755.0469025932,-14378.2265447022,-18220.0470928443,-16604.6380491508,-9237.5163698135,-352.7727855566,12558.6972542833,14411.6163692752,21533.8011357458,25384.331224323,25277.4905084793,9937.830625135,1839.7771466701,-1556.8625654011,9082.7508800631,16564.748513587,15382.1290624062,13826.768696131,14960.1056293529,10585.5337318958,2237.0491868689,-33228.309665621,-33945.9546304103,-33987.4464450513,-33141.9491248675,-17342.5044341714,23671.8879259341,18109.6871001766,21189.3555801347,-8588.6621701767,-15352.0981283515,-12986.922055741,5817.0256633177,9159.1550750129,21892.0183705834,27367.1493389138,27366.598302522,27395.0066040506,28541.2823538727,20302.4308305066,-3102.5263555549,-8856.7458033504,-6468.9453569932,14311.7750175486,23782.3645995772,20749.398009371,19600.4225470783,19936.0855489979,20614.4996683941,-5896.4481315894,-34024.7427349643,-33424.3767422037,-34624.3298362744,-23345.924600065,29562.4208362552,18767.9479366251,14897.4713131709,-6915.7747270219,-9592.4742642041,-5134.3149254174,1050.6656529147,18667.8249344889,20803.3022844952,22784.5942953864,22561.1618445781,21220.3076600691,22339.3969148527,-15308.985330022,-25107.6050744941,-21433.5924768949,-16505.806287182,-3087.6643420723,17327.9340213872,28795.6015704723,29065.4691907413,28211.7749414014,28938.8970932116,27211.010937294,-17036.5533944245,-34339.4508249704,-34990.0362393086,-34614.4005444403,-0.8735607242,35755.6950046728,5258.1188375124,-4552.3240040743,-12039.8386569438,-12074.8327669716,-757.3904921472,16554.0134096726,19641.6185274875,19973.1743617577,18963.4628107359,7087.0978103709,-21745.1167450689,-31063.6047601283,-30795.5415241396,-27580.8959798736,-18909.6967820334,-1373.2024542294,8541.0816510356,30642.6400961948,29430.9125416039,29805.7399604145,28500.6053360795,28513.1558019834,18824.6955401347,-33471.1490911857,-34311.4974039827,0.4190529992,27332.4705754068,35216.5467760883,6220.3864743791,-6641.1874572926,-18925.7001452392,-5769.0798993929,16179.2955862896,20146.2561785141,16754.8223017531,7981.6034651266,-10837.4374559789,-27846.4953177958,-34740.4551307042,-35262.2160971398,-33228.607203896,-30356.4575248459,-26015.8879068802,-7309.2120768202,-4012.8349231475,27576.4276141917,27921.6075796437,28501.2100395709,29076.3743374547,29470.0317262003,28844.3776442884,-28183.6301082118,-4908.5885644789,0.6754985605,-0.7112789012,19584.4221485236,-2878.6611898445,-13515.6268365182,-16987.4177264408,5528.7382820358,21961.0076795902,24375.3175500123,15874.0739784528,-2159.1048997316,-29101.2630988518,-34627.3963688376,-34739.8001761825,-34453.5581768379,-33614.4620361264,-32443.1253549261,-21468.4464129038,-11361.1684898441,-11243.268413138,-842.2221462906,20199.6243729606,29323.6879465064,29483.1864808905,29426.8298013698,30117.3811183149,21074.5244408513,35742.3098785861,34203.6864604348,0.6569378077,35754.2147789114,-1172.1998612941,-17792.589904135,5361.5412624875,29892.1064178388,30673.6476816916,28373.1077435249,25775.3202364079,6760.6935055391,-18912.1939112688,-25265.6059024265,-34739.6194050707,-34454.9378765197,-33422.0289256395,-31537.4939687117,-15417.1570201084,-12741.9831858296,-11643.5229472728,-6001.7508405101,14816.6687491205,30244.656290842,30893.2953495081,29943.2255970742,24374.839473586,26105.4553571121,35465.8392191828,-0.3898548599,-0.8761969003,-27279.2584403731,-20453.4235294622,-16684.4676757652,32442.3720464592,32809.749630074,33869.4296484301,33372.2610810592,30424.7368887853,28244.4169069074,23140.3373064534,2565.0242764565,-13135.4697667574,-25329.3894675921,-27744.1590040879,-18034.4149619166,-2275.4178972234,-10754.4402529776,-17135.343159351,-3222.0262945855,8623.9148904899,24001.8121135663,29584.7811199675,27462.6701277869,21168.7004884623,33558.2284033825,35175.4840350512,35071.1067540627,-0.6077561805,-0.9982137075,-30856.6680444306,-26840.933117879,28249.8413641078,31516.8260879921,33499.104974648,33457.8473398391,33382.8885437997,29436.7618649939,27134.2640743021,14486.4389975933,2809.8520125151,-6804.8211729104,-12454.3079073261,3824.1259085127,18522.2181360838,7267.5818163718,-4627.43527248,-1497.7243676956,3896.8538785492,15927.8629433974,20073.3788174941,23529.5115692122,32615.5234183785,34304.8535937881,35174.7714178923,35754.8475954036,-0.4801257021,0.823293864,-29694.4729829524,-23331.303554422,25047.3111980592,30131.5131563164,31296.8768039223,32019.064847231,30794.4075215927,27948.4507536715,23513.7175481149,11816.4504868145,7147.4786580532,6977.6257546682,4154.7892140635,22511.7740114955,30005.286383173,12926.5743498745,6202.4122136344,335.9304696167,6556.2079150842,10994.9284587086,18349.0408802274,22792.365827633,33848.3202659271,35753.809830031,35464.6336601256,0.8351079686,-0.0531532205,-26320.9277247947,-28437.5090469271,-25027.3284962664,20717.6237265321,29966.9606975042,30339.4610953601,30138.00035936,28216.6579016434,28616.6940057754,21567.8166205084,11623.646921813,11524.8460256794,16580.1793943624,22013.6151783776,30230.2695407617,27846.5338684265,7181.6812191973,-42.8716281109,2806.7398048471,9112.1488118675,16267.8431848436,20703.6626273638,33558.9124322339,34883.6105188842,35755.1794124041,35463.7427906325,-0.7756604279,-0.9064400929,-26319.2789542108,-28115.4913868362,-27369.8576507679,14375.215469307,29385.532546286,29476.6371059811,29381.9123940839,27921.8447213344,26571.7179554567,21479.6985289558,23228.5159574014,22668.8829421899,28531.6922149839,24358.6167105877,20480.8282451595,16695.3748007709,10925.3294362343,6000.498620036,9246.1788155276,19306.0006419418,25050.3864032584,31294.4085569227,33847.6261431225,35463.539658862,35754.5940901159,35754.0597520044,-0.0858766488,0.5197368228,-22222.1473960162,-24956.4387211112,-20615.1882176842,3973.939926412,25122.9816461058,28019.3143584427,27066.982452993,27517.4937570234,23228.3527982591,22894.1473847213,21470.6965170947,22110.4993137825,18432.0656260205,4457.1587125011,5751.8416249243,10131.0076690752,7745.3016334719,8450.7081335182,18332.6633881237,23911.7907811463,30830.3980338267,32822.6121274622,35007.9725779109,35464.5671405718,35755.2021750606,35753.9929228395,-0.1357079421,-0.4803985201,35589.5361590083,-24663.419338889,-20696.050098849,303.8139480225,5244.3079594904,11915.4007809903,13440.2475162851,14172.808021391,14069.3961108539,16297.0548324505,18858.1889884563,20730.3995939133,9020.6630534832,-1056.9001509041,-2265.5143392176,2172.6858401523,4817.6530371636,14262.7844490668,21736.714760894,26253.3397898141,31738.0102820632,33367.3666341818,34884.4014286987,35754.4262628261,35753.8557481697,34304.8223622175,0.352167789,-0.0442613286,0.3083187778,-23377.5897232055,-24436.0358818055,-20947.1602981596,-7730.4741304405,-4046.9962933509,-4550.1619380567,-8683.727568089,-9008.8275884072,-8353.0868648864,-6382.5851453882,-7537.7192100531,-11629.844454364,-21939.9847290604,-31997.2672565688,-21852.8394185449,-7992.3325265113,8533.3986467618,16425.8230837818,23171.9975529831,31236.1852857683,33367.3492991595,34428.0347915725,35008.2193728898,35465.8988290024,-32584.4125695815,0.5122463588,0.9909962442,0.2082468262,-26944.9140803815,-24864.1951789496,-23630.6379396286,-22931.7446557421,-26917.1460493103,-27396.1676691967,-27575.3874297431,-28305.583342889,-28505.5087959452,-30547.2983087482,-32037.3012687247,-33249.5262199404,-34315.3010468824,-34543.4113059935,-32872.8875915351,-28229.3105444402,-20515.5741797016,-8821.7043094142,3983.444104008,28081.1467727471,32089.7497536371,33389.833485425,33100.6231541422,-25473.9242544025,-0.2534092379,0.7097888165,-0.8839882109,-0.4791309295,-27166.2418041526,-26244.5399398316,-20392.8341462715,-16823.1081123126,-18947.5628336513,-20201.2912394057,-20409.6674466694,-23709.6857103017,-24385.4410268838,-26949.6576644746,-29298.8623615203,-31115.0883555587,-31622.0754281607,-29459.9722862845,-22114.1402190546,-12550.55628361,-12923.23109273,-11779.2965505146,-15129.1412456398,-12881.277025538,2974.2188765447,-20240.9553375923,14643.8633874885,28872.1350209727,0.0252407289,0.6547348983,0.6358980572,0.0048655592,-0.8082740435,6782.8941465682,-4697.4709900518,-4280.153191873,-5179.2254163262,-5078.8091412337,-4980.0834003381,-4551.8365015496,-4279.0903537411,-5554.0090863257,1705.6685133075,5962.9745929956,8808.3282522303,13017.9829015378,4793.5671077131,603.4998465154,-7879.0434807452,-14147.0326154304,-17573.0637552631,-23853.3080308519,-31058.4955444707,-32758.2289201491,-33682.039566954,-0.3533679914,0.8645998994,0.9627922782,-0.8177611324,0.8958261917,-0.6482856238,-0.5889922531,7395.3470387078,-3980.1923671672,-5712.4113794867,-4980.0269825845
   -4680.7067681026,-4178.7759753393,-3414.1439976153,-3603.6632413337,-2544.5724662734,8061.5233277704,9751.3615785277,8879.654710562,12387.8421763739,8924.9862663168,-1831.4586915405,-13625.6025563539,-21417.4589673894,-33692.5531061369,-19600.184794007,-0.8043040823,0.4776462162,0.3123282141,0.3637308781,-0.9491221542,0.7615756738,-0.0593292056,0.0205739108,0.6456216842,0.2191864552,9723.4408473631,10220.9686462204,-1473.5504996831,25320.4884401801,-3851.3233891191,-578.5852262466,-2455.83798164,-3414.0542504127,-3096.8609820853,-3052.0886648437,-2968.2796349077,3555.7665872294,17921.4614144762,-2379.8549198324,-1026.846983539,-4411.7373146797,14441.4997854152,-6318.2073409084,-0.3255432748,0.9797793726,-0.0274474315,0.6880249836,-0.1866756809,0.3315719689,-0.7343298211,-0.6561744261,0.1895475518,0.5066376097,-0.870312951,-0.495129878,-0.6006733952,-0.0078588399,-0.3726711538,0.4789885125,-0.3482715307,0.5881646932,-0.2833025623,-11288.6188765923,33527.6221026767,0.1450248658,0.3991549976,-0.8920529908,0.1795732283,0.8383864247,0.5232521777,0.4676158822,-0.2809635831,-0.9901637852,0.3959041199,-0.8209515061,0.8940981012,0.0689287447,0.4399491614,-0.9615683996,-0.3795188973,-0.0399699707,-0.1153163868,0.6197029434,-32399.2540376639,-33145.6161748113,-31694.6533043258,-32563.701415211,-32855.5829813305,-32273.699137096,-33145.335218455,-33144.1532984742,-33145.4758271239,-33040.4620035433,-30535.244739693,-33724.1923851476,-32493.9651334223,-31221.6220606201,-31706.5879089745,-32268.2237094099,-30976.5874840108,-30634.564331033,0.3859875748,0.1762802046,-0.2673296878,-0.8452417936,0.4363139221,-0.8022901417,-0.569705843,-0.5760145269,-0.3664707847,-0.6138939504,-32564.5494026203,-33813.3831199305,-33998.3581967029,-34095.6265306359,-32853.1059932631,-31982.6993392442,-31403.1366387888,-32564.256168714,-32564.6812941237,-32856.0862644959,-33434.4136320411,-33434.8429427044,-33195.3638097307,-32874.6923129488,-33559.8069464623,-32805.4126774471,-32979.6718295991,-32397.2686670109,-29364.0303713518,7623.7219953652,0.0990577433,-0.3900114421,-0.5155259268,0.7442829829,0.6400847668,-0.00878958,0.114004116,29313.3915273053,-32746.2185809006,-27737.3850266117,-19800.6063279128,-17469.0319509612,-19742.9429531699,-25788.7697330494,-28095.6712797102,-32352.4605977857,-32585.6412549376,-32526.3305340581,-31845.4571559409,-31441.9158757619,-31409.2965475219,-31692.6866205411,-31817.2840379968,-32398.027434674,-33632.2580362226,-32572.905554245,-32397.6532263307,27633.9669566236,0.6513184455,0.7605734944,-0.8529480789,0.0749368121,-0.8211333793,0.5530630439,21562.4516601956,30815.1171740619,29423.1414105158,30551.0218166906,30889.9708461369,30399.685981817,29296.365820889,29113.0260680197,29088.7177919614,22270.2499830261,9192.2818874,-27980.4492964431,-29080.6403340058,-30102.1628817216,-29580.9090233009,-28257.0502075774,-25242.8962036188,-21970.7428943665,-18671.7215850043,-17199.4324001001,-15632.5793110705,-8936.8200353459,-18904.5928890324,0.9562270745,0.5555541728,-0.9006763829,-0.3608758145,29357.0254584264,30427.3068191988,30587.2688002403,30550.1919270231,30802.2930414557,30602.8979548141,30603.2178394032,29575.0001974032,29797.14097246,28824.5413096496,15311.5292501421,-20189.0236336211,-29608.1228224529,-29996.2234157947,-29708.9201106226,-26470.8664435322,-26176.145702157,-19831.1206391539,-15976.1245994329,-8303.7055875384,2415.7978756533,-4400.4525152519,-19689.7218680559,-27969.9800327972,0.4529036961,-0.7233124851,-0.2964167463,-21023.4842108303,24768.5046457899,29479.6539297047,30066.2629984418,29681.2766397237,29545.2511380237,29340.9320914761,29576.1809667379,27592.0098776055,18876.6348634754,876.7934763992,-15790.5526137524,-27328.9461313089,-28088.3109932921,-26740.4542404298,-27238.9838442558,-20149.8789170564,-20676.3467891587,-19344.8735278533,-16790.8843537756,-19598.2979160065,-18340.2216578468,-16637.1138048418,-22187.4036971098,-14074.7147031965,-31777.444088716,-0.0393412972,23733.2454456241,31420.8215878415,23234.1048102815,28431.566998032,28323.9589445284,28155.8600525182,27736.0489434653,26833.8122665034,21500.7044732372,16167.343126959,-9496.4829667981,-22962.6307776004,-17349.9042771201,-16448.7975501635,-13405.2678205625,19768.2395123559,24805.7489209291,23681.8032740186,6906.6056077946,-8465.4290097478,-25379.5644324507,-25663.386940144,-25723.0588529597,-24033.5553879599,-22085.2274796807,-26466.3535198323,-27415.1809386948,23734.2684517706,28237.1957631414,26545.7901541174,24181.6577640596,24512.7643227393,27318.6973444719,26722.7785422009,23856.8175089969,20827.4324973341,10520.9287362472,-19238.216218366,-27281.0875227487,-27540.991254657,-15486.9600048338,3857.347164883,17131.8613287851,25574.9524102049,28107.8547174038,31045.9012249747,26293.3014804683,-7407.1982551528,-26458.0066338643,-28458.7878473354,-31101.5869485276,-28194.9297030011,-27147.8143314257,-29962.1639729803,-30153.243824252,21594.8911907061,27340.700599214,25807.6251965057,25607.1950884859,25804.9078736431,25075.5901901904,23765.7863584343,18323.9155083302,-24705.2810128945,-29435.2030824038,-29395.7998256965,-29625.1278574558,-29412.3786643463,-28253.9312457717,8910.0247540792,24092.1276324064,29706.2322367167,30769.2270523727,30142.6655947845,27212.8886813442,-18299.8227350632,-27997.4864818005,-27720.6703417274,-29707.2928365564,-32011.362742605,-28970.4449249801,-31074.5961257291,-5697.0045080343,24404.8857383165,26091.0868268597,25646.3107869307,25379.1156042414,26079.8134115026,25418.0545420183,14250.6269771479,-26765.5520062774,-29677.2394646049,-30186.5732341153,-30717.9835514177,-30895.4556065772,-29540.8516266614,-30132.6250675288,21594.0179336341,28576.5568576004,30980.7589587693,30211.6664663581,29771.7997897477,17425.3917706966,-20301.296426256,-28333.4880979775,-29928.0797042608,-28988.8938061293,-28700.227156305,-24093.6485272124,-26698.0594304619,-13801.5426425727,-0.4843731867,24607.7148651811,26051.8183050982,26244.1203675927,26469.1964385968,16624.4648123622,-10657.8607067124,-29861.6159307386,-30018.8815228971,-30169.340381063,-31039.7444691368,-31721.9527502729,-30455.3418267831,-30373.963114943,27130.4516920266,31621.7521365961,28774.0389214033,27340.4554453375,27215.8172214354,-5320.7097209586,-27268.2804031174,-29359.6784648924,-29360.1904804693,-29383.3420279808,-27798.0392271759,-27299.3335662321,-25898.0881457666,0.5335895495,22965.6254119227,25431.9777536023,26130.4186354879,25145.1105213385,27150.3835167832,7336.9369791227,-28108.189283755,-28901.0937832918,-28210.2983289002,-28091.1313987352,-31794.3426946954,-32085.5186496519,-32786.8401251317,-16951.7224633146,28061.1660319557,29251.5665003179,22090.026611586,23824.3631322764,14119.3849799737,-6098.5350460462,-29677.8260102223,-29966.686728825,-30546.0553368354,-31631.3202132878,-30295.9740938043,-27221.2198877507,-8728.724820152,-0.5340110861,-0.4176503266,14567.2137449259,26242.9452732726,26234.9296968069,26623.0324082782,-9995.2695785053,-26848.2159603866,-27231.6138660362,-27349.8206026901,-26980.2151753634,-26456.4534348256,-32473.0352565417,-30848.7425284407,-3974.9123418895,26045.3045066578,3610.5117138617,-5490.0170479482,16752.9529970087,24472.308454668,-10290.15419818,-27657.9532634245,-30285.8319465841,-31840.9873730017,-31260.2918675555,-31199.06816646,-27061.213243297,32338.8124793017,32684.5746322923,-0.6342451517,24940.9628920982,22122.5505846851,29976.6054561832,21090.7104526701,-26935.4784716327,-25421.1472005529,-25954.4443085263,-25593.9852594149,-24834.5129413364,-26976.6048883377,-26712.1317366071,-25286.4038032876,-2040.9377818104,517.2784236572,-10505.4767344637,-6996.2340094301,26200.1926662495,27127.3936617021,2783.3708655545,-28424.9624572384,-30195.44544708,-31624.3937595973,-31208.2423577661,-31726.2692110492,-25901.5984820916,33063.25983383,0.3255247854,-0.4691571405,13899.1289789634,23972.145280904,31608.7261602036,15287.8355794247,-25127.7349896507,-25913.9764324837,-25662.5816878738,-22831.1011394934,-23032.128712622,-21328.8859289051,-23366.5580974986,-10747.9155140773,-2093.1664939381,-1100.9069102499,-3830.0165859898,25280.6514652222,30504.0005460019,28221.6364287858,-3226.9999957679,-27946.6730745771,-29788.0939994223,-30754.5149521353,-31033.6213777907,-29204.7010135217,28864.4985245715,33229.4267201367,28248.3560930675,0.1735830895,0.2317495471,25845.3041955908,32221.4892453837,27341.9356750256,-24868.720121456,-25102.6767823335,-27471.7427658909,-26976.7235734421,-24845.7838784609,-24580.048815914,-24041.9989940174,-13229.9705592779,-2707.6199888418,25655.4746619652,26718.9759405478,31218.2662214653,30478.8380279562,28215.7457223522,-24720.3836486784,-27347.1080605565,-28854.1952243526,-30664.4859576755,-29518.0473584002,-27208.4238071517,30778.9998485333,32990.9358546985,32879.5363988205,-0.9113176469,-0.3406864125,28870.9548506679,30320.3145509242,28235.8931298169,3354.6027680472,-16280.1424586769,-25350.1389999436,-25212.6333017348,-27346.1766505676,-29951.0617118111,-28503.3831970932,-19727.2704628443,6442.9159760973,29339.1878559157,29289.4246902575,31042.1815349269,30666.3877691435,-19289.1040987257,-28505.1954079465,-29102.7405122804,-32064.2575044037,-31844.181299114,-29382.6125361641,30091.5115081744,31196.0510584025,32762.6577875824,-0.3907599671,0.2251862519,11508.1822872944,28196.745240406,30399.2917339414,29575.3757363794,23232.4008919167,5682.4377408578,-26526.2239710208,-29508.5879847373,-30887.1770198551,-31084.8767679818,-29081.9727153586,-21910.2354149814,23092.2277865831,30531.0357152746,25297.7351462183,19095.2723383095,-26841.1564828723,-28390.6356542152,-30541.3562947456,-31110.5897267078,-30622.7366678161,-11474.4184398207,29887.2405218077,30845.2464810367,31492.5049531959,32563.5109278157,-0.6450772024,-0.9140035878,11508.6203025407,27467.4505573569,30387.5147283547,30213.0949016944,29190.6239697382,18906.3737227765,-2315.5435044371,-30449.9860125541,-31137.228472885,-31606.6946607227,-29373.8607238537,-28148.3741976377,10479.1029103113,13816.9431355886,-17554.6494206249,-29460.7424562703,-30347.5175086856,-30793.3991468773,-29127.8243016928,-29189.1436608975,5570.6236410849,30085.7601376159,30575.6022115406,31611.8786182846,32263.177706916,32363.1643845486,0.5896427154,-0.4008723195,12384.4324445529,28915.3893557114,29040.0960725913,31889.9681793422,30409.1256438859,26791.8858845111,14264.9322299976,-29166.6448929193,-31158.4156429247,-30256.5137436649,-29983.0805032818,-28624.1035601679,-28265.7412595412,-27639.5534314789,-29207.519588809,-29790.9628579213,-30528.0356221925,-28979.5938284588,-27457.8292355151,22253.0867840852,30361.7082042315,30651.4459425987,31057.570035647,31996.5934046387,31640.7854360319,30231.3102962641,-0.7113414764,0.9065428225,30548.4275445712,29147.3729114267,29443.6317795892,30806.4629698406,31321.6660159747,28044.3976989868,19816.5790171029,14664.9107479796,-21155.9836077859,-29648.9552785098,-27344.8684121739,-28255.8692908821,-27936.3126590195,-26763.0554235791,-26763.0759010375,-27054.2530073473,-27442.8524129866,-21686.6805552944,28746.5628512302,30397.3916740561,30674.4324590038,30644.0325406383,30958.780971099,31705.1342166446,32235.044163423,25784.4314366268,0.1545235742,0.8268138375,-0.2312250999,28666.1179561226,29681.1339598378,29732.0322138303,30160.2132003079,25903.5910738083,19978.8300503255,14800.5505445124,12157.7502294468,-3787.8758432369,-23441.2243033539,-25747.6849384523,-25892.0929512993,-26762.2225385881,-19517.777616334,3849.3111221342,13140.1318951504,12764.7991054908,23990.4764424206,31074.765148689,31212.8108482455,30877.6536237453,31686.7884920969,31776.1052375025,30516.0471805215,31089.0826689834,0.3694208552,0.5903630209,0.5576551756,22151.401293103,29166.9655598426,29087.1896124184,28015.3259813146,25997.2234363617,21629.9489400591,16737.4040678342,1839.6471733812,-11153.4982260206,-22782.3517692766,-28914.1119343167,-29455.2032503151,-28190.2717913333,-20449.3467673504,-12285.4072238227,-10925.0607941289,-2281.5799324329,19500.3019769331,32337.958138702,32038.303807089,31990.4646870564,32108.2741579824,32471.6570939088,31855.0010038451,0.3156942513,-0.6604262355,0.4130254072,-0.2740181142,11162.5174478409,26412.8771414569,24649.971405358,30660.9201270133,27904.656055182,25485.0381109227,23653.3461864226,20634.0329132772,15019.913875646,-15456.9389100699,-29341.6276981039,-29221.8913129108,-25668.7030391814,-19515.4067329832,-12074.4165857684,3492.3466995077,8805.202657069,15678.2440148213,18305.0219197728,29387.0591077734,32302.3723850598,23979.45149077,29406.4642199811,27552.7171252209,0.143615772,0.5509873549,0.0681354703,-0.1742976414,0.4641033565,11694.6961987344,22110.7915031768,30226.3003599248,26480.9635535778,26971.5550300311,27950.6638657462,26618.9399131178,27574.7513827115,26980.7518470058,28321.8474375196,29432.8981750248,30838.7592915794,28649.6948974174,31131.0316655536,23239.1844495543,17933.4306422408,15461.7697970907,19037.6269759136,18926.2081698653,18150.9554988839,16110.4243774578,-6939.2891595707,0.5476666562,0.1296739533,-0.3221241843,-0.3621832351,-0.8760359933,-0.3803563541,-0.4680415832,30361.7380515132,26600.0574602239,24129.7996954984,23970.8335575913,24209.8639714572,24475.5529278812,24692.172123871,24852.0021238327,24682.2749094651,24643.3841621615,25642.755037377,25633.055145317,24794.5872544652,21781.5423105621,20813.6992485305,18354.2767627106,14854.8416903814,24664.5519701191,26202.6060801209,-0.394456182,-0.6641192934,0.4698650438,0.2607229327,0.2074577923,-0.2978897101,0.3294918636,-0.2083412174,-0.5392849103,-0.0720947766,24516.5212832179,24774.7557019471,24831.0317098161,25488.1136222316,25999.9798303074,24665.6451472311,25427.6042925184,25714.0131480375,25878.4631599248,26164.1773062888,25876.4922941311,26155.8252293308,25540.3755590718,26254.760080736,26375.3205678561,28028.9474095633,15062.4096527754,27256.8630130223,0.8071457633,-0.9073870034,-0.514612634,0.2420516892,0.0238202315,0.7963079544,-0.4070064281,-0.3739074586,0.0566264672,0.8775952588,0.1750322476,-0.5200532441,0.9168595483,0.9829280433,-0.1536989306,-0.3129218757,0.9940257159,-0.4506277751,0.5500738957,30647.0814312488,10429.3382406651,0.0930764656,-0.1174766278,-0.8167507914,-0.1301454106,-0.475603901,-0.7222475888,-0.6637999726,-0.9834692241,0.1149940484,0.4557883613,0.3059981819,0.0535720989,-0.6695592195,0.4100225906,0.1718477833,0.7695277466,0.711885654,-0.0500756076,0.7583678225,27007.7005068483,28785.0882659795,26898.2475729425,18623.0422651042,25940.1622213392,27894.0121802305,28239.5616365543,27897.581732489,28693.7181852624,30563.6822932166,30586.3944892144,28430.6254410526,29944.1503204057,30922.7933985034,28419.1058618519,26850.6967307039,33496.7704472182,32248.8825748366,0.6383844515,0.482277406,0.0385547477,-0.9042076698,0.8451433031,-0.6765977157,0.1944590498,-0.1572461744,0.2203576169,0.0226654383,22454.2060791388,29694.7556736909,27391.5833855828,27760.4059242202,28779.210583208,28597.4096944338,28124.6968135426,26558.0753779258,26446.9010466572,27920.7383536363,27997.4762037849,28568.3902942552,28702.034148828,28255.9485176285,28042.0688992226,27337.8021764216,27236.2085198552,29229.9719140304,33157.2443690921,22426.096359974,-0.3680646011,0.5583953966,-0.7015501336,-0.5835949068,0.2625989803,0.0201373201,0.2276684234,-2895.3877302131,25811.8550154903,26358.2903116185,27117.38080451,26988.5379909526,29328.8959983199,30496.7050052029,31365.5711956379,31692.1922623914,31171.61770503,30952.1537285876,31032.4027321899,30599.731671945,29616.3840599474,29112.1317172241,27864.5120841821,26118.0582994784,24721.2243695155,21026.9543830792,27379.0828364828,18605.1354440165,0.1875451579,-0.9421623311,0.0977370916,-0.7184706213,0.8873689224,-0.7149340193,-1268.1259825734,-20390.826749228,15322.9595950284,7697.5479786477,-1073.4446040589,1296.6179478152,4199.2391062544,695.032258655,8907.3728463135,27767.5776678864,29838.5623786245,30306.6888985389,29874.2606744932,29588.7017268012,26956.5138940263,20601.5858250664,-6705.3479970982,-23830.1273996569,-32306.8894557116,-33859.7577503233,-27494.8557934065,8670.0659169417,12399.8579775167,-0.1804952435,-0.466864734,0.1430848972,0.6330844979,32222.5117825139,-16940.6253010107,-17376.3052223722,-20425.7451336543,-17575.4940947168,-19643.1628419522,-17978.7306987966,-14383.6324463374,-8187.9099301144,-549.7772934944,17699.1762558934,29848.3609257513,31620.3077508726,30220.3316202874,18279.0486835711,827.8214603127,-17183.0652559217,-22144.0287428759,-25301.2693558125,-33065.4794338775,-33309.3415236174,-29081.6330023358,7805.5478268064,27366.6700246283,0.7813718902,-0.8013228435,-0.5556710805,-11068.8440027497,33839.9019478691,-19314.3164774037,-20669.229377552,-14491.6901691386,-19496.1293642284,-18377.7306970961,-19978.4659873294,-18673.0484095677,-8522.4586754086,6531.9510705943,30868.3116289291,31236.7574849877,30281.909595718,26749.0805643763,26980.9750725778,18405.0431441139,-11118.3426364953,-23601.3195480277,-23891.8031053655,-28557.4406661469,-33486.4865655062,-22720.7334795984,21893.4554030629,25063.281361663,13847.0079427612,0.5595750878,18004.7198741067,-15869.0580670592,5123.0664642655,-5418.2947991805,-17040.3956667629,-8196.5090597443,-16041.3388160308,-14592.7074018254,-14424.4200588598,-11162.1199883708,8420.5894318454,24960.4186988182,26753.0750169787,25704.9269664932,23175.6268190469,21399.1590342243,22994.0597221862,21664.2599046907,9180.5670128572,-21341.5029074075,-24737.4125099883,-26488.4579049058,-25572.5987414215,-260.7164867137,20174.5636599799,26431.0292438244,14658.086351367,18005.1260755677,31303.1077368512,23250.8001630646,30028.8233875802,-4189.6724975919,-13090.2068908264,-13726.7465521263,-1763.6599998818,-153.176528671,-1089.7976612315,-1052.766425735,23371.474922172,22666.6251294934,24337.7365465827,25206.474589559,28954.2714982462,26501.8933023543,23577.4621105064,17821.2067861148,4916.2203069446,-18451.86499344,-24563.763749756,-19226.6209195057,-5490.1313568943,8830.416337247,19096.9977453304,25956.5171178103,31937.8910367554,14997.5507075882,30709.5802139183,30520.7702560628,31799.3301583542,-6356.8636229518,-3853.1396968779,3350.9584801498,16185.9746134666,21173.2217239675,16927.3374945586,16427.8703184449,22698.7809434144,20959.0641017454,21416.4815236911,31063.8018727806,31413.8372438962,30321.6576632294,24826.21900054,-19581.2597401632,-19689.5321174303,-21087.4322031163,-10254.5258320903,16394.3336740561,27229.7460208573,22196.9665969189,21670.7960995684,26017.187500846,14866.471469723,14716.9364345329,4680.3622247999,28877.0347713664,24959.0355927432,5514.3838251354,-8427.5687359579,25141.5632544202,26204.7742144059,19107.3904135554,13663.276754657,8265.2077360019,14559.4643152976,20777.4538397943,22991.9888815926,31731.3922872127,32789.8297263203,27424.4935021689,-22776.1545676891,-20677.0830233415,-22412.721466809,-25111.7928609691,14344.466202115,26936.4525188364,28840.7933903425,28541.2539198174,13774.6639468206,27017.8769110618,7426.6311134445,0.3878868804,12537.0509370441,29640.6026516044,12870.8717755233,-6796.4035371036,-1182.6974230388,22007.1892536304,16893.0389930561,10374.9454517547,4387.1006125317,-7654.324264565,-4685.2409478927,20143.6893325813,23932.0439614693,31825.1934943972,31343.1438268137,-22479.4905555996,-22692.0786067825,-21088.5953236548,-24731.5491497299,-19641.722155312,24631.6290191941,28913.0436183877,28592.9622469149,29281.7310187187,21073.0583575348,29723.811842011,-0.1903991058,24132.447376624,32594.901056421,24529.8576276494,3515.31621588,-4344.5455026244,5818.2198538706,15020.9180241276,11543.660211266,4440.0155211553,-7472.571819587,-12555.9163251337,5944.7637843067,21758.9993507272,27994.1487906527,30793.5662596062,-6541.7922223276,-21791.7797147289,-24747.912558476,-22708.3031313806,-23836.7864569255,11949.6815741027,23051.9710624921,24097.7662142709,26743.3504401204,27192.1203078258,30935.8553755113,6440.7347476603,0.5622394013,-0.4301391612,-15619.885380635,30379.6665948499,29856.7857901693,-11961.2689875306,2691.2991144693,-16646.0900985597,-24407.2915724238,-23560.1740426663,-16455.7343383657,-12502.0022855787,-10206.8933579346,-12601.2904213897,-16718.4622214197,-802.3419188626,-17057.203014449,-24429.6838553216,-29531.6586256749,-26471.3751937613,-23806.6606680585,19081.3032153387,20843.0019797946,22611.6505064108,21349.1634722757,22683.268382832,9620.6717039184,43.54412772,16559.9540927405,-0.2039315474,-3257.2979486075,29919.93211685,-2355.5128326898,-28733.7605005346,-24344.0497103302,-34092.7671168262,-34121.8185769362,-32497.0780091192,-32598.7725210037,-26054.498103004,-31042.9920826079,-29747.7696271318,-22126.8825690029,-22814.7193010091,-20135.2868725747,-29743.2980731872,-31276.4091863424,-29690.6996008195,-27478.96443998,10468.4869507648,19244.6962441446,19035.2794182561,19929.0756219784,22235.4843571481,13150.2597989131,-670.1442761821,-0.2834328693,0.448632276,12519.3976254525,29084.4781965834,-30367.9632949721,-30827.7242533906,-30600.4864143934,-32065.9103067145,-32637.5097653406,-31016.5312227554,-32028.4180003668,-32813.3135540676,-31790.461111599,-29500.9545802374,-21686.0733801633,-21781.0469228539,-21142.6345516032,-29748.8525863468,-30037.9030809924,-31316.2423553772,-20901.1455183888,23181.2612433885,20867.8704105487,19836.5109460191,20271.7667802458,21656.0425434984,8848.6323089645,-16447.4331758973,-22829.2331446883,-0.0833878695,0.2572823016,28281.732360251,-19420.9431664339,-668.8246353109,-25574.8813550443,-33100.0495249775,-32513.9957197831,-29677.6212658612,-30884.5427506836,-31594.4789127146,-28988.081431567,-21523.3520365159,-21853.4716761691,-22626.5051737057,-23866.9777818783,-27922.0771155431,-28502.1390793263,-29082.8579213031,455.2870353762,20300.4319639711,24317.2331336695,23282.9155983485,23964.188235299,26481.9475514592,-5930.2240703756,-6098.073397583,-6712.7253005188,0.3885971229,0.7762542815,30511.1792443689,34060.6074854693,30762.6645022036,25894.3940116917,-17041.5932985877,-25300.1712756649,-26310.2030650745,-25334.0700671384,-23135.865589172,-23407.8666262247,-20508.3218406233,-18230.2937436225,-22609.4043272059,-24155.4767074997,-26366.4232692401,-29067.1672333257,5416.8661602713,27955.3232518642,29483.4209876325,28771.1554199307,27337.0829462532,26957.3890641139,-3310.0787217969,-10959.9281472215,-15814.2642886758,0.5255077029,0.173126534,31137.59240898,29954.8950869911,33548.2626664526,32078.2434312602,29351.3360256292,26351.9067074811,26539.2382915739,27482.3446106252,21419.9464056054,13352.9984462161,207.1942036096,-17766.135632539,-16844.8254772517,-22964.8277660346,-21187.0265671407,-28637.4470460613,12278.2962466253,28006.7391117539,30083.1044117273,29823.7670691096,29999.0254900266,29301.7717987477,21465.2663176614,-12349.1076450361,-13382.3109299388,-20783.4214964883,0.2711639282,0.4126141978,31137.7782050251,26908.4416770889,28005.5909661229,32204.4578759293,30820.734160525,26954.512737637,27733.7168979054,31334.1202477072,31689.3690301916,30328.5159219332,30060.2668813918,13105.2124255087,-16127.0553085111,-15386.5973476605,-11546.2885905629,17086.5477155831,25152.1414994239,29924.9738520699,29716.1867111585,29333.2974221623,27250.1261061882,20038.7700827271,-11557.1119948399,-15772.0775163473,-16315.2399497658,-14404.2633184308,-0.4967990535,-0.9016250492,27096.1661992591,31155.9422638952,2152.1095038984,24025.9504764525,31326.8394557709,30241.0639826864,30589.8386356888,30997.8651890842,31966.5312248696,31961.2305930435,30087.1786783436,24148.0926404228,22307.5798433711,22221.2882837555,18961.6989722211,21246.7012490044,24810.141816789,27733.406692619,24843.6859220262,24066.6114463519,2590.7212158373,-9326.5369021079,-15030.0826610836,-16554.1692420852,-13405.2341014883,-14118.913365118,0.6486609644,0.1373439995,-18284.3596912496,27940.9163464409,6344.1472026798,-6536.6756623966,29554.1292995185,31189.1849704713,31325.3894302567,31182.7400240099,31583.0709868375,31536.6887345409,27045.7767516561,23279.2538163297,20792.291182346,19591.6638890865,18706.7802380812,21692.4787304547,20343.1956134873,23574.8286361431,18183.7773828488,-3880.3736895464,-11800.733867325,-15869.2366810804,-18194.70645391,-18681.4699895384,-11090.2995067816,-12028.9289793738,-0.9173168294,-0.6967345413,0.595338285,22417.7206860442,23415.2745494358,-6248.0874085503,22323.7000971006,30163.1578043165,30781.7814055825,29358.4366485598,28478.5056466586,27228.2903561895,24159.2713918549,20118.5052025981,19759.0244738758,19537.102435046,20367.2582891961,17752.8620911178,3632.1890569364,3680.4990768334,-5473.1908161782,-16084.8827495616,-16127.4841119972,-14612.7995401814,-23547.5990668204,-22509.8499603849,-7097.0124280593,32228.4062604831,0.954788789,-0.3297910551,-0.8041803699,21922.7706589394,25989.7580006821,30085.7736334529,29917.9801035475,31141.9253784441,30066.7773561814,27710.7401628611,26763.5622396895,27657.4160444766,26770.7205349903,23871.5018949348,20709.8381474812,21088.6780223448,-130.6975315861,832.0855886632,-7762.6046717562,-15011.8861546587,-27909.5689124002,-25857.3347790885,-13573.6300413486,-11448.7520820953,-7466.5887548746,-1717.7847009498,19467.6542589634,0.4883454003,-0.9559937205,0.9682177891,-0.8020344555,16157.0624196595,23578.9655709433,29557.0668663705,29717.5899813137,29774.891586313,28212.4939562503,27049.9969265203,27632.0674820305,26462.5882934753,25868.9642122321,23047.5816031935,21055.7508225433,19058.927462535,8736.9661693784,5102.287526466,5830.7384886164,3791.6977837868,2886.5167878105,15933.7810943129,8600.6214723865,3927.3141971333,15168.7436984173,29623.1837992594,13699.7385274462,-0.6059653909,-0.6224164025,-0.722849084,-0.921386933,-0.0651747439,-20273.0310336214,24080.1414645292,8559.8914816029,9310.3448018415,16329.2726896684,27435.3009904376,26071.1613019811,24724.56797027,24971.5187672348,23722.1486412399,22748.7572030988,19569.9232769436,21422.6373992696,15919.3912105603,20871.4500745487,22932.8563554118,23687.7379304868,20903.6759806151,20670.8558189027,20135.4073225265,17676.1987443919,26240.015287895,0.394228513,-0.0120643924,0.8401735257,0.8256388068,-0.1162528014,-0.0612327558,-0.2621090286,-9255.5357642124,-8412.6247438531,12166.7764998513,29532.9150236403,31498.9716800832,32074.1658533191,31678.9533705722,30815.6268891417,28293.7794287348,30643.6662209006,30019.7971026264,30719.0331497088,30156.6603200573,28252.1887144338,26215.3261302093,29306.1731475202,19499.0115115114,22130.235845092,1764.787082946,-0.1997440006,0.9314348734,-0.3435265664,-0.9421110656,-0.2442571158,0.6888362028,0.8668141683,-0.6270743481,-0.3548941008,0.4939991473,10721.994127,9914.5756269262,31327.5083183333,32017.9181293314,33825.24250084,32044.7466894501,31239.8609467817,33330.5546208468,25258.506075414,32926.3960688154,31710.1846108625,32764.688129837,30255.0133179337,11791.1462291901,24197.1980999297,2829.2233623931,24942.64069732,-12797.9061567315,0.8976995408,-0.7974578958,0.7370265949,-0.8366531649,-0.2032219685,-0.616644022,0.8594639272,0.0388724056,-0.8700383194,0.6918009013,-0.6743834357,0.8027373894,-0.5897152081,0.5657155464,-0.5570879895,0.0761486924,0.4324716043,0.6249467289,-0.4511226139,11599.7619144371,18064.4792019556,-0.2316165789,0.6536380973,-0.9451658923,0.5953557688,0.4694477776,-0.4390343859,-0.442992225,-0.2245870902,0.0426484574,0.0792033046,-0.8423226492,0.1528513657,-0.067654953,0.3113075842,-0.3119028086,0.7776066429,0.8028497908,-0.4617328276,-0.0586825676,-4262.9169005545,-15038.4640387595,-16247.0204128701,-18502.4636853738,-7295.257662506,-12406.1210093936,-24155.2099553965,-23766.4932504968,-5955.8582643028,-15671.7703719699,-6608.7893960106,-8264.9354886483,-10965.5259623675,-22852.8207599826,-23129.7810922263,15149.3582238402,-13769.3567114739,-23332.8743307098,0.2742679708,-0.9457374178,-0.4673558826,-0.1542074879,0.4194662064,0.4998448878,0.0276520345,0.4457074639,-0.1834504852,-0.2766727756,7871.6355153378,-11196.5325927892,10604.8493214909,21698.0921612359,7869.4292876155,-6.4699864715,-2590.8366446892,-3677.0799662417,149.6841379141,161.0515737567,1621.7348136908,9121.9264007361,11517.8218855208,16450.4391368741,16160.9979232588,3362.9073816252,10362.7513390919,10717.5676383261,15274.3691700352,21675.6514919779,0.8535210641,0.0996340515,-0.6923648925,-0.4841519978,-0.5133509993,0.9437766433,0.1426408779,22512.4253756749,18794.848670684,24550.9793397866,23018.7225384901,22150.9347427473,21872.4600571351,21771.2384672151,21956.2005188131,23949.7274753492,24776.1267721053,25067.9299347798,25406.1557440206,26192.8943737312,25261.8991970043,25780.0109067681,26565.1537147026,22031.268657763,24983.476388081,24769.4687468586,10231.0397905696,12308.2422076374,0.2488519339,0.5322254452,-0.6909437025,-0.332270774,0.6444966117,0.9053114678,27813.4874840287,28076.0975937318,24857.4563169381,23690.6869314181,24949.802802311,25569.0429154401,26282.5599748555,26079.963901178,25058.4782463191,23862.7981796734,22994.1438098611,25531.0640301712,25311.2576450984,25074.5764060159,24568.4610278788,23459.3508209948,23060.4604389704,6158.1741497213,-2663.7795604382,-16050.9776443598,-16635.0217127196,-26854.6442942747,-24374.6112908274,-0.7911032299,-0.0896146927,0.3922353998,-0.3965491828,14080.0762843427,29668.5118751776,28077.9566506933,30529.6453847459,26892.0245684153,27661.5200991943,28094.3194299013,27876.5308670033,28228.1733063185,22990.8527308682,21836.817661903,21626.2800737819,15400.3451205147,8560.4290665069,266.357577713,-22078.4699694642,-24757.2821407233,-22042.4511021265,-22722.3568343524,-15523.8380576979,-12788.770433464,-12643.7802897342,-22481.2094765893,-30935.7945118959,-0.6613640482,0.3346922861,-0.9599511276,-17696.1611388704,22333.0409564474,23991.6180684933,25877.2715700009,24544.9398674348,27164.3289174223,25348.3979453514,26587.7458170573,24825.3892563498,25554.6498484874,22990.2546415852,15414.8886767553,-10139.8577658188,-23642.5276693433,-23230.4221064838,-19985.5515644253,-21532.566622747,-21594.115967584,-22729.7937321185,-23115.8231627327,-22457.8953204733,-19610.67546299,-16556.31677862,-24523.5167131742,-24636.7015658981,-28748.2870219581,-0.9948916926,-8099.5553195557,8322.4431856142,14748.2838009461,21704.1999745185,21019.2146074092,21648.0122826697,23274.6850982542,22771.7089076087,22555.9156427181,22222.7879274698,21265.6898315732,-23932.7366523782,-24680.0769943955,-22162.2285192452,